FANN_FLO_2.1
num_layers=5
learning_rate=0.010000
connection_rate=1.000000
network_type=0
learning_momentum=0.000000
training_algorithm=2
train_error_function=1
train_stop_function=0
cascade_output_change_fraction=0.010000
quickprop_decay=-0.000100
quickprop_mu=1.750000
rprop_increase_factor=1.200000
rprop_decrease_factor=0.500000
rprop_delta_min=0.000000
rprop_delta_max=50.000000
rprop_delta_zero=0.100000
cascade_output_stagnation_epochs=12
cascade_candidate_change_fraction=0.010000
cascade_candidate_stagnation_epochs=12
cascade_max_out_epochs=150
cascade_min_out_epochs=50
cascade_max_cand_epochs=150
cascade_min_cand_epochs=50
cascade_num_candidate_groups=2
bit_fail_limit=3.49999999999999977796e-01
cascade_candidate_limit=1.00000000000000000000e+03
cascade_weight_multiplier=4.00000000000000022204e-01
cascade_activation_functions_count=10
cascade_activation_functions=3 5 7 8 10 11 14 15 16 17 
cascade_activation_steepnesses_count=4
cascade_activation_steepnesses=2.50000000000000000000e-01 5.00000000000000000000e-01 7.50000000000000000000e-01 1.00000000000000000000e+00 
layer_sizes=4 21 11 6 2 
scale_included=0
neurons (num_inputs, activation_function, activation_steepness)=(0, 0, 0.00000000000000000000e+00) (0, 0, 0.00000000000000000000e+00) (0, 0, 0.00000000000000000000e+00) (0, 0, 0.00000000000000000000e+00) (4, 5, 1.00000000000000000000e+00) (4, 5, 1.00000000000000000000e+00) (4, 5, 1.00000000000000000000e+00) (4, 5, 1.00000000000000000000e+00) (4, 5, 1.00000000000000000000e+00) (4, 5, 1.00000000000000000000e+00) (4, 5, 1.00000000000000000000e+00) (4, 5, 1.00000000000000000000e+00) (4, 5, 1.00000000000000000000e+00) (4, 5, 1.00000000000000000000e+00) (4, 5, 1.00000000000000000000e+00) (4, 5, 1.00000000000000000000e+00) (4, 5, 1.00000000000000000000e+00) (4, 5, 1.00000000000000000000e+00) (4, 5, 1.00000000000000000000e+00) (4, 5, 1.00000000000000000000e+00) (4, 5, 1.00000000000000000000e+00) (4, 5, 1.00000000000000000000e+00) (4, 5, 1.00000000000000000000e+00) (4, 5, 1.00000000000000000000e+00) (0, 5, 1.00000000000000000000e+00) (21, 5, 1.00000000000000000000e+00) (21, 5, 1.00000000000000000000e+00) (21, 5, 1.00000000000000000000e+00) (21, 5, 1.00000000000000000000e+00) (21, 5, 1.00000000000000000000e+00) (21, 5, 1.00000000000000000000e+00) (21, 5, 1.00000000000000000000e+00) (21, 5, 1.00000000000000000000e+00) (21, 5, 1.00000000000000000000e+00) (21, 5, 1.00000000000000000000e+00) (0, 5, 1.00000000000000000000e+00) (11, 5, 1.00000000000000000000e+00) (11, 5, 1.00000000000000000000e+00) (11, 5, 1.00000000000000000000e+00) (11, 5, 1.00000000000000000000e+00) (11, 5, 1.00000000000000000000e+00) (0, 5, 1.00000000000000000000e+00) (6, 5, 1.00000000000000000000e+00) (0, 5, 1.00000000000000000000e+00) 
connections (connected_to_neuron, weight)=(0, -1.26688985325746572563e+00) (1, 4.68413163885092020955e-01) (2, 1.09822356233181328555e+00) (3, 7.06203104544417432920e-03) (0, 1.12396434983933124485e+00) (1, 5.68300867617818394883e-01) (2, -1.13567745459350583070e-01) (3, 2.09300586732668325585e-01) (0, 9.51169863494957801286e-02) (1, -2.85976380786908068732e-01) (2, 1.93850870611970343971e-01) (3, 5.77873825818226549700e-01) (0, -1.01535252791451369170e+00) (1, 3.11779416959236888029e-01) (2, 3.99167807686643533183e-02) (3, 3.33040456848042398796e-01) (0, -2.62326620822907252695e-01) (1, -1.85188503438917323463e-01) (2, 5.49786935648677727029e-02) (3, 4.81825481623348150784e-01) (0, 3.31303747705366768983e+00) (1, -2.29672670741965581631e-02) (2, -6.21227723792209807208e-01) (3, 3.38258186624985246471e-01) (0, 2.05973579326137157253e+00) (1, 1.35430583149972499912e-01) (2, 3.52290707068739911145e-02) (3, 1.14320985987565071351e-01) (0, 3.50572775814358372770e+00) (1, -1.01428106411651841601e-01) (2, 1.54015964678954597744e+00) (3, 4.20525290624496672631e-01) (0, -4.03305024119116395376e-01) (1, 4.79484865701952436834e-02) (2, -3.88999806036874340442e-01) (3, 1.14422441412363684599e+00) (0, -1.16177025865510685776e+00) (1, -3.74299374520404987132e-02) (2, -7.18643900104505739534e-01) (3, 1.78621161497056410439e-02) (0, 9.31455947988652166458e-01) (1, -1.09791978514673579936e-01) (2, -3.43085711247116897926e-01) (3, 2.14747203782203299749e-01) (0, 7.32138452955336194172e-01) (1, 1.67988359838429801574e-01) (2, 1.23811515286026033178e-01) (3, 1.25125121604118788587e-01) (0, 1.98396381958318934746e-01) (1, 3.83347612353375666316e-01) (2, -2.79341093555057096154e-01) (3, 1.78054278103077279205e-01) (0, -3.67519352867886728298e-01) (1, 5.44775512018234930878e-01) (2, -5.74494563205273020556e-02) (3, 5.61850529113763208500e-01) (0, -3.85135250618774904741e-01) (1, 2.48542801651419731357e-01) (2, -5.69693361252568197806e-01) (3, 7.65173907655714136133e-01) (0, -1.03801154666080708289e+00) (1, 3.30664701549830131189e-01) (2, -2.69911746313924831575e-03) (3, 3.27915103082459358230e-01) (0, 7.11382615606603541103e-01) (1, 4.32321339289859163380e-01) (2, 1.58887311037858025564e-01) (3, -4.18881104805644055578e-01) (0, 1.60268920192871366925e-01) (1, -1.92624022721465726349e-01) (2, 5.08332957217120351423e-01) (3, 5.42903361960581865020e-01) (0, -4.06501792500077396841e-01) (1, -3.58186421297434220978e-01) (2, 7.17000016887698737866e-02) (3, 2.70973903770878987718e-01) (0, -2.16204914022405114693e+00) (1, 6.36600287514039631098e-01) (2, -1.25662734277731558130e+00) (3, 4.82985140164744961022e-02) (4, -8.89137492686261410313e-01) (5, 4.57750644997959588167e-01) (6, 2.47167100746533530131e-01) (7, -2.28585011022551826132e-01) (8, 1.42709798323147563082e-01) (9, 4.61926426087523711583e-01) (10, 1.01517959062345575205e+00) (11, 7.28594620946902082892e-01) (12, 3.05488989911009478639e-01) (13, -6.22119735997231582125e-01) (14, 3.59868157231408691832e-01) (15, 3.78840816779357658639e-01) (16, 5.19849492544143920725e-01) (17, 4.50342960765326705275e-01) (18, 2.91172707844387479437e-01) (19, -4.47788490453821852455e-01) (20, -3.48229636880485082795e-01) (21, -2.22790747872476449509e-02) (22, 2.16951123353844310682e-01) (23, -6.67667291876183066623e-02) (24, 3.19954321942259534151e-01) (4, 5.12770541313360861402e-01) (5, -2.82412682425199311476e-02) (6, 6.32115906101337721168e-01) (7, 1.53051425687597286718e+00) (8, 6.80454485524883301295e-01) (9, 1.09774517835067669802e-01) (10, 5.68683446451202154193e-02) (11, 1.55817620922350963397e-01) (12, 6.52449265893710106390e-01) (13, 5.08683341318799997488e-01) (14, 8.26599431481110369369e-02) (15, 6.69124869920652010080e-02) (16, -8.61277184544875958061e-03) (17, 1.67248877074175283930e+00) (18, 5.92003334979337325628e-01) (19, 1.39327613008089534752e+00) (20, -9.02776885294903075341e-01) (21, 6.33251165968052198707e-01) (22, 3.49920257992453365148e+00) (23, 6.38775789398948856679e-01) (24, 5.43358854064666996209e-01) (4, 1.10870971044492699908e-01) (5, 1.44217745896752291834e-01) (6, -1.20284745902505874060e-01) (7, 1.63034469892985894868e-01) (8, -1.31360701776736199520e-01) (9, 4.41783301856012666775e-01) (10, 8.06048451548217803619e-01) (11, 3.56057404094162477382e-01) (12, -2.93532001224330076072e-02) (13, 2.00882777534210271719e-01) (14, 7.98392641702562882999e-02) (15, 2.97071772414083890013e-01) (16, 1.63961491617049398561e-01) (17, -3.85721102339508181700e-01) (18, -9.28885114255099259006e-02) (19, -3.43294808630781989045e-01) (20, 1.28544146047020524382e-01) (21, -2.36075097006635148400e-01) (22, -8.14015202680948846137e-02) (23, 8.71023334086592181114e-03) (24, -7.34797667111859453826e-02) (4, -4.35562252523880033550e-02) (5, -2.56882291020017694549e-01) (6, -5.10806322144857549716e-01) (7, -7.70654488892558053870e-01) (8, -5.91397091164520327666e-01) (9, 1.93893036817024411178e-01) (10, 2.79460761899249732210e-01) (11, 1.94735317502926053024e-01) (12, -2.91045639685385715278e-01) (13, 3.48083034059232965252e-01) (14, -1.55950847999401148725e-01) (15, -1.06339487141316371699e-01) (16, -2.03011516816056752921e-01) (17, -4.94659735814230927531e+00) (18, -3.70012752218786211689e-01) (19, -7.84057450885338180768e-01) (20, 1.41316067969519987280e+00) (21, -6.05330275992835176169e-01) (22, -5.58769462261095384292e+00) (23, -3.53700005762963010092e-02) (24, -1.50155086541245041953e-01) (4, 5.60587807248534630844e-01) (5, -9.89037205630558385883e-02) (6, 4.20924556628938129066e-01) (7, 1.26725411192832626561e+00) (8, 3.35170302294132083087e-01) (9, 2.70376012847642344106e-02) (10, 5.69123391666963712732e-02) (11, 1.60377438275620676222e-02) (12, 4.70423016738011789961e-01) (13, 6.70471641948049756898e-01) (14, -3.11351883531149398188e-01) (15, -2.62180999969544525907e-01) (16, -7.92985135547619596208e-02) (17, 4.22407706168973495764e-01) (18, 4.60646658241609940898e-01) (19, 5.61880216973514756695e-01) (20, -1.14556866562864856363e+00) (21, 2.64813654857237845697e-01) (22, 6.77169242425388451245e-01) (23, 3.30428286327333065042e-01) (24, 4.62862093330501211952e-01) (4, -3.14650414973883740810e-01) (5, 6.85916796003924522651e-01) (6, 6.65682133092560968102e-01) (7, -4.99908956252916383822e-02) (8, 6.68301319212592503938e-01) (9, 1.23531800659399082498e+00) (10, 8.30782154952644846801e-01) (11, 1.02268956464780447213e+00) (12, 5.25572510939216086534e-01) (13, -2.82390695466395391655e-01) (14, 3.51855321602195347808e+00) (15, 1.26144157340831863934e+00) (16, 6.13416306745953487933e-01) (17, 4.12926440064847743994e-01) (18, 7.81979399969886190824e-01) (19, -1.44644222643314834809e-01) (20, 1.04528655984911761356e-01) (21, 8.19458739156513904511e-01) (22, 2.01008470455834670210e-01) (23, -3.77362630432982404383e-01) (24, 4.91839277995489654316e-01) (4, 2.45292743846851207801e-02) (5, -6.11777114727250562187e-02) (6, -3.51544614562444290851e-01) (7, -9.56483261170416376729e-01) (8, -3.99477998332816275351e-01) (9, 2.27383412805803875045e-01) (10, 4.49775571931719575502e-01) (11, 3.11097094459063527871e-01) (12, -2.30929974497151357937e-01) (13, 3.25480371694791770221e-01) (14, -2.29804494426867095269e-01) (15, 1.79931439347667448958e-01) (16, 7.19475752396038087388e-02) (17, -3.37496291903045475546e-01) (18, -4.10794956915541575881e-01) (19, -6.13832263010482215293e-01) (20, 8.31852170027563508903e-01) (21, -3.70818657653102567995e-01) (22, -4.86861549176361152469e-01) (23, 1.40938064544407021250e-01) (24, -1.09278412346960271395e-01) (4, 6.17179186944565527639e-01) (5, -7.18872154110066913235e-02) (6, 5.28682616740078326067e-01) (7, 1.48684663082620360797e+00) (8, 6.65499601123827999594e-01) (9, 1.91648893201864151115e-01) (10, -4.88486962360051499288e-02) (11, 1.55026158403917618811e-01) (12, 6.52556638016745904629e-01) (13, 4.78951689317479223362e-01) (14, 6.35149944613838529639e-02) (15, 5.86790324041032082536e-02) (16, -3.09095511141228712626e-02) (17, 1.37743532829321968514e+00) (18, 6.15675976633265231719e-01) (19, 1.46374809444842224337e+00) (20, -8.09887479137631260961e-01) (21, 6.35331694971213112311e-01) (22, 2.28179784186457057515e+00) (23, 5.32890127178364703120e-01) (24, 5.90764753246855067736e-01) (4, 4.12483344060857404223e-01) (5, -4.92613493965062612667e-02) (6, 1.34438222006485946780e-01) (7, 3.39552751272107600222e-01) (8, 1.96938229457065933081e-01) (9, -1.08521201856796076224e-01) (10, 5.72941784181865264997e-04) (11, -1.95719493313833009518e-01) (12, 1.12078241719315532809e-01) (13, 3.02714356282743901616e-01) (14, 1.65015988777382660579e-01) (15, -5.64451992080602163449e-02) (16, -3.39344316643495291785e-01) (17, -5.37989691744882661539e-02) (18, 2.63953977602077616282e-01) (19, 2.96848047050240759770e-01) (20, 9.64200152342494232194e-02) (21, 3.11169977925467633462e-01) (22, 5.49045595698984922883e-01) (23, 3.06150638559851140386e-01) (24, 2.60576776875569515735e-01) (4, 3.12474524627758321049e-01) (5, -6.81583411008870654335e-01) (6, 6.01804897678795275295e-02) (7, 3.33765027133634983869e-01) (8, 7.77515098270761678689e-02) (9, -5.30674300318443870061e-01) (10, 1.52034355680740917993e-01) (11, -7.00915218423674435400e-01) (12, 1.44125919091213194889e-01) (13, 1.00368623122554390809e-02) (14, -6.42693102812803673807e-01) (15, -7.22808526161830888768e-01) (16, -8.95998382399221582340e-01) (17, -2.17775698170439457879e-01) (18, 2.01458834731406105645e-01) (19, 3.67297736016920506330e-01) (20, 6.73413626816020793875e-01) (21, 3.26925313995786587240e-02) (22, 1.69352321261082738868e-01) (23, 2.12100241103810094323e-01) (24, 1.74094180809963222645e-01) (25, -7.36428716737775879153e-02) (26, -8.04661516532952925118e-02) (27, 2.72398999150795906310e-01) (28, 5.05281503474628190808e-01) (29, 6.05027404522644585150e-01) (30, -1.92192673572809447080e-01) (31, 3.87471698896609539897e-01) (32, -1.24985188661580745584e-01) (33, 3.24493018676110467347e-01) (34, 3.58267513735003595432e-01) (35, 3.81380005052797510512e-01) (25, 3.51444638156729827205e-01) (26, -2.04198502739239728943e-01) (27, 7.60380636331240533643e-01) (28, 5.71477437305992208572e-01) (29, 3.23324822523039401290e-01) (30, -2.18530486302521420594e-01) (31, 6.31135607270368659272e-01) (32, -2.83892103274630158705e-01) (33, -2.07488476856047716901e-02) (34, 1.80821392594928659348e-01) (35, 2.98585745158813142819e-01) (25, 2.53334952842787286542e-01) (26, -3.26512955864237397474e-01) (27, 8.05669481192934355818e-01) (28, 4.27480193031863520137e-01) (29, 3.43117441426679103955e-01) (30, -2.55450650082969299426e-01) (31, 5.42787226049074256196e-01) (32, -1.86315201957989728943e-01) (33, 2.86634707597787259659e-02) (34, 1.79132148119613171522e-01) (35, 3.17011890819595021362e-01) (25, 2.38189401171354814268e-01) (26, 3.18887683704317581590e-01) (27, 3.88963102567804544507e-02) (28, 1.36265065488568842822e-01) (29, 2.77936161405611836805e-01) (30, 1.09241154676669297019e-01) (31, 1.17517734439758422815e-01) (32, 2.34341788247047266847e-01) (33, 6.16828716574111757254e-01) (34, 5.10762595582532008542e-01) (35, 1.37482159833772904500e-01) (25, -1.16541513849422184723e-02) (26, -1.84375253585104148524e-01) (27, 2.74542366458288389364e-01) (28, 4.02674851471690409266e-01) (29, 5.73741061219823600403e-01) (30, -2.62280281280038718439e-01) (31, 4.27506703122302267328e-01) (32, -1.29266609516863029139e-01) (33, 4.02751600768581408119e-01) (34, 1.47318441996021565199e-01) (35, 4.18816071187261496078e-01) (36, -2.94138759849390418744e-01) (37, 2.62405414298772343695e-01) (38, 2.85031151190996701050e-01) (39, -2.03391731244585621807e-01) (40, -1.69269975644500997314e-01) (41, 4.76756429894446442930e-01) 
