FANN_FLO_2.1
num_layers=6
learning_rate=0.010000
connection_rate=1.000000
network_type=0
learning_momentum=0.000000
training_algorithm=2
train_error_function=1
train_stop_function=0
cascade_output_change_fraction=0.010000
quickprop_decay=-0.000100
quickprop_mu=1.750000
rprop_increase_factor=1.200000
rprop_decrease_factor=0.500000
rprop_delta_min=0.000000
rprop_delta_max=50.000000
rprop_delta_zero=0.100000
cascade_output_stagnation_epochs=12
cascade_candidate_change_fraction=0.010000
cascade_candidate_stagnation_epochs=12
cascade_max_out_epochs=150
cascade_min_out_epochs=50
cascade_max_cand_epochs=150
cascade_min_cand_epochs=50
cascade_num_candidate_groups=2
bit_fail_limit=3.49999999999999977796e-01
cascade_candidate_limit=1.00000000000000000000e+03
cascade_weight_multiplier=4.00000000000000022204e-01
cascade_activation_functions_count=10
cascade_activation_functions=3 5 7 8 10 11 14 15 16 17 
cascade_activation_steepnesses_count=4
cascade_activation_steepnesses=2.50000000000000000000e-01 5.00000000000000000000e-01 7.50000000000000000000e-01 1.00000000000000000000e+00 
layer_sizes=8 61 41 21 11 2 
scale_included=0
neurons (num_inputs, activation_function, activation_steepness)=(0, 0, 0.00000000000000000000e+00) (0, 0, 0.00000000000000000000e+00) (0, 0, 0.00000000000000000000e+00) (0, 0, 0.00000000000000000000e+00) (0, 0, 0.00000000000000000000e+00) (0, 0, 0.00000000000000000000e+00) (0, 0, 0.00000000000000000000e+00) (0, 0, 0.00000000000000000000e+00) (8, 5, 1.00000000000000000000e+00) (8, 5, 1.00000000000000000000e+00) (8, 5, 1.00000000000000000000e+00) (8, 5, 1.00000000000000000000e+00) (8, 5, 1.00000000000000000000e+00) (8, 5, 1.00000000000000000000e+00) (8, 5, 1.00000000000000000000e+00) (8, 5, 1.00000000000000000000e+00) (8, 5, 1.00000000000000000000e+00) (8, 5, 1.00000000000000000000e+00) (8, 5, 1.00000000000000000000e+00) (8, 5, 1.00000000000000000000e+00) (8, 5, 1.00000000000000000000e+00) (8, 5, 1.00000000000000000000e+00) (8, 5, 1.00000000000000000000e+00) (8, 5, 1.00000000000000000000e+00) (8, 5, 1.00000000000000000000e+00) (8, 5, 1.00000000000000000000e+00) (8, 5, 1.00000000000000000000e+00) (8, 5, 1.00000000000000000000e+00) (8, 5, 1.00000000000000000000e+00) (8, 5, 1.00000000000000000000e+00) (8, 5, 1.00000000000000000000e+00) (8, 5, 1.00000000000000000000e+00) (8, 5, 1.00000000000000000000e+00) (8, 5, 1.00000000000000000000e+00) (8, 5, 1.00000000000000000000e+00) (8, 5, 1.00000000000000000000e+00) (8, 5, 1.00000000000000000000e+00) (8, 5, 1.00000000000000000000e+00) (8, 5, 1.00000000000000000000e+00) (8, 5, 1.00000000000000000000e+00) (8, 5, 1.00000000000000000000e+00) (8, 5, 1.00000000000000000000e+00) (8, 5, 1.00000000000000000000e+00) (8, 5, 1.00000000000000000000e+00) (8, 5, 1.00000000000000000000e+00) (8, 5, 1.00000000000000000000e+00) (8, 5, 1.00000000000000000000e+00) (8, 5, 1.00000000000000000000e+00) (8, 5, 1.00000000000000000000e+00) (8, 5, 1.00000000000000000000e+00) (8, 5, 1.00000000000000000000e+00) (8, 5, 1.00000000000000000000e+00) (8, 5, 1.00000000000000000000e+00) (8, 5, 1.00000000000000000000e+00) (8, 5, 1.00000000000000000000e+00) (8, 5, 1.00000000000000000000e+00) (8, 5, 1.00000000000000000000e+00) (8, 5, 1.00000000000000000000e+00) (8, 5, 1.00000000000000000000e+00) (8, 5, 1.00000000000000000000e+00) (8, 5, 1.00000000000000000000e+00) (8, 5, 1.00000000000000000000e+00) (8, 5, 1.00000000000000000000e+00) (8, 5, 1.00000000000000000000e+00) (8, 5, 1.00000000000000000000e+00) (8, 5, 1.00000000000000000000e+00) (8, 5, 1.00000000000000000000e+00) (8, 5, 1.00000000000000000000e+00) (0, 5, 1.00000000000000000000e+00) (61, 5, 1.00000000000000000000e+00) (61, 5, 1.00000000000000000000e+00) (61, 5, 1.00000000000000000000e+00) (61, 5, 1.00000000000000000000e+00) (61, 5, 1.00000000000000000000e+00) (61, 5, 1.00000000000000000000e+00) (61, 5, 1.00000000000000000000e+00) (61, 5, 1.00000000000000000000e+00) (61, 5, 1.00000000000000000000e+00) (61, 5, 1.00000000000000000000e+00) (61, 5, 1.00000000000000000000e+00) (61, 5, 1.00000000000000000000e+00) (61, 5, 1.00000000000000000000e+00) (61, 5, 1.00000000000000000000e+00) (61, 5, 1.00000000000000000000e+00) (61, 5, 1.00000000000000000000e+00) (61, 5, 1.00000000000000000000e+00) (61, 5, 1.00000000000000000000e+00) (61, 5, 1.00000000000000000000e+00) (61, 5, 1.00000000000000000000e+00) (61, 5, 1.00000000000000000000e+00) (61, 5, 1.00000000000000000000e+00) (61, 5, 1.00000000000000000000e+00) (61, 5, 1.00000000000000000000e+00) (61, 5, 1.00000000000000000000e+00) (61, 5, 1.00000000000000000000e+00) (61, 5, 1.00000000000000000000e+00) (61, 5, 1.00000000000000000000e+00) (61, 5, 1.00000000000000000000e+00) (61, 5, 1.00000000000000000000e+00) (61, 5, 1.00000000000000000000e+00) (61, 5, 1.00000000000000000000e+00) (61, 5, 1.00000000000000000000e+00) (61, 5, 1.00000000000000000000e+00) (61, 5, 1.00000000000000000000e+00) (61, 5, 1.00000000000000000000e+00) (61, 5, 1.00000000000000000000e+00) (61, 5, 1.00000000000000000000e+00) (61, 5, 1.00000000000000000000e+00) (61, 5, 1.00000000000000000000e+00) (0, 5, 1.00000000000000000000e+00) (41, 5, 1.00000000000000000000e+00) (41, 5, 1.00000000000000000000e+00) (41, 5, 1.00000000000000000000e+00) (41, 5, 1.00000000000000000000e+00) (41, 5, 1.00000000000000000000e+00) (41, 5, 1.00000000000000000000e+00) (41, 5, 1.00000000000000000000e+00) (41, 5, 1.00000000000000000000e+00) (41, 5, 1.00000000000000000000e+00) (41, 5, 1.00000000000000000000e+00) (41, 5, 1.00000000000000000000e+00) (41, 5, 1.00000000000000000000e+00) (41, 5, 1.00000000000000000000e+00) (41, 5, 1.00000000000000000000e+00) (41, 5, 1.00000000000000000000e+00) (41, 5, 1.00000000000000000000e+00) (41, 5, 1.00000000000000000000e+00) (41, 5, 1.00000000000000000000e+00) (41, 5, 1.00000000000000000000e+00) (41, 5, 1.00000000000000000000e+00) (0, 5, 1.00000000000000000000e+00) (21, 5, 1.00000000000000000000e+00) (21, 5, 1.00000000000000000000e+00) (21, 5, 1.00000000000000000000e+00) (21, 5, 1.00000000000000000000e+00) (21, 5, 1.00000000000000000000e+00) (21, 5, 1.00000000000000000000e+00) (21, 5, 1.00000000000000000000e+00) (21, 5, 1.00000000000000000000e+00) (21, 5, 1.00000000000000000000e+00) (21, 5, 1.00000000000000000000e+00) (0, 5, 1.00000000000000000000e+00) (11, 5, 1.00000000000000000000e+00) (0, 5, 1.00000000000000000000e+00) 
connections (connected_to_neuron, weight)=(0, 4.84261435617483082527e-01) (1, 3.70920739997327442161e-01) (2, 3.62487243981301832108e-01) (3, 3.61225185659986347542e-01) (4, 2.87140400315553434574e-01) (5, 5.55584611469047140453e-01) (6, 4.92223680386143502830e-01) (7, 2.75669988467284676759e+00) (0, 9.55654928111012602621e-01) (1, 8.97596052462486970747e-01) (2, 9.88599984592112623893e-01) (3, 9.91421285829886200780e-01) (4, 9.10794141848670246731e-01) (5, 9.17537452221297011867e-01) (6, 1.09425216001639458163e+00) (7, 2.15185659207594803810e-01) (0, 1.39119528242362844317e-01) (1, 1.79221399566187489238e-01) (2, 1.40652907692722289879e-01) (3, 3.21620744001149094782e-01) (4, 2.67043110262629612706e-01) (5, 3.31394259071040808706e-01) (6, 2.46220644571842478543e-01) (7, -1.93127956986848947629e+00) (0, -8.64409773734959030467e-02) (1, -8.36140760334028697309e-03) (2, -1.32909753407555508709e-01) (3, 6.44333978197115207764e-03) (4, -5.95737102919704792497e-03) (5, -7.48331907168029719646e-02) (6, -9.10636267186862857770e-02) (7, 7.84956684681418548344e-01) (0, 1.93005105757626166385e-01) (1, 1.91884667826741628360e-02) (2, 5.10696804282998392810e-02) (3, 7.39986134400918427190e-02) (4, 9.94242831276169330978e-02) (5, 1.66101131794975931388e-01) (6, 1.32514289881200952870e-01) (7, -1.22813369834272778647e+00) (0, -2.20838881952651805429e-01) (1, -1.42308327647781257541e-01) (2, -9.75110495745411115509e-02) (3, -2.03953705049920469561e-01) (4, -2.30195232497381052639e-01) (5, -2.48994766005816936527e-01) (6, -2.01502653589084423924e-01) (7, 1.62478215869265474325e-01) (0, 6.09174424585186141679e-02) (1, 2.04109226458627196488e-01) (2, 9.46339945310940428014e-02) (3, 2.21457053868115177897e-01) (4, 2.36215734581387282187e-01) (5, 9.67460669323770283690e-02) (6, 4.94246769158718929349e-02) (7, -1.44938995922177871201e+00) (0, -3.19566342938950975761e-01) (1, -1.80539841863805450295e-01) (2, -1.75290518014585727791e-01) (3, -3.07004552535307340122e-01) (4, -2.99195003054487707050e-01) (5, -4.14048816334612823642e-01) (6, -2.29936373742291477740e-01) (7, 2.19186974806205553401e-01) (0, 1.03589231573988604929e+00) (1, 9.23988848679552110532e-01) (2, 8.88356749905425902014e-01) (3, 9.27172423031528136761e-01) (4, 9.69734432482845409851e-01) (5, 9.55732970494553968344e-01) (6, 9.38710083048517995863e-01) (7, 2.75061568688017565876e-01) (0, -3.80728809841261506275e-01) (1, -3.90730493589320659886e-01) (2, -2.92968760603009859000e-01) (3, -3.04940196091519954980e-01) (4, -2.34949274555144194121e-01) (5, -3.05671768245590835811e-01) (6, -3.61493076823779846407e-01) (7, 2.77642482635068910124e-01) (0, -4.14508537174082036803e-01) (1, -2.71829218748752654555e-01) (2, -2.82078213069526684276e-01) (3, -3.10421751025859893325e-01) (4, -2.64600337373249283601e-01) (5, -3.71050019881969006530e-01) (6, -2.48491691481986298751e-01) (7, 2.72812818176176585805e-01) (0, 3.62850664713367410119e-01) (1, 3.18889845650587477888e-01) (2, 4.41347968512132593499e-01) (3, 4.49592082645002222296e-01) (4, 3.42633002636957728626e-01) (5, 4.11894231607502103731e-01) (6, 4.45446856007377267606e-01) (7, 2.66636424996139131949e+00) (0, 1.03701922760611808805e+00) (1, 8.84749072959514437642e-01) (2, 8.40028167234024181198e-01) (3, 9.22312982465417596778e-01) (4, 8.79496319073601484639e-01) (5, 1.08812966373466424308e+00) (6, 1.27322886843817162372e+00) (7, 2.60030687225262902018e-01) (0, 9.93804566040637160640e-01) (1, 1.02965717688246694017e+00) (2, 8.35591860244430773008e-01) (3, 9.15912843845625546102e-01) (4, 8.92474042164387970644e-01) (5, 9.68370326737568065667e-01) (6, 1.12992787984094822384e+00) (7, 1.62628360586146852862e-01) (0, -2.49072002094159417052e-01) (1, -1.50551406875583604350e-01) (2, -1.71897455778095370471e-01) (3, -1.84367122795486948483e-01) (4, 2.53825680350565963117e-01) (5, -2.07827216531828173895e-01) (6, -2.68695601417327900595e-01) (7, 1.78695105375585905350e+00) (0, -3.20533459440493551096e-01) (1, -2.50836486652297852018e-01) (2, -4.74705432550110023593e-02) (3, -3.13262905742775765727e-01) (4, -2.17306906670413302329e-01) (5, -2.59854898415310342497e-01) (6, -1.27702006215211794071e+00) (7, 2.23590462171021825410e-01) (0, 2.87962657148725376111e-02) (1, 9.76197118589001988642e-03) (2, -1.09000970377431241620e-01) (3, -3.68428947576158391519e-02) (4, 5.26904510081418336886e-02) (5, -8.42508776723774610584e-02) (6, -3.90536736952584867533e-02) (7, 4.13682235853275237503e-01) (0, -2.68947960873490432565e-01) (1, 4.40571542848940383291e-03) (2, -6.84031796018261112335e-02) (3, -4.57861493192083593429e-02) (4, -9.96508824060494818875e-02) (5, -1.77859701935801417516e-01) (6, -2.48383385532398776041e-01) (7, 2.04960719431568488824e-01) (0, -1.81198334292934859491e-01) (1, -6.81029081619958648330e-02) (2, -3.91580197101176613605e-02) (3, -2.22835834100795382451e-01) (4, -1.65005128188357191865e-01) (5, -1.98088290768744484938e-01) (6, -1.88808884271417870560e-01) (7, 1.68308294421023268983e-01) (0, 8.81607408037312523241e-01) (1, 9.17576100586496301581e-01) (2, 9.21615941633185831172e-01) (3, 8.55934627256808577833e-01) (4, 1.05021989399831894296e+00) (5, 1.03165950112811111161e+00) (6, 1.11427754909001341943e+00) (7, 3.02402089591349954034e-01) (0, 3.13653701877200485892e-01) (1, 2.94593908427792261495e-01) (2, 3.25393666518626667461e-01) (3, 2.14956289462290200953e-01) (4, 3.76864519661494257186e-01) (5, 2.06177075685062854982e-01) (6, 3.64777902160178635338e-01) (7, 1.92136922410311394849e+00) (0, -1.24692666515906602775e-01) (1, -2.77768631045884839548e-01) (2, -3.12385404086571283333e-01) (3, -1.98147258150373206664e-01) (4, -1.82880526474972299189e-01) (5, -1.83083694803147511987e-01) (6, -2.35369864863113148479e-01) (7, 7.28304864411110364220e-02) (0, 1.92905710605315694472e-01) (1, 1.85547571703891384098e-01) (2, 1.51776820495824416035e-01) (3, 2.61453900380645143375e-01) (4, 1.81643838839178339839e-01) (5, 2.41125867781762592834e-01) (6, 2.81808602403966323990e-01) (7, -1.11395019594651345507e+00) (0, -3.00857275677471613928e-01) (1, -2.61850596344831099138e-01) (2, -3.54496932225778105252e-01) (3, -2.55140456054562370092e-01) (4, -3.27348554029693927792e-01) (5, -3.10250121380799548376e-01) (6, -5.43077982490859256792e-01) (7, 2.28344097992257549778e-01) (0, -3.50089819621172193553e-01) (1, -1.64224175180288700648e-01) (2, -3.40419647337907138596e-01) (3, -3.09670988427722615466e-01) (4, -2.91823281408107426671e-01) (5, -1.97698713012651461352e-01) (6, -4.06009949687356597181e-01) (7, 2.67327584272520124564e-01) (0, 9.88567136674542323860e-01) (1, 9.18365038735461380881e-01) (2, 9.74543115745577726017e-01) (3, 8.92800731964820015740e-01) (4, 9.18937359673904996527e-01) (5, 9.42445476816738070269e-01) (6, 1.05972144828406866779e+00) (7, 9.07691072646062191431e-01) (0, 2.24894584379406181629e-01) (1, 2.80443504630214834883e-01) (2, 1.43089987768383192224e-01) (3, 2.52124721485159741796e-01) (4, 1.36926541230983911390e-01) (5, 1.53801263707561530758e-01) (6, 3.42515706903880945422e-01) (7, -1.54384630923370580469e+00) (0, -1.45247565500065844990e-01) (1, -1.90453631840340004144e-01) (2, -2.85146481232051940413e-01) (3, -3.03602124182889121506e-01) (4, -2.07198134317191057230e-01) (5, -2.11348071354522742960e-01) (6, -2.28793824284730829000e-01) (7, 2.40443098677234456950e-01) (0, 4.22450691745151152290e-01) (1, 4.44912278660995919033e-01) (2, 3.21072337926907314110e-01) (3, 2.41471652364799005408e-01) (4, -7.44696113637378420691e-01) (5, 5.52952467626344645879e-01) (6, 1.17098539262339618183e+00) (7, 1.96107995962682268853e+00) (0, 3.32511392998671162502e-01) (1, 3.46917600588412589069e-01) (2, 4.77605641862294649780e-01) (3, 3.32028235124959048008e-01) (4, 4.66245537756401873253e-01) (5, 4.67900451942700301711e-01) (6, 3.40514714642106419706e-01) (7, 2.68733750745231247947e+00) (0, -2.73858842835767390955e-01) (1, -2.43200172388534224810e-01) (2, -1.79410048401939969942e-01) (3, -1.34033843861168511236e-01) (4, 1.55608847766752350639e-01) (5, -1.30104272892154732011e-01) (6, -2.75321298811383952110e-01) (7, 1.82715132801087110082e+00) (0, 4.79239083100471974230e-01) (1, 4.35023180153256860958e-01) (2, 3.11350670931289097432e-01) (3, 3.57626851050253435904e-01) (4, 2.46721310290129502985e-01) (5, 4.32352679525906058444e-01) (6, 4.51885175830186058832e-01) (7, 2.52918573006550895244e+00) (0, 1.58232637003949738741e-01) (1, 1.17257865272762842879e-01) (2, 2.35031418771821404290e-01) (3, 6.67136835163487512679e-02) (4, 1.27612978336819088421e-01) (5, 1.26432804808145948794e-01) (6, 1.42517740453765417996e-01) (7, -1.30968901125326508961e+00) (0, 1.04402856346944261645e+00) (1, 9.00243515594253196355e-01) (2, 1.04830191503745662196e+00) (3, 8.94917099479963451536e-01) (4, 9.25599690294262922308e-01) (5, 8.83947353096361077007e-01) (6, 1.02058265974698403333e+00) (7, 1.44842006562593983432e+00) (0, 9.04785440777379657007e-01) (1, 9.06095019031603610138e-01) (2, 1.04659137246718181302e+00) (3, 9.95760611000496176359e-01) (4, 9.22181496321386129367e-01) (5, 1.09229246012539471522e+00) (6, 9.89925338317431124935e-01) (7, 1.32696626864228089948e-01) (0, 9.36162999673660123356e-01) (1, 9.56057827097587797915e-01) (2, 8.89676883562206310962e-01) (3, 9.74572133843986110335e-01) (4, 9.89929968102295387844e-01) (5, 9.41695778902490010509e-01) (6, 4.58642490555991866330e+00) (7, 3.52005692029721595215e-01) (0, -2.28093231611954772031e-01) (1, -1.18336252762618873713e-01) (2, -1.34307509809865749384e-01) (3, -1.38252177020408123509e-01) (4, 2.09686437327865765612e-01) (5, -1.89238660769377897708e-01) (6, 6.80618679580339142055e-02) (7, 1.70121138089034684704e+00) (0, 8.37967395080871924051e-02) (1, 2.75625237820190327476e-01) (2, 2.57674374999368016592e-01) (3, 1.50491635392125122639e-01) (4, 8.25656085113831150757e-02) (5, 1.43735633618767039144e-01) (6, 2.28466542520706944464e-01) (7, -4.72947903864418650599e-01) (0, 5.16414488128841497883e-01) (1, 4.09939751739944457931e-01) (2, 4.97999207542596133980e-01) (3, 4.28918716398647981158e-01) (4, 4.27608882379115817773e-01) (5, 4.42764026974665991787e-01) (6, 5.78706696537306441996e-01) (7, 2.56759902285002228339e+00) (0, 1.41595669182759925642e-01) (1, 1.23458555444984907634e-01) (2, 8.30107987407078667941e-02) (3, 1.43729795497262086146e-01) (4, 2.33128387688958438329e-01) (5, 1.00863870065289032429e-01) (6, 1.35947650374827894160e-01) (7, -1.31722273207604922973e+00) (0, -7.33324264308814616209e-02) (1, -1.43125569788512652103e-01) (2, -2.61439097955084798208e-01) (3, -1.70824407208388623358e-01) (4, -1.05589404039388282119e-01) (5, -1.73822584216534042900e-01) (6, -1.47245704426941792509e-01) (7, 1.27844308894051517100e-01) (0, -3.93968630007898001910e-01) (1, -3.00749720968599865145e-01) (2, -2.19741859989933147057e-01) (3, -1.84425763048378543729e-01) (4, -3.26835167719286667776e-01) (5, -2.95227067337316406714e-01) (6, -2.82086259568679109666e-01) (7, 1.83409274492372181831e-01) (0, 1.85648034036928505364e-01) (1, 1.73105309427553505364e-01) (2, 1.96129307662350038655e-01) (3, 1.68296378155428777434e-01) (4, 1.67014639874178777434e-01) (5, 2.23011313331905602908e-01) (6, 2.94526579881599248623e-01) (7, -9.85933364375975229699e-01) (0, 5.32691669923156640998e-01) (1, 5.04123153508707178005e-01) (2, 4.32556869222991191570e-01) (3, 5.31881479234500131881e-01) (4, 2.83101009677865889103e-01) (5, 3.77954788124781004832e-01) (6, 4.62041177160338156771e-01) (7, 2.60451009902562802267e+00) (0, 9.57675627340239365992e-01) (1, 9.52018172840605636509e-01) (2, 8.68914836092220088659e-01) (3, 9.06890162485776474277e-01) (4, 9.71286254268757698327e-01) (5, 9.45458067302699101120e-01) (6, 1.59936664309765097514e+00) (7, 2.19870334441196108033e-01) (0, -3.25382787507777160307e-01) (1, -3.07543251278250606706e-01) (2, -4.58445020933955671438e-01) (3, -2.17433663906818647193e-01) (4, 2.02521701619722716003e-01) (5, -2.06043949463240200215e-01) (6, -1.62340955284678373216e-01) (7, 1.69744450813015768098e+00) (0, 3.29343308153238700786e-01) (1, 4.14254932430046074465e-01) (2, 5.10552581352941015069e-01) (3, 3.98632330985709881777e-01) (4, 2.85190873091531793548e-01) (5, 4.42641611222122921543e-01) (6, 4.30969175661473691274e-01) (7, 2.52841846861059815765e+00) (0, 1.86367694416270490709e-01) (1, 1.20011298959627379923e-01) (2, 2.26306404721823756221e-01) (3, 2.17130299293127909666e-01) (4, 8.29574550562293816514e-02) (5, 1.03280349215730829493e-01) (6, 1.00144462733587416570e-01) (7, -2.40956641844429597654e+00) (0, 9.86085838450762253160e-01) (1, 9.77315125747612034601e-01) (2, 7.98788607699767561066e-01) (3, -1.17899048422020547022e+00) (4, -1.38818859243095960032e+00) (5, 1.03901529066127440437e+00) (6, 3.29215860799953308202e+00) (7, 3.85253027145172732837e-01) (0, -6.82704575983600014943e-01) (1, -1.27727432870724300074e-01) (2, -2.87344055901043136936e-02) (3, -1.79737599771448514074e-01) (4, 2.86923337327776750705e-01) (5, -5.41475234299415464356e-01) (6, 1.21221257474596735837e-01) (7, 1.92471412457063606460e+00) (0, 4.85583134874632338374e-01) (1, 5.00448445521773921385e-01) (2, 3.98779503102704158124e-01) (3, 3.25697983387916945031e-01) (4, 3.11865902414720841396e-01) (5, 5.02131029783901228214e-01) (6, 4.86337090496199830891e-01) (7, 2.71542834935716204114e+00) (0, 1.04300632785009650405e+00) (1, 9.68739383190740044327e-01) (2, 9.94217772854230741331e-01) (3, 9.52801401799741376486e-01) (4, 8.40240474889257904501e-01) (5, 9.24603649432376939465e-01) (6, 1.26808219881466266443e+00) (7, 1.65177897819853980454e-01) (0, 1.06050885251157422928e+00) (1, 9.20911771554795532957e-01) (2, 9.86575164658865633172e-01) (3, 9.70434349891982073189e-01) (4, 9.35166473431672584660e-01) (5, 1.02830609118521398848e+00) (6, 1.04598909092808689536e+00) (7, 7.19206586964223126834e-01) (0, -2.62521667178972850643e-01) (1, -2.20481872280125473784e-01) (2, -2.18854845295565841878e-01) (3, -3.65544280445978697625e-01) (4, -2.08416340000463828908e-01) (5, -2.41519810482011515473e-01) (6, -2.58519916530594751070e-01) (7, 1.29997753749294259196e-01) (0, 9.22448054771956793552e-01) (1, 9.05141754371163287374e-01) (2, 8.91097472753237918042e-01) (3, 8.72468404220676840843e-01) (4, 8.85427308460986273175e-01) (5, 9.68110301026847142047e-01) (6, 3.65462209724291220425e+00) (7, 2.90294486133978013598e-01) (0, -2.05358717272684981880e-01) (1, -3.03699324050124452867e-01) (2, -2.06269520506947884320e-01) (3, -2.62663596255355902276e-01) (4, -3.52685468560928305770e-01) (5, -3.25517834296303654185e-01) (6, -2.95044023578766190230e-01) (7, 1.34697206427233179271e-01) (0, -1.20427047155962738123e-01) (1, -2.66002965237845279134e-01) (2, -1.76598566964574016369e-01) (3, -1.81000063582871045798e-01) (4, 2.90440064288769062006e-01) (5, -2.77525772984116292363e-01) (6, -2.73231371373321985097e-01) (7, 1.86123864695435692340e+00) (0, -2.70815477750054212080e-01) (1, -2.54607377683653157696e-01) (2, -2.19139778992686606873e-02) (3, -2.30752777556864629993e-01) (4, -2.64185630290886264149e-01) (5, -4.55283135384452863903e-01) (6, -4.82754290410884412399e-01) (7, 2.15670843911557913453e-01) (0, 9.00280725708100915128e-01) (1, 4.72753693161626187269e-01) (2, 4.59852261051744648501e-01) (3, 4.90581472780002247891e-01) (4, -1.20394853970518389552e+00) (5, 1.03946191174933733059e+00) (6, 1.64522785490660172769e+00) (7, 3.19121757956440321724e-01) (0, 4.77154067805342363418e-01) (1, 4.42097806177128183069e-01) (2, 4.39182495783104032139e-01) (3, 3.73918233265503774376e-01) (4, -2.90062414289606718132e-01) (5, 3.44386595389800931333e-01) (6, 3.70795534164370110819e-01) (7, 2.51788652636603060841e+00) (8, 1.36651198480388286205e-01) (9, 7.35228710818745634370e-01) (10, 1.91160125900305788438e-01) (11, 2.38020544523169702567e-01) (12, 1.62951587411503839853e-01) (13, -5.01995304229057914824e-01) (14, 1.39751518268136476486e-01) (15, -6.94696834985530253803e-01) (16, 9.21983188247127993797e-01) (17, -1.93108228344463461745e+00) (18, -1.83166555109399897816e+00) (19, 1.67463939348161616749e-01) (20, 8.59163914589060606630e-01) (21, 8.72573187775876446537e-01) (22, 2.00174777892643457333e-01) (23, -1.60521791434723382075e+00) (24, 6.61804354799959027034e-01) (25, -4.33363580601944686777e-01) (26, -2.38398775954819008849e-01) (27, 7.51696311886288492943e-01) (28, 8.35541516564069636219e-02) (29, -8.62848499567796078935e-01) (30, -1.65365185564741756785e+00) (31, -1.71135171103085181876e+00) (32, -5.07182062329857963334e-01) (33, 7.79720744623915051896e-01) (34, 1.11686294066273228420e-01) (35, -3.53978605691815884082e-01) (36, 1.43221134746428835349e-01) (37, 2.03755138870853336197e-01) (38, 1.76971601126303113016e-01) (39, 3.84255929765124973341e-02) (40, 1.55077039728605675650e-01) (41, 7.59734998841794628710e-01) (42, 1.20978043622856401562e+00) (43, 1.37084151192835212996e+00) (44, 1.35276446131315314370e-01) (45, 4.97331683255263556909e-01) (46, 1.49520196944272931727e-01) (47, 1.00551445188184998547e-01) (48, -2.06076223126713337086e-01) (49, -7.51730135962922152437e-01) (50, 1.40884238361176805654e-01) (51, 1.34443483261786095317e-01) (52, 7.86782635231664029263e-01) (53, 4.47647036435959155831e-01) (54, 1.90128481286466533007e-01) (55, 1.45126399983941611893e-01) (56, 8.28240487452023277370e-01) (57, 2.34722101654820769490e-01) (58, 1.17616522768438189206e-01) (59, 7.62803450676571292988e-01) (60, 7.35633822559992212042e-01) (61, -7.09917721626378561695e-01) (62, 7.70692600723798637574e-01) (63, -8.55344600984765612850e-01) (64, 1.98210539049368750231e-01) (65, -1.61913392997223382075e+00) (66, 8.29499566629259055262e-01) (67, 1.75440435620471374412e-01) (68, -5.15784786701904640616e-01) (8, -3.72317410397520587306e-01) (9, 2.52352569424266925946e-01) (10, 1.23258087610770350473e+00) (11, 1.14251711573450620563e+00) (12, 1.31659091258796046020e+00) (13, 4.34596207329596861957e-01) (14, 5.53394413107282767683e-01) (15, 2.53695269858788097217e-01) (16, 1.11673005794735130669e-01) (17, -1.58752249244451609789e-01) (18, -2.03753472927808848558e-01) (19, -2.34249773758644114219e-01) (20, 2.83700231634736788067e-01) (21, 1.00619533037395902930e-01) (22, -2.59812681388015498385e-01) (23, -6.76106474618032166068e-02) (24, 1.20374970946940718086e+00) (25, 5.88258520057840073036e-01) (26, 4.62922559680016332262e-01) (27, 2.22170684658641787168e-01) (28, -1.61433265263198649775e-01) (29, 5.44216209515864912660e-01) (30, 1.32447887573735534339e+00) (31, -3.41148471881454109361e-03) (32, 3.62036839233445095765e-01) (33, 1.66305557932887176920e-01) (34, 1.16842577236433209364e+00) (35, 4.13180099615144735825e-01) (36, -2.48038520302334586365e-01) (37, -4.34353738608741268834e-01) (38, -9.52903001843436875395e-02) (39, -2.52361671356358840956e-01) (40, 5.44680790475179921195e-01) (41, 1.12027253398346030022e-01) (42, 1.93666036831684124087e-01) (43, 1.29786678006573702460e-01) (44, -1.71460649152090860436e-01) (45, 1.33998382405848071031e+00) (46, -3.02638554749298571700e-01) (47, 4.85085110063539770575e-01) (48, 5.73989157708366004584e-01) (49, 4.45073971487140174208e-01) (50, 1.16769714238306110410e+00) (51, -3.54292451486616255529e-01) (52, 9.79950213186459306858e-02) (53, -3.64690696564033689508e-01) (54, -3.39609402843571162034e-01) (55, 4.43221094519332003969e-01) (56, 1.14894828671552803878e-01) (57, -1.17920009222674398996e-01) (58, -3.47292992609730288844e-01) (59, 9.32464906327448994627e-02) (60, 2.69910256658128011598e-01) (61, 3.69300114807071255818e-01) (62, 2.75908177547214528147e-01) (63, 4.39546581869162955591e-01) (64, -1.51710301543761721943e-01) (65, 8.65559499996597370153e-03) (66, 2.11745578039509219082e-01) (67, -3.44007769121590256667e-01) (68, -1.07318602212790756290e-01) (8, 1.02153025031229929831e-01) (9, 7.25306503439215544127e-01) (10, 2.59050218706780188693e-01) (11, 2.26660812291424429432e-01) (12, 1.88770092573231407229e-01) (13, -4.28689894902312573777e-01) (14, 1.62989660521970114448e-01) (15, -1.73435484646368553996e+00) (16, 8.13501968261317265352e-01) (17, -1.84020793714902941574e+00) (18, -1.81276383199384727440e+00) (19, 1.55246486305063796651e-01) (20, 7.23648862915899249160e-01) (21, 7.95930288696555021666e-01) (22, 1.21871013989669998989e-01) (23, -1.86321510866754436186e+00) (24, 2.46171206602127046192e-01) (25, -3.66495962150981180461e-01) (26, -3.57052389675810655234e-01) (27, 8.12099979868582733111e-01) (28, 6.95360832245398990947e-02) (29, -1.01182030770182551649e+00) (30, 3.74752046958895357331e-01) (31, -1.88758577336032784544e+00) (32, -8.96932379549834735144e-01) (33, 7.25768624266129869227e-01) (34, 1.81486834495069609963e-01) (35, -2.93505697689616984469e-01) (36, 4.33880115628693385776e-02) (37, 4.50609777554790633114e-02) (38, 1.47017522522377257210e-02) (39, 1.95466365964039545666e-01) (40, 1.95192907116198771655e-01) (41, 8.55429253765446095947e-01) (42, 1.08251435032130727265e+00) (43, 1.17022509245104511244e+00) (44, 8.07911689305059327326e-02) (45, 1.33795234974625221192e+00) (46, 4.22246705955603290894e-02) (47, 2.51070145025312774223e-01) (48, -2.67286482392451341106e-01) (49, -1.30514775187205533946e+00) (50, 4.52386038061033224356e-01) (51, 2.86508610852731215868e-02) (52, 7.14493061187247202604e-01) (53, 6.48388066059113893358e-02) (54, 2.48174395627118599128e-02) (55, 1.88589471697616223311e-01) (56, 6.94827166467189560883e-01) (57, 8.72280486524594916853e-02) (58, 6.60657364138223651695e-02) (59, 8.23578437209532276952e-01) (60, 7.62627875377478559038e-01) (61, -1.41729691472424468301e+00) (62, 7.36581560088361841920e-01) (63, -1.29518998262061080240e+00) (64, 1.48523631147138096553e-01) (65, -1.82431257649140476929e+00) (66, 7.86972129874649151127e-01) (67, 9.15112908192730334367e-02) (68, -3.02932144184649254637e-01) (8, -5.18710910381122047852e-01) (9, -4.73432814559524128839e-01) (10, 7.19954885974870006926e-01) (11, 8.06880828245877701477e-01) (12, 5.74099443054880254067e-01) (13, 1.32202880791360288804e+00) (14, 5.54480950732819444227e-01) (15, 1.52492505389524612980e+00) (16, -5.68782309624841664331e-01) (17, 1.39504214878845078651e+00) (18, 1.48845034967827705152e+00) (19, -5.59112409658141462643e-01) (20, -3.84413408670108425191e-01) (21, -4.92529586122111395774e-01) (22, -5.85696509442077628549e-01) (23, 1.52118316352850091455e+00) (24, 4.63604689153055304907e-01) (25, 1.44614050823378326172e+00) (26, 1.46953284399453498743e+00) (27, -4.47255211505572902730e-01) (28, -7.21582180191388755652e-01) (29, 1.43880461164167461341e+00) (30, 1.35538524100204105238e+00) (31, 1.45162139893059682905e+00) (32, 1.47936222087311608497e+00) (33, -4.36233638468187745474e-01) (34, 1.56932097799759850965e+00) (35, 1.45441914297833352343e+00) (36, -6.26875543200107188113e-01) (37, -6.13547339142604286621e-01) (38, -7.03592666424584622931e-01) (39, -6.00503632655801866669e-01) (40, 6.81680281091116890835e-01) (41, -6.28455361425353742355e-01) (42, -5.37286669180467413298e-01) (43, -3.96427904954879339883e-01) (44, -6.60925472740251707116e-01) (45, 2.84779394687456921531e+00) (46, -5.66494985633414493975e-01) (47, 7.26620458789234646702e-01) (48, 1.46208818036576659871e+00) (49, 1.37026943849606297476e+00) (50, 2.27452455632277583675e+00) (51, -4.81759732446133681627e-01) (52, -4.52759072349135927027e-01) (53, -5.57554770871611427019e-01) (54, -4.99441614231529495971e-01) (55, 6.55830987937613407723e-01) (56, -4.96249595645111118980e-01) (57, -5.37042359184280893025e-01) (58, -6.35241555578418104488e-01) (59, -5.01196578309611173729e-01) (60, -4.44914098106974076341e-01) (61, 1.51029941201880113510e+00) (62, -4.72009931621711287253e-01) (63, 1.42515817467216110437e+00) (64, -5.24937706246642932228e-01) (65, 1.47748199165348959028e+00) (66, -4.12692836240058480435e-01) (67, -5.24237602319045370436e-01) (68, 1.61464752415524624707e-02) (8, -2.40354300481325278138e-01) (9, -1.97488555405472582249e-01) (10, 5.52006549093190579391e-01) (11, 1.29954725056291153784e+00) (12, 5.37524571226195790885e-01) (13, 9.96935654766907819457e-01) (14, 4.24111634261103154220e-01) (15, 8.93355934196176537654e-01) (16, -2.71786960782851472196e-01) (17, 4.24737184748767926390e-01) (18, 3.93487184748767926390e-01) (19, -2.40506888371950194871e-01) (20, -1.76004549906681795335e-01) (21, -7.72309915164456489700e-02) (22, -3.63684124244970041762e-01) (23, 1.03211936938115811380e+00) (24, -1.86830089170540364352e-01) (25, 8.64809502758532189226e-01) (26, 7.85932289479543522148e-01) (27, -1.55789646329735631536e-01) (28, -3.47596768689452828571e-01) (29, 9.20647053103776702443e-01) (30, 6.15449725066387620664e-01) (31, 1.02555809008428244766e+00) (32, 9.71909720337874039053e-01) (33, -2.61742063519942114169e-01) (34, 1.05498368180000556826e+00) (35, 1.01868451458922981701e+00) (36, -2.77830632871823246521e-01) (37, -3.85326829603226228560e-01) (38, -2.92595134511060506188e-01) (39, -2.47733459812646078513e-01) (40, 4.26547429617712525740e-01) (41, -1.88486782982435763234e-01) (42, -1.17727440736531296928e-01) (43, -2.47738782349432917762e-01) (44, -3.54738263043076318404e-01) (45, 8.72743456765130432018e-01) (46, -2.49991760593895911979e-01) (47, 4.03846044205114829140e-01) (48, 8.35293886449910649716e-01) (49, 9.92528919465890058227e-01) (50, 1.35996370829091839383e+00) (51, -3.81646421602280183638e-01) (52, -1.14224390778874487773e-01) (53, -2.56713629447833990849e-01) (54, -2.27195129734524187137e-01) (55, 4.58988334862830471561e-01) (56, -2.29853128306000464853e-01) (57, -3.77340657470968010578e-01) (58, -1.92759097558511810488e-01) (59, -2.53280790243472442302e-01) (60, -1.49335435192963383866e-01) (61, 9.57887723444645011739e-01) (62, -8.51632078724369745437e-02) (63, 9.90143665754024571157e-01) (64, -2.44830751680428865269e-01) (65, 9.26992414766016015193e-01) (66, -2.35686103072739794317e-01) (67, -2.01328427535547332949e-01) (68, -4.51173508460972743500e-03) (8, 1.53023694111268759865e-01) (9, 8.34865074349311231394e-01) (10, 9.40254915274247315971e-02) (11, 1.66810993931705814353e-01) (12, 2.57184622161352960390e-01) (13, -4.49517921569909828516e-01) (14, 2.29602841012440661572e-01) (15, -1.71809869294877093360e+00) (16, 8.69057926188608886875e-01) (17, -1.96920439231648525258e+00) (18, -1.85174874659183363867e+00) (19, 6.04760911597439429488e-02) (20, 7.80310263041022689201e-01) (21, 8.74408964746469119511e-01) (22, 1.64019492126162513834e-01) (23, -1.65231521648847845540e+00) (24, 1.03207524464534114439e-01) (25, -4.30808106840683213701e-01) (26, -2.94087363495265374791e-01) (27, 8.72875750797374005963e-01) (28, 1.60304529032932630006e-01) (29, -7.53311808922883074935e-01) (30, 8.02950708645194105584e-02) (31, -1.71064928469128729738e+00) (32, -4.31117378735541678658e-01) (33, 8.32725123576817050086e-01) (34, 1.04780518485370968684e-01) (35, -3.60053003505396873596e-01) (36, 7.59408321267296265722e-02) (37, 2.06053080125621068674e-01) (38, 2.08442670211453490170e-01) (39, 1.92897366889276611346e-01) (40, 1.60520064617632518544e-01) (41, 8.40034145092808381960e-01) (42, 1.24618116546437329717e+00) (43, 1.71272797999376114042e+00) (44, 2.56100649796670576386e-01) (45, 2.97425709600623644491e-01) (46, 1.66590047494497406344e-01) (47, 1.74515059424780738517e-01) (48, -2.33778055382571736676e-01) (49, -8.04448211746494168395e-01) (50, -2.56460552705677935492e+00) (51, 2.31518235596843008350e-01) (52, 7.96817923092750457492e-01) (53, 1.78798166507932759783e-01) (54, 1.02601958968200582256e-01) (55, 1.72579874957415585479e-01) (56, 8.57593886459831589164e-01) (57, 1.39159815097006256401e-01) (58, 1.05520465055339254801e-01) (59, 7.81641570922588679871e-01) (60, 8.93832002237006539858e-01) (61, -8.53318659196399598166e-01) (62, 7.91865697129748080663e-01) (63, -1.70637304866283967542e+00) (64, 1.67869608594855224126e-01) (65, -1.78927466854519923167e+00) (66, 7.07277166765423292993e-01) (67, 1.32649935146227110350e-01) (68, -2.85948807695140527763e-01) (8, 5.68006142682222381346e-01) (9, -8.36299759615292820358e-02) (10, -3.33837060830618342910e-02) (11, 8.78683914220125955596e-02) (12, -2.25203791305392010680e-02) (13, 6.19813939375979172652e-01) (14, -9.10668943358749760630e-02) (15, 6.17684514182044064334e-01) (16, -7.94260166967177688724e-02) (17, 7.54506400840388447016e-01) (18, 6.13222218172656097224e-01) (19, 6.43860637849954620116e-01) (20, -1.70051019676950410098e-01) (21, -5.59042667039409083701e-03) (22, 5.45123142591239173704e-01) (23, 5.84519720368622097695e-01) (24, 4.17892641707687806374e-02) (25, 5.90075138495890882950e-01) (26, 5.90590303583246933883e-01) (27, -1.96796629616048879274e-01) (28, 6.50173658951620159208e-01) (29, 6.21367916885615323430e-01) (30, -1.86874978586984957785e-01) (31, 6.05469743186805908763e-01) (32, 5.95251829066659632339e-01) (33, -1.56141109802749589175e-01) (34, 1.86750065303023411734e-02) (35, 6.85357015626086085724e-01) (36, 5.77700512930254039823e-01) (37, 5.67275064073339607695e-01) (38, 4.80504793341229918813e-01) (39, 5.06118050116937223670e-01) (40, 3.97514503525395690442e-01) (41, -1.31917859428127420829e-01) (42, -9.48491470471862913039e-02) (43, -2.42287465793882633713e-01) (44, 5.79245123268094408431e-01) (45, -1.72355551419798525004e-01) (46, 6.13814587045339643545e-01) (47, 5.45005966054089685535e-01) (48, 7.09170192844832514290e-01) (49, 6.03075679812432263738e-01) (50, -8.99782186728748795135e-02) (51, 5.81210440104940828654e-01) (52, -9.36240230687639118923e-03) (53, 4.42369774677366378590e-01) (54, 5.52187385309366285391e-01) (55, 4.81507883912596690301e-01) (56, -1.93599724633495035020e-01) (57, 6.21359588426857345489e-01) (58, 6.19033092904714643545e-01) (59, -6.08098433867930790453e-02) (60, -1.34473625608709346224e-01) (61, 6.40935790214539502507e-01) (62, -1.53895013072517350405e-01) (63, 7.23382082257271852299e-01) (64, 4.63582516939799849087e-01) (65, 6.96483884427548494145e-01) (66, -9.97141041243340270350e-02) (67, 5.63100474227098524160e-01) (68, 2.33692700693645366572e-01) (8, -2.99689499695269701007e-01) (9, 7.26363743519087723399e-01) (10, 8.49079669527836644605e-01) (11, 2.51783369940157530920e+00) (12, 1.07422763445763425061e+00) (13, 6.17547889916771008956e-01) (14, 1.02088349376740517016e+00) (15, 8.62495781498393454534e-01) (16, 6.13308600005979864811e-01) (17, 7.48385343188809226689e-01) (18, 8.40603362257050346074e-01) (19, -1.72811565878629835868e-01) (20, 3.69019557712485513079e-01) (21, 6.46828825449248134838e-01) (22, -2.62954221556252865089e-01) (23, 7.91804193547205881210e-01) (24, 2.59243761095021518770e+00) (25, 4.82057445255730021572e-01) (26, 5.34923268385093186872e-01) (27, 7.48308122990007928976e-01) (28, -2.44980153787046434077e-01) (29, 9.37233282815306933955e-01) (30, 1.82770818103109067287e+00) (31, 8.45087086869149017865e-01) (32, 5.43584696769799036176e-01) (33, 7.78749227160874912812e-01) (34, 1.79595633632165108118e+00) (35, 4.48524666097519342234e-01) (36, -3.25586929512848177737e-01) (37, -2.09422924819540112740e-01) (38, -2.09175030224666408385e-01) (39, -1.55607649398279368480e-01) (40, 9.97276095265281492530e-01) (41, 6.17670727881654890723e-01) (42, 6.61540190408721362481e-01) (43, 7.75719062482137733383e-01) (44, -1.86768771752804457753e-01) (45, 1.01222225656055142551e+00) (46, -1.40559563147860472343e-01) (47, 9.07175322232951275581e-01) (48, 6.22267176565638902019e-01) (49, 9.09225746333083395534e-01) (50, 1.78004336800139895125e+00) (51, -2.28303467770697737782e-01) (52, 7.45404004406042597353e-01) (53, -3.07902075358636728719e-01) (54, -1.65110820246172157466e-01) (55, 9.43881777593041593200e-01) (56, 7.30530360849816484681e-01) (57, -1.50265571574972695013e-01) (58, -2.88078357738679013966e-01) (59, 7.43741188525649299379e-01) (60, 6.50973687367275233306e-01) (61, 8.04478324723420290532e-01) (62, 4.33322840094115369070e-01) (63, 8.72649953161391489509e-01) (64, -1.47210630143062320974e-01) (65, 8.51646123142014488394e-01) (66, 3.60231605986346348214e-01) (67, -1.52359364713830491844e-01) (68, -2.67386461596385051342e-02) (8, 1.11926786416050760842e+00) (9, 9.49882478418638598328e-01) (10, -7.32533518084887719929e-03) (11, -3.53180684713788828333e-01) (12, 3.79770435269249397037e-03) (13, -2.69693572661443503602e-01) (14, -7.44720114406038774524e-02) (15, 3.61950367786667503989e-01) (16, 1.04204244958268632537e+00) (17, 4.33046184815233381471e-01) (18, 4.74791767134152831176e-01) (19, 1.09710180099497800477e+00) (20, 1.02948453367024783667e+00) (21, 9.58732576074888820372e-01) (22, 2.01988889594866938282e+00) (23, 4.22158628231985855184e-01) (24, -4.31207040289720844317e-01) (25, -2.65885066117499735405e-01) (26, -3.00727498288327121934e-01) (27, 1.01172628300295674997e+00) (28, 1.04651948517266513150e+00) (29, -2.23039872981945858088e-01) (30, 5.17576847311107708649e-03) (31, 3.72068234887488247242e-01) (32, -1.79530492752119130717e-01) (33, 9.82878172743260836164e-01) (34, -4.37413641951032272637e-01) (35, -2.41863480731431379489e-01) (36, 1.09778743742405549000e+00) (37, 1.07466172041404051107e+00) (38, 2.01146348204773017798e+00) (39, 1.22227695800114610769e+00) (40, 1.80225500821006856533e-02) (41, 9.86809174626128271512e-01) (42, 1.06633068320437840448e+00) (43, 1.00568552961806956247e+00) (44, 1.75359471355745122345e+00) (45, -4.40783959842261430229e-01) (46, 1.15443228358968053016e+00) (47, 4.54726274058232168840e-02) (48, -3.39613032565311001587e-01) (49, -2.61808090608454224757e-01) (50, -8.74823784045669516907e-01) (51, 1.04147747053655770344e+00) (52, 1.12346036821872186096e+00) (53, 1.57768452638505385366e+00) (54, 1.12426902214786350598e+00) (55, 1.94323916404960578275e-01) (56, 1.10901863094813402100e+00) (57, 1.09116232452410089060e+00) (58, 1.10678623832512812442e+00) (59, 1.11944348064347698468e+00) (60, 9.75505823200777721915e-01) (61, -2.08578054920044553278e-01) (62, 1.13554612351523820379e+00) (63, 3.07920221746447064781e-01) (64, 1.46331873405608803296e+00) (65, 4.81864329836161509046e-01) (66, 1.00806094336781537635e+00) (67, 1.05059331862650795486e+00) (68, 4.73214756871391362125e-01) (8, 1.52400799687498222923e+00) (9, 1.09673680132705220203e+00) (10, 2.00497652078941240861e-01) (11, -6.79772321655380956651e-02) (12, 1.44888719313737729388e-01) (13, -4.77526677980614711050e-01) (14, 2.84399663151316206555e-01) (15, 1.93536302056751013945e-01) (16, 9.65239211607442970653e-01) (17, 1.99215034493939457949e-01) (18, 2.04724457370488305274e-01) (19, 1.49577923338406693077e+00) (20, 1.14788987967130240442e+00) (21, 1.04644291865724503587e+00) (22, 9.77204770088722085575e-01) (23, 2.81859166587557385952e-01) (24, -1.68975867387722050728e-01) (25, -3.68179660948472153859e-01) (26, -4.76338423993626525199e-01) (27, 1.12157466976688691140e+00) (28, 1.18381337807735986800e+00) (29, 1.52414252128553334709e-01) (30, 1.28556750348007148288e-01) (31, 2.54577567782842850708e-01) (32, -4.95965825218954659004e-01) (33, 9.65471091644310219770e-01) (34, -1.18436102238955093258e-01) (35, -4.33480082489653639755e-01) (36, 1.46214208796042721694e+00) (37, 1.02946501763546316432e+00) (38, 1.20434200861623996737e+00) (39, 1.11895287182782277036e+00) (40, 1.53919067887364008351e-01) (41, 9.68772712865693552686e-01) (42, 2.88790149965193532200e-01) (43, 3.21099227507616213906e-01) (44, 1.05154592227211884925e+00) (45, 1.65558740346626342976e+00) (46, 1.20865090592072732534e+00) (47, 1.70356968763886090779e-01) (48, -4.22075131293075389571e-01) (49, 1.71049740109936704302e-01) (50, 2.12023924589173282107e-02) (51, 9.78761531004743168261e-01) (52, 9.74770245612447960859e-01) (53, 1.09717294850085500535e+00) (54, 1.14425939164636769618e+00) (55, 4.77139266723042188012e-01) (56, 2.10037474645861171885e-01) (57, 1.23059092963316785152e+00) (58, 1.64390545930259834861e+00) (59, 3.06251860236419759520e-01) (60, 1.10571771125700424321e+00) (61, 2.33923823007331416202e-01) (62, 1.05820278567753045529e+00) (63, 2.10716283375852686532e-01) (64, 1.15610839010809862692e+00) (65, 2.20930452384901471197e-01) (66, 1.13440708234023079903e+00) (67, 1.49634606150782722978e+00) (68, 1.58241485255954883460e-01) (8, -1.57969496998192876491e-01) (9, 4.96596888558011595460e-01) (10, 8.41670296853237465129e-01) (11, 8.07347471251999793118e-01) (12, 4.39574731770482451942e-01) (13, -1.90002798179034149140e-01) (14, 7.52901995895205788933e-01) (15, -1.29067740489107907198e-01) (16, 5.34570611432537590169e-01) (17, -1.87772551504250095888e-01) (18, -1.99732267577667793601e-01) (19, -1.90400481340767896432e-01) (20, 5.24854947855934561574e-01) (21, 5.81434835664042415360e-01) (22, -1.38994475610827256107e-01) (23, -1.74481774682242130048e-01) (24, 4.49831871968033147891e-01) (25, -1.47746710800806174690e-01) (26, -1.29738273321604508093e-01) (27, 4.66261510787015609480e-01) (28, -5.94385921135750228128e-02) (29, -7.49456102599973528200e-02) (30, 5.88739597035619510734e-01) (31, -7.64394572106665004529e-02) (32, -1.58904671015431625536e-01) (33, 5.05551500985005786148e-01) (34, 8.87611327482759726593e-01) (35, -8.62953683636141777313e-02) (36, -1.83319290980111182510e-01) (37, -2.15572557628694649878e-01) (38, -1.58265224555828171171e-01) (39, -1.55455931569162403294e-01) (40, 7.22290088110353112327e-01) (41, 5.30545913613933439734e-01) (42, 5.50753350335018265760e-01) (43, 4.89799217608679171576e-01) (44, -4.44379104250351292249e-02) (45, 8.23032285589957335326e-01) (46, -1.41103957702942955921e-01) (47, 6.35533976524068400238e-01) (48, -4.21332319098216348530e-02) (49, -5.74664679138238085332e-02) (50, 9.10578181010068488099e-01) (51, -1.56786497230354343602e-01) (52, 4.68566024922662416330e-01) (53, -9.80769797720194569379e-02) (54, -6.11829460834285299153e-02) (55, 9.64211376366729155940e-01) (56, 6.06285742448341768984e-01) (57, -9.55051122149528364247e-02) (58, -1.77637255089520551543e-01) (59, 6.54256311404189050407e-01) (60, 4.74691779041424566365e-01) (61, -1.20771165177992814699e-01) (62, 4.81932739717175928629e-01) (63, -2.38589301750255861068e-01) (64, -2.21719242092125179422e-01) (65, -2.47086884172057069664e-01) (66, 6.01116500002586762186e-01) (67, -1.06538176653268243377e-01) (68, 8.63078224091554796482e-03) (8, 5.02667654797544605216e-01) (9, -9.27640657845779786905e-02) (10, 1.66183084932822987267e-02) (11, 3.15767805816048810486e-02) (12, 4.37797713850077097053e-01) (13, 4.79846830086154696460e-01) (14, 5.97150624142489983015e-01) (15, 3.11867733332459429185e-01) (16, -1.61605612558487765629e-01) (17, 3.77645325693432842851e-01) (18, 4.35513076225583162238e-01) (19, 5.22095140561559589720e-01) (20, -3.58560047781726707466e-03) (21, -1.62748035017276880543e-02) (22, 5.48947300978134711258e-01) (23, 3.94232165678326473834e-01) (24, 1.33769102206995949000e-01) (25, 4.43876603727157204027e-01) (26, 4.69673100930842246648e-01) (27, -9.52787112418457121654e-02) (28, 4.78768068325707063515e-01) (29, 4.16640925995556909989e-01) (30, -1.21127008482771914011e-01) (31, 4.68963932862584031991e-01) (32, 4.22537635670487465855e-01) (33, -1.50469320961486574539e-01) (34, -4.53383560414569453112e-02) (35, 4.35034212778870721383e-01) (36, 3.91254102133938297392e-01) (37, 4.99774586901184258991e-01) (38, 5.19198347618055944253e-01) (39, 5.83454218428302473498e-01) (40, 5.10592226544528182686e-01) (41, -1.67692233913544319623e-01) (42, -1.28070227553226390071e-01) (43, -2.06115886320449748226e-01) (44, 5.05154038043317599183e-01) (45, 3.04083697196694674458e-02) (46, 4.37305533062407048028e-01) (47, 4.92217338018759165141e-01) (48, 4.19015520602759206081e-01) (49, 3.12984653344456575930e-01) (50, -4.69677284188247182173e-02) (51, 5.16394895236661821691e-01) (52, 2.55333703993723421660e-03) (53, 5.67612372166291678788e-01) (54, 5.73731315057445234729e-01) (55, 6.16813675054657895025e-01) (56, -1.47955829840067526471e-01) (57, 4.24583608034165893574e-01) (58, 5.59357103452182591319e-01) (59, -1.94425221506379884706e-02) (60, -1.44999359839562136365e-01) (61, 3.20618527749840842578e-01) (62, -4.37039967600133041903e-02) (63, 4.38741498222653347749e-01) (64, 5.47122619250867803231e-01) (65, 3.63214098527018414142e-01) (66, -1.56422391177251447932e-03) (67, 4.22931317731853939623e-01) (68, 1.93671189186080977551e-01) (8, 1.59659137731781135272e-02) (9, 8.38319502684616579824e-02) (10, 5.16051711197360041261e-01) (11, 6.40526882990991364153e-01) (12, 3.64918326625948086228e-01) (13, 7.74400817849107081514e-01) (14, 3.90864753193473857262e-01) (15, 7.67907054970267677341e-01) (16, 3.98658869884351910184e-02) (17, 8.59825992832187080417e-01) (18, 8.37767893323901557956e-01) (19, 1.00810882986185124111e-01) (20, 1.56429686155590053076e-01) (21, 1.47688184336458250279e-01) (22, 1.45394049842933636985e-01) (23, 8.41484928379062080417e-01) (24, 1.93701873544669916916e-01) (25, 7.63071193596366437184e-01) (26, 8.14787785210080439668e-01) (27, 6.11731218559042125293e-02) (28, 5.63453607201809189564e-02) (29, 7.77006278087353341455e-01) (30, -4.66984934622863348541e-02) (31, 8.55431461582187080417e-01) (32, 7.20264078374473593058e-01) (33, 9.91391209411709994903e-03) (34, 6.36793347691140154687e-01) (35, 7.54993553253892502042e-01) (36, 1.34081152618524462872e-01) (37, -1.78921839535360464347e-03) (38, -3.66463139699879786315e-02) (39, 7.30093693143118727118e-02) (40, 4.36221569358678840089e-01) (41, 8.43823958035366528119e-02) (42, -1.14148155004121523715e-01) (43, -1.93557865130246004037e-01) (44, 1.10882260468136317755e-01) (45, 1.44358111196915595009e+00) (46, 7.56735998154864780707e-02) (47, 3.07640052997919133393e-01) (48, 5.28578398273763738757e-01) (49, 8.88506421694758796725e-01) (50, 3.47112448437739651297e+00) (51, 6.67166461950534361858e-02) (52, 3.99654015045890279034e-02) (53, 4.58844064191942443975e-02) (54, 9.51590215569706743270e-02) (55, 6.26462502062576809259e-01) (56, -2.01463347659967706438e-01) (57, 2.29206837070348827534e-02) (58, 4.50430562502135214964e-02) (59, -5.67445831004148165677e-02) (60, 6.68513171733980254841e-03) (61, 7.06730733831830382208e-01) (62, 8.46329537252009378445e-03) (63, 8.78428730388589151801e-01) (64, -1.35659168811912214658e-02) (65, 8.85686600456241035495e-01) (66, 8.32700919693795671428e-02) (67, 8.30066105066519371869e-02) (68, -7.34341817895985266018e-02) (8, -3.09346637195772045104e-01) (9, 2.62240220477578424296e-02) (10, 1.06157771353603669340e+00) (11, 2.42970619888061767355e+00) (12, 1.80120459748569450298e+00) (13, 1.04801469984973327776e+00) (14, 1.01206237718076907939e+00) (15, 1.96867478458556188770e+00) (16, -1.20576954141474387838e-01) (17, 1.90159035273821475087e+00) (18, 1.93359718271525027333e+00) (19, -2.23251309854076013250e-01) (20, -4.88773597154143896182e-02) (21, -1.44532202946474702676e-01) (22, -2.06343560461712371978e-01) (23, 1.81278957698927234432e+00) (24, 2.28175992664466864568e+00) (25, 1.05133411134084853167e+00) (26, 9.13540618925394065641e-01) (27, -5.84004615788918102215e-02) (28, -1.47426682572802530968e-01) (29, 1.86414532499284990585e+00) (30, 1.60093896478757979907e+00) (31, 1.93809492992810317169e+00) (32, 1.94269753047258975087e+00) (33, -1.11688872318012222262e-01) (34, 1.57718125664113228979e+00) (35, 8.89472603316367571580e-01) (36, -3.32241780036974021506e-01) (37, -3.43247120339340017203e-01) (38, -2.30863342370699192729e-01) (39, -3.44838464409916944931e-01) (40, 1.03925201840904835038e+00) (41, -2.03575904280624882942e-03) (42, 1.31833363167460342752e-02) (43, -1.44676931023204224935e-01) (44, -1.43476247689377028882e-01) (45, 2.14817577287530392383e+00) (46, -1.60315705860084228851e-01) (47, 1.09228608675555083352e+00) (48, 8.27811422946384101174e-01) (49, 1.86869067486624995666e+00) (50, 1.77709573526135877763e+00) (51, -2.15926104933832629929e-01) (52, 1.83645855397705053125e-02) (53, -1.76229440904253131794e-01) (54, -1.80244961530779318482e-01) (55, 9.28059357545855556637e-01) (56, -1.58625019679063339328e-01) (57, -3.22612285325783010315e-01) (58, -3.49674125272697255973e-01) (59, -5.92050979981734587509e-02) (60, -7.12235592149364077352e-02) (61, 1.87455925500353481894e+00) (62, -1.12558323971144375042e-01) (63, 1.95118229653433394866e+00) (64, -1.48358625471973981647e-01) (65, 1.81598126838907281133e+00) (66, 3.48394186462906638169e-02) (67, -2.37463906161195226208e-01) (68, 9.35268888082513016879e-02) (8, 5.51001439306217921654e-01) (9, -1.06649608733783249348e-01) (10, 3.59182840791524349289e-01) (11, -3.02786422177445044279e-02) (12, 3.24737824606288805196e-01) (13, 4.47313545350350894036e-01) (14, 4.07024834225677978328e-01) (15, 4.75574392485294705768e-01) (16, 6.09651343797371902955e-02) (17, 4.65190272933768189656e-01) (18, 4.85510915177736646076e-01) (19, 5.15259253296338481931e-01) (20, 6.22381358537157369781e-02) (21, 5.86309670600374671645e-02) (22, 6.36172603966588257052e-01) (23, 6.07404227959769560385e-01) (24, -1.03982065139376717022e-01) (25, 5.93506093553489044723e-01) (26, 4.81592879486351266305e-01) (27, 4.68416051839513625232e-02) (28, 5.19110323071929391503e-01) (29, 4.63566704146777641693e-01) (30, -2.82846794952586888527e+00) (31, 5.87372492658751799155e-01) (32, 4.66187182473812466998e-01) (33, -1.23106827864143619777e-01) (34, -6.81101293377110311722e-02) (35, 5.31184337353490354516e-01) (36, 6.34822189515354962097e-01) (37, 4.63054458221269005236e-01) (38, 6.14230465294713368074e-01) (39, 5.88264569347622834350e-01) (40, 3.48956130568438605000e-01) (41, -2.25853555391912035055e-02) (42, -3.36844400454024139879e-02) (43, 1.49405696192503267827e-01) (44, 6.38960995801018949436e-01) (45, -2.95547132509814680645e-02) (46, 4.92231856739063222683e-01) (47, 2.43096754078312993208e-01) (48, 5.65684565804160377489e-01) (49, 5.87598319756644560385e-01) (50, -1.72694236592077013381e-02) (51, 6.25879116170505733763e-01) (52, 5.75872599276979896255e-02) (53, 6.42191081773441085900e-01) (54, 5.98384201234105073119e-01) (55, 2.46654870791289670962e-01) (56, -6.17582513119080966923e-02) (57, 6.65292294732662714551e-01) (58, 5.94990655487301789428e-01) (59, -1.69244543519543773347e-02) (60, 6.17609099126144728276e-02) (61, 4.54752913163100680460e-01) (62, -4.47564856019540407983e-02) (63, 4.97404940588520971811e-01) (64, 5.38858149351472248689e-01) (65, 5.24970147418637678172e-01) (66, 4.46870611880937490534e-02) (67, 5.65295877370316390831e-01) (68, 1.94652909896646769683e-01) (8, -1.50291543794372234322e-01) (9, 3.62970267825760639635e-01) (10, 7.05895070018160097902e-01) (11, 3.60598826115113013646e-01) (12, 6.07614625803671981608e-01) (13, 1.45835912643406839795e-01) (14, 7.05110213896186110993e-01) (15, 3.04218259131946333618e-01) (16, 3.31481144625959400773e-01) (17, 1.34663790864511440093e-01) (18, 3.02852273387485382283e-01) (19, -5.73044832474960685875e-02) (20, 1.92229439366864984784e-01) (21, 3.00146778517403345354e-01) (22, 7.48258409114556984759e-03) (23, 1.29109591645761440093e-01) (24, 5.36660131278736241001e-01) (25, 1.25485118158806752131e-01) (26, 1.54917943148348474791e-01) (27, 2.95721729689278345354e-01) (28, -6.27843390151286290246e-02) (29, 2.78705563819445112372e-01) (30, 7.14977530065095123746e-01) (31, 2.57088110250994761330e-01) (32, 1.98742384856213066824e-01) (33, 2.08961017188827119506e-01) (34, 5.31611962201098298131e-01) (35, 1.79637185154888523453e-01) (36, -4.75510697490934552967e-02) (37, 5.27485798528123505519e-03) (38, -1.00268457384915132824e-01) (39, -1.22960005295970800643e-01) (40, 6.23723396936999407991e-01) (41, 4.00368004205655936278e-01) (42, 2.93489535927023315054e-01) (43, 2.14326930820182920412e-01) (44, -4.35297789247732699880e-02) (45, 4.80005596522806765591e+00) (46, -5.37038338865528375177e-02) (47, 6.98052005747901160859e-01) (48, 2.05955541549656256928e-01) (49, 1.65106926536588011212e-01) (50, 4.70196314937684700652e+00) (51, -4.95351446356062791176e-02) (52, 3.00873762628136476316e-01) (53, -2.25326074495214032437e-03) (54, -1.37136024917849912858e-02) (55, 5.05655163203670987571e-01) (56, 3.64128450898773881050e-01) (57, -5.94982355229164202454e-03) (58, -1.63865764034488353706e-01) (59, 1.72429636914539219372e-01) (60, 3.57575233322626084842e-01) (61, 3.02094232714214094848e-01) (62, 2.72307568092165108720e-01) (63, 1.20075185275106383065e-01) (64, 8.27601496484422875788e-03) (65, 2.75508523387483827971e-01) (66, 2.74551997915480960888e-01) (67, 1.19154859655135631630e-02) (68, 1.11250140540249370380e-01) (8, 2.35195249177786419592e-01) (9, -2.26124471531725212969e-01) (10, 2.36379915962541042873e-01) (11, 3.18959935799817795310e-01) (12, 3.52476236664345188299e-01) (13, 7.57613583765810560955e-01) (14, 3.60858662715741851379e-01) (15, 9.94777461948350150145e-01) (16, 2.10499100499942304321e-01) (17, 7.82636122172694848054e-01) (18, 8.80607419013744285863e-01) (19, 3.20618425541912888121e-01) (20, -3.73525611753484310107e-01) (21, -3.34226868700330304041e-01) (22, 2.00237483295926943505e-01) (23, 7.85964389240310534746e-01) (24, 7.39165442137084266472e-02) (25, 7.30923745840327598877e-01) (26, 5.10167072747836791713e-01) (27, 8.27239349251034594701e-01) (28, 1.87755356262317929517e-01) (29, 1.41578682953360734942e+00) (30, 1.92478131349305831010e-01) (31, 7.62706948041356636026e-01) (32, 9.83934560498828214570e-01) (33, 7.87360364011262636730e-01) (34, 2.30316636325869350532e-01) (35, 7.34061236422742791063e-01) (36, 1.66484209967695723220e-01) (37, 3.32758689111363248347e-01) (38, 1.95287533614168062890e-01) (39, 2.84661486166988997315e-01) (40, 2.11404466144077513023e-01) (41, -8.45050737672788793153e-02) (42, -2.52374337811121307595e+00) (43, -3.34304622777146398516e-01) (44, 3.46154482952296171927e-01) (45, 2.91077258618331502493e-01) (46, 1.99474710393221871252e-01) (47, 2.48649424442586836070e-01) (48, 5.87464478664914135919e-01) (49, 9.57787723267430779472e-01) (50, 3.62606541352360256525e-01) (51, 3.10271479060112764792e-01) (52, -1.24970138978659675577e-01) (53, 1.87479140222554518935e-01) (54, 2.09197610038788811559e-01) (55, 2.50788406192461843514e-01) (56, -5.91760130581663279514e+00) (57, 3.28109992582826692775e-01) (58, 1.75208267801793132756e-01) (59, -5.63287286786372298764e-01) (60, 2.48049574708768844067e-01) (61, 9.55613558337061075321e-01) (62, -6.48793306577125306056e-01) (63, 9.51332692491312026384e-01) (64, 1.99203301044497904648e-01) (65, 1.08124610079635807836e+00) (66, -7.51469036806121315486e-01) (67, 2.60815806966719687665e-01) (68, 3.14734058672933358913e-01) (8, 1.31553447467503437096e+00) (9, 6.65191934333712042715e-01) (10, 7.14581918507771213928e-03) (11, -3.50535203183350074774e-01) (12, -1.57169014799855732978e-01) (13, 7.43295179034255265593e-02) (14, -4.96912274324998112784e-02) (15, -1.21320583758304494787e-02) (16, 5.43204830316059594786e-01) (17, 3.60192044494936414178e-01) (18, 4.72084357132753706932e-01) (19, 1.34638643391432832885e+00) (20, 6.48034563925222517611e-01) (21, 5.75607994433234959608e-01) (22, 1.29370252607155267199e+00) (23, 3.79505008662381293494e-01) (24, -5.43240580958895491470e-01) (25, 1.22307332353982306516e-01) (26, 7.46036737020172591173e-02) (27, 5.40889659115126320010e-01) (28, 1.33360447579574570298e+00) (29, -5.21822333720465200702e-02) (30, -1.24278982156444200990e-01) (31, -1.34699570428682916662e-02) (32, -3.77279693113034206298e-02) (33, 7.11668508946287414751e-01) (34, -5.40740548541559840068e-01) (35, -3.82960123466669286052e-02) (36, 1.34084073763251176992e+00) (37, 1.18371707007594140215e+00) (38, 1.37967672385167894333e+00) (39, 1.23852779937062718041e+00) (40, -7.45509357341021111631e-02) (41, 6.19792608508625830765e-01) (42, 5.37993584253619872015e-01) (43, 6.53325086953646105847e-01) (44, 1.36878521329286129138e+00) (45, -1.19562703651471702315e-01) (46, 1.22634901388655159771e+00) (47, -6.54414502731685970849e-02) (48, -1.11217150116218101846e-02) (49, 5.97724985781990375555e-02) (50, -4.41154620765416283223e-01) (51, 1.12808403822503233727e+00) (52, 6.07369194672972234628e-01) (53, 1.34408268288507559696e+00) (54, 1.21525432677002376280e+00) (55, -1.26752662813090416494e-01) (56, 6.79826167836356964891e-01) (57, 1.38463561000602752848e+00) (58, 1.36274918954730073217e+00) (59, 6.33287769236396624883e-01) (60, 6.07441070898775636877e-01) (61, -3.81078296368098368152e-02) (62, 5.43452425290888330167e-01) (63, -6.90003577956186248121e-02) (64, 1.21457468382046052113e+00) (65, 3.27779995353284170356e-01) (66, 5.64236611774828866750e-01) (67, 1.28884849918655652878e+00) (68, 4.88949968471855900276e-01) (8, -3.73889758567119256938e-01) (9, 2.16269597906003668841e-01) (10, 4.35044788540022098200e-01) (11, 1.42039205191222728253e+00) (12, 5.93028983990141700389e-01) (13, 3.82730592875690833754e-01) (14, 5.25442843295981676377e-01) (15, 4.60358736276290592127e-01) (16, 1.15091746469156985810e-01) (17, 4.21034890429654196087e-01) (18, 4.10806422827629469374e-01) (19, -3.32972195395282555275e-01) (20, 1.34970469021742450755e-01) (21, 2.27095046412645051870e-01) (22, -4.38243948752550238623e-01) (23, 4.70247175626948898941e-01) (24, 1.10260041885994497513e+00) (25, 4.23542251060128382978e-01) (26, 4.22190077777594208186e-01) (27, 1.55820802523694679209e-01) (28, -4.15020226305250539145e-01) (29, 4.77482001369809505587e-01) (30, 5.67364981848852312218e-01) (31, 4.22223615023430698390e-01) (32, 4.73428757594535676301e-01) (33, 1.54783360058037389173e-01) (34, 1.00313023623819730368e+00) (35, 5.24364565590154430019e-01) (36, -3.45376119846082407783e-01) (37, -5.08242171059304248537e-01) (38, -3.38159337105230994869e-01) (39, -2.68902169020847126024e-01) (40, 6.48184049010809393288e-01) (41, -5.04822940813277748484e-02) (42, 1.77792562409094606624e-01) (43, 1.34541984010219772827e-01) (44, -4.32451607322614062223e-01) (45, 1.10238600416845899943e+00) (46, -4.20657519896329323839e-01) (47, 5.00918161833172503883e-01) (48, 3.29649262196774095468e-01) (49, 4.94155037080424186513e-01) (50, 1.17886913733701281792e+00) (51, -4.21467090050883175234e-01) (52, 1.78526297491640589810e-01) (53, -4.22046375286598607346e-01) (54, -3.75069082682136123452e-01) (55, 5.12807161079865458930e-01) (56, 7.39464684015922468774e-02) (57, -3.80378123076123952906e-01) (58, -4.25128225867558884321e-01) (59, 1.23030942015879399265e-01) (60, 1.33927609756741394786e-01) (61, 4.95573098191273986313e-01) (62, 2.80805561203429587813e-01) (63, 3.78202691560182990838e-01) (64, -3.22054124184019185950e-01) (65, 3.72130504893905533770e-01) (66, 2.50146618546361776403e-01) (67, -3.18082424321201207018e-01) (68, 4.59363122381301960950e-02) (8, -3.74740307161282204529e-01) (9, 1.77461703625768407733e-01) (10, 6.67941509396457577807e-01) (11, 1.65053195102384964166e+00) (12, 6.14605353539792176321e-01) (13, 6.88921911181314849948e-01) (14, 6.38642208484963114223e-01) (15, 6.26989398204843784157e-01) (16, 1.89072786260396780156e-01) (17, 6.94651249150507021923e-01) (18, 7.59946237429182103185e-01) (19, -2.22496019552200524627e-01) (20, 1.79417027521879129948e-01) (21, 1.28668681028216408402e-01) (22, -3.04890170141357219613e-01) (23, 7.75072555359213044568e-01) (24, 8.12383512577216304607e-01) (25, 5.73746553394487990296e-01) (26, 5.90935754439834370899e-01) (27, 1.81947410658353431190e-01) (28, -3.46533600414631992592e-01) (29, 5.99208113983003221037e-01) (30, 5.13566655241587177727e-01) (31, 6.52995708525316631565e-01) (32, 6.81895001035809689149e-01) (33, 1.28535255425202860069e-01) (34, 1.27750275948418345884e+00) (35, 6.03369647537500219947e-01) (36, -2.94464314811897054369e-01) (37, -2.25537915916509595915e-01) (38, -3.34284272198681786659e-01) (39, -3.20899066705929159049e-01) (40, 5.64407034749769276338e-01) (41, 1.65583770829531087831e-02) (42, -2.07661492739358133353e-01) (43, -9.58319522787112326734e-02) (44, -4.65427330690395768542e-01) (45, 1.50738667944625026607e+00) (46, -3.21504517276020473915e-01) (47, 4.71124216224941327891e-01) (48, 4.97460358808684721676e-01) (49, 7.17137995860476107346e-01) (50, 1.49848299036234577919e+00) (51, -5.67007926772326142917e-01) (52, 1.50803500685121319100e-03) (53, -4.91067584283119695776e-01) (54, -3.10778928544775845388e-01) (55, 5.91982766775052460240e-01) (56, -8.19081071670063609602e-02) (57, -2.18060216943751078444e-01) (58, -3.15434619911185820662e-01) (59, -1.04026356771144384838e-01) (60, 1.09534092931033638640e-01) (61, 6.98740466307037011440e-01) (62, 1.71747904276972895854e-01) (63, 8.00461919325557436089e-01) (64, -2.82346455168704935090e-01) (65, 6.84801895224611323343e-01) (66, 2.20036494914347846574e-01) (67, -2.92161924334657485680e-01) (68, -9.93633694545091455952e-02) (8, 4.61249593011606784376e-01) (9, 1.20768668177538174291e-01) (10, 2.88190622147811992271e-01) (11, 9.96629450436232883215e-02) (12, 3.24671034792007651149e-01) (13, 5.21026980392968352973e-01) (14, 2.77073612205614328019e-01) (15, 3.94855958994763556191e-01) (16, -3.71429701919800125953e-02) (17, 3.38904717584269654651e-01) (18, 5.17530211825978025963e-01) (19, 5.07093089930274132371e-01) (20, 1.20574853359482328519e-01) (21, 1.44535766961985140400e-01) (22, 3.25743041053067061696e-01) (23, 3.88355398197787415882e-01) (24, 8.57292363932167233997e-02) (25, 4.63355454205368555431e-01) (26, 3.52093879394577202735e-01) (27, 7.14892533653012501871e-02) (28, 3.51881548478020500514e-01) (29, 5.12441761683421037610e-01) (30, 2.42263011078217072036e-01) (31, 5.10712893333568285215e-01) (32, 5.00170139874695385274e-01) (33, -8.66848985872343061332e-03) (34, 2.90509158968228042852e-01) (35, 4.85155129386566741356e-01) (36, 3.70826433885039108418e-01) (37, 3.90570874623526298475e-01) (38, 3.20579468324433181081e-01) (39, 4.74616724538744594319e-01) (40, 2.10645520335198288553e-01) (41, 6.74541325978901106647e-03) (42, 1.29777463200502651830e-01) (43, -6.13029335162670885317e-03) (44, 3.85662730953268029221e-01) (45, 2.95912317043211629819e-02) (46, 3.75373553025664108418e-01) (47, 2.65270312258869822575e-01) (48, 4.39686959740493876758e-01) (49, 4.96296392407553854653e-01) (50, 2.45797822365424800672e-01) (51, 4.76057145285547878011e-01) (52, -1.52984862799888047397e-02) (53, 3.96507559333648673672e-01) (54, 4.16669938254297878011e-01) (55, 4.03007948194143705845e-02) (56, -1.22930046160368150465e-02) (57, 4.05018112098286808820e-01) (58, 4.44055992476214023146e-01) (59, -4.27405345160255991516e-03) (60, 4.46606870261033461755e-02) (61, 4.31314965906946790053e-01) (62, 9.00244970200285016260e-02) (63, 4.19978419957106219318e-01) (64, 4.96182855497751096330e-01) (65, 3.74512625505345531085e-01) (66, 2.42373941955740281051e-02) (67, 4.59729808680285068068e-01) (68, 7.88762337725479323325e-01) (8, 2.01467495434744570115e-01) (9, 8.25273119953701228546e-01) (10, 1.97205637110935444456e-01) (11, -9.37011368781833636765e-02) (12, 1.41305065113101813168e-01) (13, -3.20533127695531938617e-01) (14, 1.22647371478585565097e-01) (15, -7.64955689524872584073e-01) (16, 8.97450843897816263883e-01) (17, -1.00194246470101488988e+00) (18, -9.26686117044779433805e-01) (19, 1.19745735306179476587e-01) (20, 9.09675886106956488319e-01) (21, 7.50182173015350395318e-01) (22, 1.38363346700537181988e-01) (23, -5.15376172772638252439e-01) (24, -4.13386957231291068959e-02) (25, -3.24267575383561157398e-01) (26, -3.94317571923227805364e-01) (27, 8.57768234906027049469e-01) (28, 1.03720590587847716346e-01) (29, -7.77444220747233405433e-01) (30, 2.99469756314248401752e-02) (31, -8.18934985861534014973e-01) (32, -3.86859163475221534689e-01) (33, 8.82665648508273448236e-01) (34, 1.34872619244399610805e-01) (35, -4.71415586430285971087e-01) (36, 8.69800679586510971930e-02) (37, 1.69503721786797206805e-01) (38, 1.47419236473441489510e-01) (39, 9.40621423012375362793e-02) (40, 8.60822339852835433094e-02) (41, 7.53917195476937140874e-01) (42, 1.32823614023629454906e+00) (43, 1.29341267434001294667e+00) (44, 2.48706424842848189405e-01) (45, 1.75461603995610893048e-01) (46, 2.28412728983795748627e-01) (47, 1.16415971364404360888e-01) (48, -2.09315834331429584392e-01) (49, -7.59108664326900717256e-01) (50, 3.77400278092597962765e-01) (51, 1.92825375931337944513e-01) (52, 8.96337128898790913567e-01) (53, 1.02627207449212776158e-01) (54, 1.06256969500219775049e-01) (55, 2.11612175309153410785e-01) (56, 1.27129933822569984869e+00) (57, 7.14228422390343203885e-02) (58, 1.94245245534813509858e-01) (59, 7.30720895857999264145e-01) (60, 7.68231862073118443313e-01) (61, -7.17320487081463009638e-01) (62, 8.39235836405933799398e-01) (63, -8.64719591858226777070e-01) (64, 6.97953520268879273880e-02) (65, -4.19662118548317808475e-01) (66, 9.28049750237469606162e-01) (67, 2.08551895100510226166e-01) (68, 7.53197428819144115808e-02) (8, -1.36520847777964304814e-01) (9, -3.37347079150698281325e-02) (10, 9.74643815212962061345e-01) (11, 2.59288384450023379202e+00) (12, 9.73667229525120192513e-01) (13, 8.06087413223064985779e-01) (14, 9.70803548888714229470e-01) (15, 1.45463575664182109826e+00) (16, 5.16956896089823744744e-02) (17, 1.51418727121202101316e+00) (18, 1.55932330982353195559e+00) (19, -2.43653532658786448062e-01) (20, 1.43728372103188624387e-02) (21, 1.73212002880547485950e-02) (22, -3.05620701755119406062e-01) (23, 1.45161976972348094606e+00) (24, 2.36028922379161132383e+00) (25, 9.33914814216703637051e-01) (26, 8.40768821131853028028e-01) (27, 7.63355941080350597350e-02) (28, -2.92660790022404471156e-01) (29, 8.88658155095860990969e-01) (30, 1.79856321285701281631e+00) (31, 1.55774925453812440601e+00) (32, 8.48349324748275401831e-01) (33, 1.30062634042852846156e-02) (34, 1.62390463739842227930e+00) (35, 9.22104448165605661281e-01) (36, -2.03101318019701687634e-01) (37, -2.93848839198320666011e-01) (38, -2.60450538743139337061e-01) (39, -1.60052536904074338420e-01) (40, 9.62791466845002275043e-01) (41, 6.36780652480549436145e-02) (42, -8.48077318311934863493e-02) (43, -3.92416769122771180722e-02) (44, -1.79285421939108208234e-01) (45, 1.16296908474717697324e+00) (46, -2.58087209343164702968e-01) (47, 9.32011009710087878766e-01) (48, 7.98919983594458371634e-01) (49, 1.45655616434813506288e+00) (50, 1.69097674725217061997e+00) (51, -2.27044730364535679579e-01) (52, -1.13470096223380438605e-02) (53, -1.61846547649729943785e-01) (54, -2.83892876385896941738e-01) (55, 1.03651790854345882131e+00) (56, 2.94605721039666729189e-03) (57, -2.02530040561151064571e-01) (58, -2.68439908121794024165e-01) (59, -5.17449869455089139780e-02) (60, -7.51046294073970995692e-03) (61, 1.52580531024312304744e+00) (62, -3.32174089063188987536e-02) (63, 1.55368653464898365257e+00) (64, -1.24602632368645632743e-01) (65, 1.51899193031937440601e+00) (66, 1.12621323998679332551e-02) (67, -1.35471031169535349736e-01) (68, 2.99125178815953185474e-01) (8, 3.17530090256443964236e-01) (9, 7.96065315524803751579e-02) (10, 1.09349269598307041740e-01) (11, 1.79106681187641253450e-01) (12, 2.89588755899120482706e-02) (13, 5.91715661125669978304e-01) (14, 4.88079452971901806002e-02) (15, 7.80691974328113658110e-01) (16, 2.11599553466528152168e-02) (17, 9.19444737105619469553e-01) (18, 9.58463265551957266375e-01) (19, 2.77993112416878407345e-01) (20, 1.33591688591786661444e-01) (21, 7.68368785127833409110e-03) (22, 6.27423574827393470965e-02) (23, 8.77342365465909490574e-01) (24, 1.26706086845529836138e-01) (25, 6.18720714081443134980e-01) (26, 6.20866840948223863705e-01) (27, 6.66375654347625689944e-02) (28, 3.26826756915591432051e-01) (29, 1.38501969412658865188e+00) (30, 1.24615883283678618998e-01) (31, 9.07236638669674189117e-01) (32, 8.21059574724804175361e-01) (33, -2.15037274769902114757e-02) (34, 1.12652882343236754314e-01) (35, 6.33409049069175944524e-01) (36, 2.44098227721253363542e-01) (37, 2.01186296102909167871e-01) (38, 1.36175108987715537401e-01) (39, 1.95740656148848446438e-01) (40, 2.10951416342208319943e-01) (41, -2.88882219988879848649e-02) (42, 2.82037303277389683753e-01) (43, 2.41144013748481295112e-01) (44, 2.27882739130699285557e-01) (45, -1.20867283129304104589e-02) (46, 3.26666540736128940825e-01) (47, 4.83890007770739344339e-02) (48, 6.28394910109720594704e-01) (49, 8.35158581813330691546e-01) (50, 2.98412359486638689710e-01) (51, 2.56054863039296698446e-01) (52, 7.32031268475233365400e-02) (53, 1.02640357962629463762e-01) (54, 2.87479251225688403615e-01) (55, 1.22858132199577085863e-01) (56, -2.43606293439962949543e-02) (57, 2.92832825823230502582e-01) (58, 3.05628297594872533338e-01) (59, 9.04225821230340981449e-02) (60, 6.70442091474635678411e-03) (61, 7.56805854219259166449e-01) (62, 3.19040457339666294612e-02) (63, 7.27045642922235946237e-01) (64, 1.51331687608348641749e-01) (65, 9.66886058603648179677e-01) (66, 1.17642662885959037311e-01) (67, 3.37592413393345891492e-01) (68, 7.29115602752805402886e-01) (8, -1.31149054241855966829e-01) (9, 2.39804029317418065936e-02) (10, 5.89174435162136633792e-01) (11, 1.68771428580902504990e+00) (12, 4.50834768065703717088e-01) (13, 1.11671495623987349077e+00) (14, 5.83967814212494773507e-01) (15, 1.07816450856400258829e+00) (16, -2.39938536127781876228e-01) (17, 1.21955198986733504007e+00) (18, 1.24064586099134266384e+00) (19, 1.32967450492784376725e-02) (20, -3.35375522715100626847e-02) (21, -4.09911053112320469816e-02) (22, -2.20190843740320302269e-01) (23, 1.07895748899244914298e+00) (24, 1.16937545259379882534e-01) (25, 1.19921571409238603145e+00) (26, 6.86452318386131632444e-01) (27, 6.16193543126621681716e-02) (28, -9.12828196373554889842e-02) (29, 1.20449021650495269320e+00) (30, 5.80041261645257266721e-01) (31, 1.15340926129751752960e+00) (32, 1.14920576217487724335e+00) (33, -9.48307352073363973854e-02) (34, 1.30734275052248460902e+00) (35, 1.08306769821860116032e+00) (36, -1.07657140141523693933e-01) (37, -1.85819051391676835772e-02) (38, -1.24512293040435470526e-01) (39, -6.48285678817831639842e-02) (40, 4.35332515647007589621e-01) (41, -2.05657968131436968973e-01) (42, -2.20482405755584615070e-01) (43, -3.74911285719156162077e-01) (44, -2.20350526901124832424e-01) (45, 1.28295201158259630780e+00) (46, -9.55057588933226758732e-02) (47, 3.93802681941772037000e-01) (48, 8.82674262284848687443e-01) (49, 1.07227613253908948820e+00) (50, 8.66019438007407438285e-01) (51, -1.34199751320835169999e-01) (52, 9.59074791382564378894e-02) (53, -1.40059556940707291561e-01) (54, -7.29828632666670168438e-02) (55, 6.08675868649068974037e-01) (56, -3.14884647358388503058e-01) (57, -6.80696754570736251022e-02) (58, -9.81900698668564386740e-02) (59, -2.99268214358597239855e-01) (60, -2.76392463992434000986e-01) (61, 1.18925592470408547641e+00) (62, -1.10172387662265769230e-03) (63, 1.15621227809541959886e+00) (64, -4.61126042769506652719e-02) (65, 1.10910762254228423274e+00) (66, -1.01415096534843610088e-01) (67, -3.94864536053732076426e-02) (68, 2.45123199934187928350e-02) (8, -3.42238064745245484932e-01) (9, -6.65337058594793386707e-03) (10, 6.08941451144135670326e-01) (11, 1.89641818883287593955e+00) (12, 5.19055432086438672812e-01) (13, 1.96049691208101312112e-01) (14, 4.90046427948604979008e-01) (15, 5.89816383127642285267e-01) (16, 7.26837756335207887254e-03) (17, 1.91053651098199439584e-01) (18, 6.93739576377363775794e-02) (19, -4.56258864487753379446e-01) (20, 4.01236051529589993203e-02) (21, -4.43168940833179540034e-03) (22, -3.41389273411908500400e-01) (23, 2.16615177515931678354e-01) (24, 1.47780570502444619230e+00) (25, 4.75407632093062804124e-01) (26, 5.78441580434695068469e-01) (27, 5.78238004654597001486e-02) (28, -3.42152733413706333643e-01) (29, 6.05406332263207946909e-01) (30, 5.82322767603487667643e-01) (31, 1.56153745774216951014e-01) (32, 9.88743998304703192170e-02) (33, 1.64854217912917794253e-01) (34, 1.28752313874868007382e+00) (35, 4.17235513826289705630e-01) (36, -4.13557331892309643084e-01) (37, -5.82543084754231776934e-01) (38, -4.04492783946481138102e-01) (39, -6.34421528303841242291e-01) (40, 6.02283618674983811658e-01) (41, 5.28597327876285452697e-02) (42, 6.55027576537797889822e-02) (43, -1.69099801167778319988e-02) (44, -4.00422358475859774263e-01) (45, 8.94051208864098723161e-01) (46, -6.14334539490441144949e-01) (47, 4.76246835226095788229e-01) (48, 4.74759659127795108358e-01) (49, 5.52146775717354820756e-01) (50, 1.62973908234857423061e+00) (51, -7.31194788769105374904e-01) (52, 5.84406235546778354828e-02) (53, -2.65653796341078607401e-01) (54, -7.36331933164814600445e-01) (55, 5.34092300369748085309e-01) (56, 6.34445008638097190934e-02) (57, -4.67083842303231688842e-01) (58, -5.41898333454350122906e-01) (59, -1.37578642635637921759e-02) (60, 3.68611981804551971931e-02) (61, 5.92204369629502958006e-01) (62, 3.18265921488466996259e-02) (63, 4.26428071275994080569e-01) (64, -4.93074157971764237551e-01) (65, 6.35451002158617939131e-02) (66, 1.60755424461074061804e-02) (67, -6.40688073378781197675e-01) (68, -1.71888025175139097511e-01) (8, 1.09679515550401757151e-01) (9, 7.19076038380277227091e-01) (10, 1.19449224523003383336e-01) (11, 1.90100638582724607017e-01) (12, 1.88513743874437394998e-01) (13, -3.29850625799113617020e-01) (14, 1.40496460248312499131e-01) (15, -1.63070316430470652058e+00) (16, 9.00075583559462266692e-01) (17, -1.91705315521945562907e+00) (18, -1.94159265288376570169e+00) (19, 1.58107081304147634171e-01) (20, 8.27865668958476130790e-01) (21, 7.29003413062586758109e-01) (22, 2.58540176352025530271e-01) (23, -1.77323721207710915948e+00) (24, 1.86352629264419339394e-01) (25, -4.13772716683587227227e-01) (26, -3.53321324250338131279e-01) (27, 8.48138199499261169478e-01) (28, 9.53985178234575542655e-02) (29, -6.82383662193204232338e-01) (30, 4.81086781413214703562e-01) (31, -1.74916494496199259601e+00) (32, -4.04114448818237048666e-01) (33, 7.40444448477204364423e-01) (34, 2.78648666458345350971e-01) (35, -3.89248930419000493952e-01) (36, 1.26984469052628473618e-01) (37, 1.59211657787028421085e-01) (38, 1.36470296160410814457e-01) (39, 9.41605436306744147945e-02) (40, 2.32532168245863091194e-01) (41, 7.34263600204338895416e-01) (42, 1.38682332956330101048e+00) (43, 1.37448145499507212719e+00) (44, 2.57988494507651822119e-01) (45, 3.49912599910835508954e-01) (46, 3.33323401711720299079e-02) (47, 2.43537301967310104711e-01) (48, -2.11772091975227227945e-01) (49, -7.54793351217668773145e-01) (50, 8.04712181913145196965e-01) (51, 1.75151714979884215451e-01) (52, 8.89110588934743706346e-01) (53, 1.68498944095233610385e-01) (54, 7.55014177342747117017e-02) (55, 2.06348847765304016511e-01) (56, 9.67407517348099710297e-01) (57, 2.11096448630383654033e-01) (58, 1.12513815860107474487e-01) (59, 9.17887895288926558557e-01) (60, 7.66574304735696210322e-01) (61, -6.80964206674871452840e-01) (62, 7.91245476354593968438e-01) (63, -6.84680857847699830820e-01) (64, 2.47445205534159939909e-01) (65, -1.63728900034605540093e+00) (66, 8.15461933361917301610e-01) (67, 9.20651404479771312550e-02) (68, -4.76601630320451774558e-01) (8, -3.58539251693767435647e-01) (9, 2.09634499689905384745e-01) (10, 1.13783597690816518089e+00) (11, 4.26936307737245834826e-01) (12, 7.50364011196958724526e-01) (13, 2.06410839132495721460e-01) (14, 8.18329599010927277725e-01) (15, -6.67766102639638231553e-02) (16, 2.66901860680814506654e-01) (17, -9.86630439216747701092e-02) (18, -1.64685310816887302277e-02) (19, -3.68385023461431426739e-01) (20, 2.73909076550339414258e-01) (21, 1.73080118263857135608e-01) (22, -3.02557134464581101163e-01) (23, -9.83444663776684852019e-02) (24, 5.74570998242240782439e-01) (25, 4.68408734055956232911e-01) (26, 3.49700017540708174568e-01) (27, 2.13434701755182504312e-01) (28, -3.23192088125584475744e-01) (29, -1.08102145985067468748e-01) (30, 7.95863516124457937018e-01) (31, -1.54258306422610874664e-01) (32, 2.84353367412280289006e-01) (33, 1.94122766628317872106e-01) (34, 8.19562021173436350274e-01) (35, 5.35914847595696075544e-01) (36, -3.05930065505021830941e-01) (37, -3.91272243132862185266e-01) (38, -3.65411244960691383721e-01) (39, -3.01781332968315163523e-01) (40, 6.92870158954420500841e-01) (41, 1.60541707915693193653e-01) (42, 1.72774942482607135608e-01) (43, 3.01826893936650575423e-01) (44, -2.89245642630829136177e-01) (45, 2.80966172090311339105e+00) (46, -2.62974936730951014408e-01) (47, 7.63829520081961144129e-01) (48, 4.39174977499353358379e-01) (49, -1.79519232618764568166e-01) (50, 8.57873220762537136430e-01) (51, -3.14248457642449130489e-01) (52, 2.13954232135145444582e-01) (53, -3.87276186412725709207e-01) (54, -2.98448814927181282908e-01) (55, 1.80723106103011366130e+00) (56, 1.70322627861651448855e-01) (57, -3.02264855028140599913e-01) (58, -3.66138926731199187969e-01) (59, 2.56692612609237647003e-01) (60, 1.74780374559033280235e-01) (61, -4.51204064087037809427e-02) (62, 2.41109117518910481826e-01) (63, -1.61825734634794687894e-01) (64, -3.57173809333592273685e-01) (65, -1.83329819430284146620e-01) (66, 2.59685190419780220772e-01) (67, -3.77253427194208068585e-01) (68, -6.94891751297813553556e-01) (8, 1.89890887711910827385e+00) (9, 1.18887447570676130226e+00) (10, 1.50765738993941772472e-01) (11, 3.87009182610806412583e-01) (12, 5.46987539838494837841e-02) (13, -2.24489110423952670237e-01) (14, 8.09402382199395642459e-02) (15, -1.45780103149867779067e-01) (16, 1.27611078141877687386e+00) (17, 4.42355836673921865021e-01) (18, -1.71748465067722400068e-01) (19, 1.96338491785235058629e+00) (20, 1.36142643020643805407e+00) (21, 1.32997651423792495606e+00) (22, 1.92039958513672903706e+00) (23, -1.22621052796741666913e-01) (24, 1.26106909646682169290e-01) (25, -1.79954125156591676626e-01) (26, -1.00219084433898944497e-01) (27, 1.27674398893640117514e+00) (28, 2.00140708468188632807e+00) (29, -1.60478412625525090895e-01) (30, 1.68397414412446266851e-01) (31, -1.41325741111274993944e-01) (32, -1.31665037729632866670e-01) (33, 1.26875878741239156433e+00) (34, 6.06738072075422227303e-02) (35, -2.61305282774243696764e-01) (36, 1.97241831978639403644e+00) (37, 1.86932747141368027499e+00) (38, 1.05769089948555428116e+00) (39, 1.84435451371388059449e+00) (40, 9.75330471071827603824e-02) (41, 1.31798116966804146344e+00) (42, 1.22057074331688220070e+00) (43, 1.33211267520460086011e+00) (44, 1.95540265643052735278e+00) (45, 1.44818111329996362935e-02) (46, 1.83929788237274394191e+00) (47, -4.89474467541302776796e-02) (48, -2.05868822150662766912e-01) (49, -1.35527897258992419127e-01) (50, -3.87929660256067176949e-01) (51, 1.07579042524595269725e+00) (52, 1.33648436767401324055e+00) (53, 1.87052774393941434461e+00) (54, 1.92833242463774334752e+00) (55, 1.46674308666436936655e-01) (56, 1.24375462957360394256e+00) (57, 1.00501803476032991469e+00) (58, 1.87649599500622343839e+00) (59, 1.27723603721241607545e+00) (60, 1.20835592238879141469e+00) (61, -2.23163449616401582398e-01) (62, 1.29301065076287646782e+00) (63, -7.39559517035215246983e-02) (64, 1.07568884576815770870e+00) (65, -2.70570084876986416411e-01) (66, 1.28679858946668623787e+00) (67, 1.89314888856016061425e+00) (68, 4.21018388505864038507e-01) (8, 2.70449910783233993250e-01) (9, 1.56527893586065530718e-01) (10, 2.81048720658547898643e-02) (11, 1.92133821681320760000e-01) (12, 2.15402682957416435894e-01) (13, 5.30612768604015849760e-01) (14, 6.23731282600268818750e-02) (15, 7.16118838195031193194e-01) (16, 1.13376038117315711129e-01) (17, 9.74050124467115807647e-01) (18, 8.73178724665533034788e-01) (19, 3.91372770541375036846e-01) (20, 1.48654358429815530718e-01) (21, 2.11911195857432066436e-01) (22, 2.98140391961628836714e-01) (23, 7.56552423377072402744e-01) (24, 1.25638034235109635750e-01) (25, 6.75764316698658551452e-01) (26, 5.83015824675050420289e-01) (27, 2.44662666661646432953e-01) (28, 3.58564462626027424808e-01) (29, 1.32304306062716059422e+00) (30, -2.17046732805310539638e-02) (31, 8.76010690043580453334e-01) (32, 7.87687410052029024499e-01) (33, 2.19181641811904304173e-01) (34, -2.78438797494115763964e-02) (35, 6.04475619320771428988e-01) (36, 3.60348897329233364140e-01) (37, 2.20853004440500849670e-01) (38, 2.16323197316885568187e-01) (39, 3.89645383757775187750e-01) (40, 1.52680017773354770316e-01) (41, 6.06058664863137974699e-01) (42, 4.80926597201296601725e-01) (43, 5.16121021470317797863e-01) (44, 3.74379507589882365437e-01) (45, -1.36578113063429984475e-01) (46, 3.66420582409756501185e-01) (47, 6.17728553885903350351e-02) (48, 5.01144832351060443010e-01) (49, 8.15237197730357299186e-01) (50, -1.29956707704347662613e+00) (51, 3.80782480383994037521e-01) (52, 1.37436097456123645921e-01) (53, 2.87564172997154754441e-01) (54, 2.88156115514461075300e-01) (55, 4.63568460930241718621e-02) (56, 1.00195841548801234389e-01) (57, 3.28434185087458196950e-01) (58, 2.95150839262668163165e-01) (59, 1.11056702179815683373e-01) (60, 1.70606543457519660434e-01) (61, 7.44684561520165710924e-01) (62, 3.07872503864787039340e-01) (63, 7.35728297708084455486e-01) (64, 3.63885867385060235435e-01) (65, 8.19407851378285201349e-01) (66, 2.43958821483680504683e-01) (67, 3.93148884647553320537e-01) (68, 8.66665789934896180213e-01) (8, 3.41603108815147615829e+00) (9, 3.06572835539773713709e-01) (10, -4.66508537472056783457e-01) (11, 2.55502720597990389706e+02) (12, -5.57779630798617587217e-01) (13, 2.42492856097349746003e-01) (14, -4.79048644574451731870e-01) (15, 1.52081032675728256010e-01) (16, 3.28257442824731127118e-01) (17, 3.54585133108894556830e-01) (18, 3.43556933070366166127e-01) (19, 2.41347679816728755142e+00) (20, 3.59315127630660147151e-01) (21, 3.82038367568273973252e-01) (22, 2.52565093047455979658e+00) (23, 3.21022076420083013470e-01) (24, 1.04726431057032655758e+02) (25, 6.25428209590307093713e-01) (26, 3.03740434773795586754e-01) (27, 3.04788141442642823709e-01) (28, 1.74265513601733950111e+01) (29, 2.70353494576412056727e-01) (30, -1.11786068727026544067e+00) (31, 3.29594987335904254788e-01) (32, 2.57900725673189001874e-01) (33, 2.64414234611212162207e+00) (34, -4.67221599386993868830e-01) (35, 3.38110656519376828744e-01) (36, 3.40473441772234686198e+00) (37, 2.27661133530864923102e+00) (38, 1.69972029477102033468e+01) (39, 2.20504177320244698635e+00) (40, -5.11020804644686799101e-01) (41, 3.99658596952151128789e+02) (42, 2.27871327044262578232e-01) (43, 3.33031957165972003487e-01) (44, 2.77436889019642407561e+00) (45, -1.52414127462478488084e+00) (46, 2.27947486436186297354e+00) (47, -5.89337753085471094394e-01) (48, 1.77168532888731966590e-01) (49, 1.53819606059166641421e-01) (50, -5.92881012577268329267e-01) (51, 2.18405364684248048945e+00) (52, 2.01745533852169534050e-01) (53, 2.43791581716075844710e+00) (54, 2.31360008324537558266e+00) (55, -7.06774598880686943936e-01) (56, 3.64586624779864476587e-01) (57, 2.80638275996293842240e+01) (58, 2.52519406565009507659e+00) (59, 3.31858815409929730489e-01) (60, 1.54831230678179787574e+00) (61, 2.68367388240102477948e-01) (62, 3.64289554912128665798e-01) (63, 1.26365105357632345751e-01) (64, 6.76779753123036176277e+00) (65, 1.94069728450474182635e-01) (66, 2.05108558531535867253e-01) (67, 3.29306164205497831077e+00) (68, 5.06614830024458573376e+00) (8, 1.11479532511120471572e-01) (9, 7.93562547784611771462e-01) (10, 1.70903289995444268579e-01) (11, 1.75771181950736959942e-01) (12, 1.36512194502984435251e-01) (13, -4.15208839117978179001e-01) (14, 8.50855652456875138911e-02) (15, -1.69579989406674314090e+00) (16, 8.01306801278177438519e-01) (17, -1.84252368270119881721e+00) (18, -1.89914599417409157844e+00) (19, 1.86888074492091771361e-01) (20, 8.40284314906523444044e-01) (21, 7.29138806836602704209e-01) (22, 2.19113274103719557484e-01) (23, -1.74344067514136269459e+00) (24, 6.78302388684829671295e-02) (25, -3.52332230739977492195e-01) (26, -2.77465680729457098153e-01) (27, 8.45684103131058129144e-01) (28, 2.04427145174499419467e-01) (29, -7.71526364991869106902e-01) (30, 5.59295046684107621804e-02) (31, -1.77332916331894852036e+00) (32, -4.73046217224703025028e-01) (33, 8.34567348547772924761e-01) (34, 1.64317372158906543911e-01) (35, -4.66447819161539600774e-01) (36, 2.56538733593533518906e-01) (37, 9.60933125201570703666e-02) (38, 2.28837699125654076004e-01) (39, 1.92374743982619861304e-01) (40, 1.29826560055695872098e-01) (41, 8.37856171749871481147e-01) (42, 1.28695847124965778718e+00) (43, 1.28830342698718047778e+00) (44, 1.98111352137972401843e-01) (45, -3.04045891666688428145e+00) (46, 8.85274813976893865108e-02) (47, 2.07945513386785241217e-01) (48, -2.10525997435017625525e-01) (49, -7.18820346416525590705e-01) (50, -1.93723095466622224903e-01) (51, 1.30488424035482192265e-01) (52, 8.64152450248578340997e-01) (53, 1.67330433799185968047e-01) (54, 2.13612932106555603040e-01) (55, 1.09071017964425101554e-01) (56, 7.13838803218447504051e-01) (57, 7.20009633001916504735e-02) (58, 1.60193905958480514728e-01) (59, 6.67254251896788552756e-01) (60, 6.91679216285210896054e-01) (61, -8.67029896180638970371e-01) (62, 7.54909934723208109197e-01) (63, -8.52224654801759240463e-01) (64, 1.48696766830796883729e-01) (65, -1.69413406362927387860e+00) (66, 7.38988270108927536306e-01) (67, 1.25718559037555327462e-01) (68, -4.29698935877622589796e-01) (8, -2.15865891744337484726e-01) (9, 1.64061050486223436451e-01) (10, 7.02172606256134979041e-01) (11, 4.56907618153313155318e-01) (12, 6.20847151030517574455e-01) (13, 3.95416909896291079995e-01) (14, 6.41155456036589632696e-01) (15, 2.55831351209662161139e-01) (16, 1.76769737813560728901e-01) (17, 2.56899677822340188893e-01) (18, 2.19387468555912429347e-01) (19, -1.00903413903882133162e-01) (20, 1.84568862986223464207e-01) (21, 2.60185315829176588842e-01) (22, -1.67680711935273035751e-01) (23, 3.58140317250718487330e-01) (24, 5.95633430462535917727e-01) (25, 3.10597086215937401299e-01) (26, 3.21637159981938480779e-01) (27, 3.23855210844231244938e-01) (28, -1.50675544383081394528e-01) (29, 4.06905080680346087352e-01) (30, 7.69787157813747180413e-01) (31, 2.22189985097023839922e-01) (32, 3.38963645479816999551e-01) (33, 2.30026156291388145236e-01) (34, 7.01924466855256667941e-01) (35, 2.53323232432229095146e-01) (36, -2.31859826139552249735e-01) (37, -1.48636459039444335239e-01) (38, -1.32187003731480429147e-01) (39, -1.47967684205319527369e-01) (40, 6.32107244895976472243e-01) (41, 2.73405634104433803433e-01) (42, 1.41926778137092840515e-01) (43, 1.59326968485532155517e-01) (44, -2.80212140468383053005e-01) (45, 1.64072553775404372800e+00) (46, -2.71258699830310923140e-01) (47, 5.96725164072793301528e-01) (48, 5.31858116244735487643e-02) (49, 5.02212375418389034287e-01) (50, 7.80256484893740442921e-01) (51, -2.47564737397458073387e-01) (52, 2.60669094413084834194e-01) (53, -1.23938983694625678988e-01) (54, -9.82301413376589355186e-02) (55, 1.34661627796092675524e+00) (56, 1.51512720876095546840e-01) (57, -2.62539724104758398493e-01) (58, -1.43682586908414039462e-01) (59, 2.68706191652771153588e-01) (60, 2.00847413264365337593e-01) (61, 2.61755016096911152790e-01) (62, 3.00417725817412661904e-01) (63, 4.22786084411348517254e-01) (64, -2.50618022887066416171e-01) (65, 3.87016875249962699623e-01) (66, 1.48741544298527456069e-01) (67, -2.53821324445837104289e-01) (68, -5.38980261979474128964e-01) (8, -8.94654149917211150012e-02) (9, 4.61704892389775356509e-01) (10, 5.11628589817371692838e-01) (11, 3.11154342049232146561e-01) (12, 6.55937415101336407375e-01) (13, 1.29233925928288223561e-01) (14, 5.15986501463733704398e-01) (15, 2.71980081215539293282e-01) (16, 3.33900167825510130193e-01) (17, 2.95101193890016488819e-01) (18, 2.66890743926203488634e-01) (19, -1.59088222196443446199e-01) (20, 4.23249534550001138555e-01) (21, 4.03056209259034237125e-01) (22, -2.91235133943109486543e-02) (23, 3.96308694496792179862e-01) (24, 4.68359082613914956550e-01) (25, 1.56023412532610705750e-01) (26, 1.44302785302334618533e-01) (27, 4.48655573003293117740e-01) (28, -8.25658745418271326766e-03) (29, 3.16457306450122821673e-01) (30, 6.25146024188582227765e-01) (31, 3.89897119310634587830e-01) (32, 3.12778529170321506481e-01) (33, 3.78913426537463349231e-01) (34, 5.25276494537076255043e-01) (35, 1.02143031765265054900e-01) (36, -1.51873865982635386507e-01) (37, -5.18844163392610732699e-02) (38, -1.49640582022852436372e-01) (39, -2.81311849859775323091e-02) (40, 5.88938577126553397534e-01) (41, 3.96486674291107454859e-01) (42, 3.89741205246418975783e-01) (43, 2.96309748572387843257e-01) (44, -1.20043566660314196537e-01) (45, 7.58210687772326363820e-01) (46, -4.18396870401915102478e-02) (47, 6.59910267244866233227e-01) (48, 1.90390847010308811305e-01) (49, 2.72568823127195491995e-01) (50, 7.36987871994915444418e-01) (51, -1.70878562924726362660e-01) (52, 4.11393638635000280512e-01) (53, -1.05600447961334067970e-01) (54, -1.37146083524568446199e-01) (55, 5.93146081944863845514e-01) (56, 3.24721617532053086208e-01) (57, -1.46405153037755725309e-01) (58, -1.84210291018827326814e-01) (59, 3.92841786713570617628e-01) (60, 3.44398041952798161791e-01) (61, 3.85762733822578363085e-01) (62, 3.13844133551826554029e-01) (63, 3.41790160509621576690e-01) (64, -9.48653735043206020050e-02) (65, 3.16596378621738783199e-01) (66, 4.37972353679218273648e-01) (67, -4.40552661922987351395e-02) (68, -9.16530151629828954141e-03) (8, -2.68627481865680750595e-01) (9, 2.18892537477676701885e-01) (10, 6.80042070341877802342e-01) (11, 5.57453710114200973180e-01) (12, 7.74751072354436520762e-01) (13, 2.38087937528042914437e-01) (14, 7.40238289500164792223e-01) (15, 3.46300266681913992972e-01) (16, 1.82155086619512796009e-01) (17, 3.61164795283310191554e-01) (18, 2.85154654860664547034e-01) (19, -2.42742843091382165532e-01) (20, 2.81914490841197962201e-01) (21, 2.23103650327865943304e-01) (22, -2.66328059397537342257e-01) (23, 2.20323542376665154618e-01) (24, 6.84971429815965371368e-01) (25, 2.73560906135327963629e-01) (26, 4.65198884133814438702e-01) (27, 2.02792228546230579589e-01) (28, -1.54544764595743150393e-01) (29, 4.12374925183024043651e-01) (30, 7.14826113231110005231e-01) (31, 2.92024770282818979528e-01) (32, 2.25820675296220962913e-01) (33, 2.47175674867420924752e-01) (34, 7.26723223045188215785e-01) (35, 2.49319477188148563851e-01) (36, -1.37896786867711118596e-01) (37, -1.89629201848263151398e-01) (38, -2.38783663501594800582e-01) (39, -1.04052654564282406890e-01) (40, 7.68249817706647575299e-01) (41, 1.65275745331461137999e-01) (42, 2.12141737755482007177e-01) (43, 1.62753278046726068684e-01) (44, -1.16580986751581142102e-01) (45, 1.69584320725354786852e+00) (46, -2.06165512390038663249e-01) (47, 6.19016466956964217516e-01) (48, 3.30889187007345486613e-01) (49, 4.11794788644781750708e-01) (50, 6.92223724406214380167e-01) (51, -2.77434549318243683924e-01) (52, 2.35434231872455851375e-01) (53, -2.05170503481560601022e-01) (54, -1.18685758338639271714e-01) (55, 1.35143822700954174820e+00) (56, 1.98701599519168020658e-01) (57, -1.14898012047271610991e-01) (58, -1.27874679028889687293e-01) (59, 1.95833139535133649023e-01) (60, 1.72130309441561879513e-01) (61, 5.10611351455117046250e-01) (62, 1.90247620307170073328e-01) (63, 4.60921104436508466407e-01) (64, -1.57279677680718626975e-01) (65, 3.85281508531934879791e-01) (66, 2.04451704982100607166e-01) (67, -2.63635172605407752666e-01) (68, -5.75421186203837087270e-01) (8, -3.20785549027462091320e-01) (9, 3.42059515208809505893e-01) (10, 1.01154337591584786438e+00) (11, 7.61231660854476466227e-01) (12, 8.90275553927086127359e-01) (13, -1.47105400655462181803e-01) (14, 9.33438496342746892864e-01) (15, -1.13664807128285222371e-01) (16, 4.18243601710407864047e-01) (17, -1.57824052868589137510e-01) (18, 3.34926058070827079027e-02) (19, -2.58677667886371698280e-01) (20, 4.05653526009857157142e-01) (21, 3.72601508886425625278e-01) (22, -3.42337669771730357393e-01) (23, -1.07944528056033911545e-01) (24, 7.51391709229723980812e-01) (25, -1.35967216006003560613e-01) (26, -2.51803074210038245473e-02) (27, 3.39363244296848276527e-01) (28, -3.78944262543278509447e-01) (29, -1.18779134637613512093e-01) (30, 9.32816667358014495193e-01) (31, -1.47948027979304536084e-02) (32, -4.76024036186888446776e-02) (33, 2.78201082410223898833e-01) (34, 9.56241493292587896313e-01) (35, -4.92008526067741341903e-02) (36, -3.94688784790487356968e-01) (37, -2.48855367262955096130e-01) (38, -2.64151097830926773202e-01) (39, -2.67301938444728937050e-01) (40, 9.35941451992689521511e-01) (41, 4.16814443750132490596e-01) (42, 3.55125611570160593100e-01) (43, 4.51564168852055691783e-01) (44, -4.20922828442796104209e-01) (45, 1.93222535235593601000e-01) (46, -4.26259290572090221438e-01) (47, 9.58423034942465168484e-01) (48, 4.24232223951865328182e-02) (49, -1.26373177899022054449e-01) (50, 1.08974448345899643797e+00) (51, -2.49719807801265875069e-01) (52, 4.13795624794303873450e-01) (53, -2.79052660137673769203e-01) (54, -3.87648082717247099982e-01) (55, 1.06598976214354901337e+00) (56, 2.91422508824245918291e-01) (57, -3.19557289517409304214e-01) (58, -3.77189638972635354897e-01) (59, 4.09405708105175625278e-01) (60, 2.93615801215441785121e-01) (61, -1.07253817193699182986e-01) (62, 2.80232381941615926735e-01) (63, -1.08738939529174793996e-01) (64, -4.28336598646482047403e-01) (65, 1.35829395644362499462e-02) (66, 3.22065091434967087913e-01) (67, -3.06662381882305212777e-01) (68, -9.91953533237081130913e-01) (8, -8.95650387156549376844e-02) (9, -1.21747814428025583067e-01) (10, 1.12064575321210835313e+00) (11, 2.67049512791555665459e+00) (12, 9.72524618128632667435e-01) (13, 8.86316489662018036633e-01) (14, 9.31807421365614341191e-01) (15, 9.48919056482183664869e-01) (16, 5.04918908789448117602e-01) (17, 1.81081285881824505246e+00) (18, 1.75727281528539669431e+00) (19, -5.04155287841164603813e-02) (20, 3.27361537232692123567e-01) (21, -1.18661549071644736864e-01) (22, -3.18675977694150180941e-01) (23, 1.81255192744051307763e+00) (24, 2.08172115581566696818e+00) (25, 9.76885467623257008896e-01) (26, 9.31254287084448018064e-01) (27, -1.53431166272574720510e-01) (28, -2.34378482418158479161e-01) (29, 9.49945132933249891671e-01) (30, 2.05872502251879163637e+00) (31, 1.68078141216052490137e+00) (32, 9.63716035832858475274e-01) (33, -3.74172024835440347745e-02) (34, 1.86456335117964466797e+00) (35, 8.87507463133259899557e-01) (36, -2.09042416386690438346e-01) (37, -9.07147211768997152603e-02) (38, -1.45940611096860267670e-01) (39, -1.97243206438955737125e-01) (40, 9.19977362581253621521e-01) (41, -5.42800636612573383921e-01) (42, 3.31420257480967539454e-01) (43, 3.58778545051600228355e-01) (44, -3.05855256145753762187e-01) (45, 1.15797349407848160219e+00) (46, -2.12208974142458317580e-01) (47, 9.77655160379696464013e-01) (48, 9.10260098825941832423e-01) (49, 9.85902466898339713275e-01) (50, 3.53605715007038012843e+00) (51, -1.70291174344827211939e-01) (52, 4.69799285843665648255e-01) (53, -1.56516884344486378877e-01) (54, -1.89460109810909743677e-01) (55, 9.29304231426792970439e-01) (56, 3.61790116741879774764e-01) (57, -3.35830817376752577275e-01) (58, -1.37740031120714506718e-01) (59, 4.60429572877268045161e-01) (60, -1.30124117172160741474e-01) (61, 9.75958278857606331691e-01) (62, 3.98170019867618130149e-01) (63, 1.04066320610562557114e+00) (64, -2.78019823263589871409e-01) (65, 1.67722478198324531640e+00) (66, 3.38114583374191812748e-01) (67, -6.98354092993799524525e-02) (68, -2.09475430322522901405e-02) (8, -2.31679685287978831543e-01) (9, 7.88873985509102454428e-02) (10, 1.09563671833736298034e+00) (11, 2.59131670615597498042e+00) (12, 1.15198403493962198141e+00) (13, 6.17450741681642378822e-01) (14, 9.98503956641289325269e-01) (15, 7.77502548591195941086e-01) (16, 1.62697812716310202807e-01) (17, 7.23244762882828129413e-01) (18, 8.12246642093588433475e-01) (19, -2.25136704617050847910e-01) (20, 1.63805575229827651840e-02) (21, 1.42405490676237173053e-01) (22, -1.87527165345309443367e-01) (23, 8.92464906184160300384e-01) (24, 2.60432392636461385038e+00) (25, 4.60554940928329048511e-01) (26, 6.13688391147012568538e-01) (27, 8.50305838387671875100e-02) (28, -3.50587908858772390186e-01) (29, 5.78559481495141469942e-01) (30, 2.21232909188539084155e+00) (31, 9.14546131770479275858e-01) (32, 6.17549297855724987905e-01) (33, 2.41440246319301714262e-02) (34, 1.90803354928492341358e+00) (35, 4.78029807648725102442e-01) (36, -2.21907268711192456889e-01) (37, -6.48001974975397909695e-01) (38, -2.72415092847628326211e-01) (39, -3.20784907662176876908e-01) (40, 8.91790623555671846390e-01) (41, 7.29357289336168002070e-02) (42, 4.86032790894627142464e-02) (43, 7.18358918753720793182e-02) (44, -2.54817579820209749730e-01) (45, 1.33801374169345610454e+00) (46, -3.35951891622292220241e-01) (47, 8.99394372837841071799e-01) (48, 5.84873640975159925226e-01) (49, 4.47722630261762177817e-01) (50, 2.16595270780638005093e+00) (51, -7.90188873943725500482e-01) (52, 2.13937565390603878779e-01) (53, -3.04439404594671281234e-01) (54, -3.39431151621842175370e-01) (55, 1.05762077708207580251e+00) (56, 3.62111476421717315421e-02) (57, -2.99072899034799055684e-01) (58, -2.16262198858767934473e-01) (59, 6.84198692540353148317e-02) (60, 1.23971343116140178542e-01) (61, 8.73242033496190561692e-01) (62, 1.18869581791504724810e-01) (63, 7.83690822918035046030e-01) (64, -2.62294222510634555956e-01) (65, 8.51858213750803061615e-01) (66, 8.93880679613205664236e-02) (67, -2.86397695415520459061e-01) (68, -1.46500320413989887358e-02) (8, 1.25440845912872411816e+00) (9, 9.05418004807731602313e-01) (10, 2.58043738286396796833e-02) (11, 5.34520997429649202815e-01) (12, -9.47124781700900281178e-02) (13, 3.84445155322849452251e-01) (14, -1.27303222275332861280e-01) (15, 3.87481674225190864114e-01) (16, 5.38612437280493572267e-01) (17, 6.22083838827802382276e-01) (18, 5.51908721896342213675e-01) (19, 1.26170405495609516677e+00) (20, 4.86960317418951849078e-01) (21, 8.02830991413947980817e-01) (22, 1.22498694031608978960e+00) (23, 3.94984099545649947061e-01) (24, -3.05145764035377908829e-01) (25, 5.01505607697299238268e-01) (26, 4.00766144657145467756e-02) (27, 8.93938010203415123200e-01) (28, 1.29786033091974384313e+00) (29, 8.22897779354690217524e-01) (30, -3.37319277939082812212e-02) (31, 5.12808412196431806507e-01) (32, 5.49705855603295101552e-01) (33, 7.48206074476844174015e-01) (34, -2.39395004559781021669e-01) (35, 4.56332649395839173856e-01) (36, 