FANN_FLO_2.1
num_layers=6
learning_rate=0.010000
connection_rate=1.000000
network_type=0
learning_momentum=0.000000
training_algorithm=2
train_error_function=1
train_stop_function=0
cascade_output_change_fraction=0.010000
quickprop_decay=-0.000100
quickprop_mu=1.750000
rprop_increase_factor=1.200000
rprop_decrease_factor=0.500000
rprop_delta_min=0.000000
rprop_delta_max=50.000000
rprop_delta_zero=0.100000
cascade_output_stagnation_epochs=12
cascade_candidate_change_fraction=0.010000
cascade_candidate_stagnation_epochs=12
cascade_max_out_epochs=150
cascade_min_out_epochs=50
cascade_max_cand_epochs=150
cascade_min_cand_epochs=50
cascade_num_candidate_groups=2
bit_fail_limit=3.49999999999999977796e-01
cascade_candidate_limit=1.00000000000000000000e+03
cascade_weight_multiplier=4.00000000000000022204e-01
cascade_activation_functions_count=10
cascade_activation_functions=3 5 7 8 10 11 14 15 16 17 
cascade_activation_steepnesses_count=4
cascade_activation_steepnesses=2.50000000000000000000e-01 5.00000000000000000000e-01 7.50000000000000000000e-01 1.00000000000000000000e+00 
layer_sizes=8 71 51 21 6 2 
scale_included=0
neurons (num_inputs, activation_function, activation_steepness)=(0, 0, 0.00000000000000000000e+00) (0, 0, 0.00000000000000000000e+00) (0, 0, 0.00000000000000000000e+00) (0, 0, 0.00000000000000000000e+00) (0, 0, 0.00000000000000000000e+00) (0, 0, 0.00000000000000000000e+00) (0, 0, 0.00000000000000000000e+00) (0, 0, 0.00000000000000000000e+00) (8, 5, 1.00000000000000000000e+00) (8, 5, 1.00000000000000000000e+00) (8, 5, 1.00000000000000000000e+00) (8, 5, 1.00000000000000000000e+00) (8, 5, 1.00000000000000000000e+00) (8, 5, 1.00000000000000000000e+00) (8, 5, 1.00000000000000000000e+00) (8, 5, 1.00000000000000000000e+00) (8, 5, 1.00000000000000000000e+00) (8, 5, 1.00000000000000000000e+00) (8, 5, 1.00000000000000000000e+00) (8, 5, 1.00000000000000000000e+00) (8, 5, 1.00000000000000000000e+00) (8, 5, 1.00000000000000000000e+00) (8, 5, 1.00000000000000000000e+00) (8, 5, 1.00000000000000000000e+00) (8, 5, 1.00000000000000000000e+00) (8, 5, 1.00000000000000000000e+00) (8, 5, 1.00000000000000000000e+00) (8, 5, 1.00000000000000000000e+00) (8, 5, 1.00000000000000000000e+00) (8, 5, 1.00000000000000000000e+00) (8, 5, 1.00000000000000000000e+00) (8, 5, 1.00000000000000000000e+00) (8, 5, 1.00000000000000000000e+00) (8, 5, 1.00000000000000000000e+00) (8, 5, 1.00000000000000000000e+00) (8, 5, 1.00000000000000000000e+00) (8, 5, 1.00000000000000000000e+00) (8, 5, 1.00000000000000000000e+00) (8, 5, 1.00000000000000000000e+00) (8, 5, 1.00000000000000000000e+00) (8, 5, 1.00000000000000000000e+00) (8, 5, 1.00000000000000000000e+00) (8, 5, 1.00000000000000000000e+00) (8, 5, 1.00000000000000000000e+00) (8, 5, 1.00000000000000000000e+00) (8, 5, 1.00000000000000000000e+00) (8, 5, 1.00000000000000000000e+00) (8, 5, 1.00000000000000000000e+00) (8, 5, 1.00000000000000000000e+00) (8, 5, 1.00000000000000000000e+00) (8, 5, 1.00000000000000000000e+00) (8, 5, 1.00000000000000000000e+00) (8, 5, 1.00000000000000000000e+00) (8, 5, 1.00000000000000000000e+00) (8, 5, 1.00000000000000000000e+00) (8, 5, 1.00000000000000000000e+00) (8, 5, 1.00000000000000000000e+00) (8, 5, 1.00000000000000000000e+00) (8, 5, 1.00000000000000000000e+00) (8, 5, 1.00000000000000000000e+00) (8, 5, 1.00000000000000000000e+00) (8, 5, 1.00000000000000000000e+00) (8, 5, 1.00000000000000000000e+00) (8, 5, 1.00000000000000000000e+00) (8, 5, 1.00000000000000000000e+00) (8, 5, 1.00000000000000000000e+00) (8, 5, 1.00000000000000000000e+00) (8, 5, 1.00000000000000000000e+00) (8, 5, 1.00000000000000000000e+00) (8, 5, 1.00000000000000000000e+00) (8, 5, 1.00000000000000000000e+00) (8, 5, 1.00000000000000000000e+00) (8, 5, 1.00000000000000000000e+00) (8, 5, 1.00000000000000000000e+00) (8, 5, 1.00000000000000000000e+00) (8, 5, 1.00000000000000000000e+00) (8, 5, 1.00000000000000000000e+00) (8, 5, 1.00000000000000000000e+00) (0, 5, 1.00000000000000000000e+00) (71, 5, 1.00000000000000000000e+00) (71, 5, 1.00000000000000000000e+00) (71, 5, 1.00000000000000000000e+00) (71, 5, 1.00000000000000000000e+00) (71, 5, 1.00000000000000000000e+00) (71, 5, 1.00000000000000000000e+00) (71, 5, 1.00000000000000000000e+00) (71, 5, 1.00000000000000000000e+00) (71, 5, 1.00000000000000000000e+00) (71, 5, 1.00000000000000000000e+00) (71, 5, 1.00000000000000000000e+00) (71, 5, 1.00000000000000000000e+00) (71, 5, 1.00000000000000000000e+00) (71, 5, 1.00000000000000000000e+00) (71, 5, 1.00000000000000000000e+00) (71, 5, 1.00000000000000000000e+00) (71, 5, 1.00000000000000000000e+00) (71, 5, 1.00000000000000000000e+00) (71, 5, 1.00000000000000000000e+00) (71, 5, 1.00000000000000000000e+00) (71, 5, 1.00000000000000000000e+00) (71, 5, 1.00000000000000000000e+00) (71, 5, 1.00000000000000000000e+00) (71, 5, 1.00000000000000000000e+00) (71, 5, 1.00000000000000000000e+00) (71, 5, 1.00000000000000000000e+00) (71, 5, 1.00000000000000000000e+00) (71, 5, 1.00000000000000000000e+00) (71, 5, 1.00000000000000000000e+00) (71, 5, 1.00000000000000000000e+00) (71, 5, 1.00000000000000000000e+00) (71, 5, 1.00000000000000000000e+00) (71, 5, 1.00000000000000000000e+00) (71, 5, 1.00000000000000000000e+00) (71, 5, 1.00000000000000000000e+00) (71, 5, 1.00000000000000000000e+00) (71, 5, 1.00000000000000000000e+00) (71, 5, 1.00000000000000000000e+00) (71, 5, 1.00000000000000000000e+00) (71, 5, 1.00000000000000000000e+00) (71, 5, 1.00000000000000000000e+00) (71, 5, 1.00000000000000000000e+00) (71, 5, 1.00000000000000000000e+00) (71, 5, 1.00000000000000000000e+00) (71, 5, 1.00000000000000000000e+00) (71, 5, 1.00000000000000000000e+00) (71, 5, 1.00000000000000000000e+00) (71, 5, 1.00000000000000000000e+00) (71, 5, 1.00000000000000000000e+00) (71, 5, 1.00000000000000000000e+00) (0, 5, 1.00000000000000000000e+00) (51, 5, 1.00000000000000000000e+00) (51, 5, 1.00000000000000000000e+00) (51, 5, 1.00000000000000000000e+00) (51, 5, 1.00000000000000000000e+00) (51, 5, 1.00000000000000000000e+00) (51, 5, 1.00000000000000000000e+00) (51, 5, 1.00000000000000000000e+00) (51, 5, 1.00000000000000000000e+00) (51, 5, 1.00000000000000000000e+00) (51, 5, 1.00000000000000000000e+00) (51, 5, 1.00000000000000000000e+00) (51, 5, 1.00000000000000000000e+00) (51, 5, 1.00000000000000000000e+00) (51, 5, 1.00000000000000000000e+00) (51, 5, 1.00000000000000000000e+00) (51, 5, 1.00000000000000000000e+00) (51, 5, 1.00000000000000000000e+00) (51, 5, 1.00000000000000000000e+00) (51, 5, 1.00000000000000000000e+00) (51, 5, 1.00000000000000000000e+00) (0, 5, 1.00000000000000000000e+00) (21, 5, 1.00000000000000000000e+00) (21, 5, 1.00000000000000000000e+00) (21, 5, 1.00000000000000000000e+00) (21, 5, 1.00000000000000000000e+00) (21, 5, 1.00000000000000000000e+00) (0, 5, 1.00000000000000000000e+00) (6, 5, 1.00000000000000000000e+00) (0, 5, 1.00000000000000000000e+00) 
connections (connected_to_neuron, weight)=(0, 1.45435892600619109949e+00) (1, 7.60954800576115530930e-01) (2, 8.32602405991521798967e-01) (3, 7.45990555991952852821e-01) (4, 5.74551723189222318666e-01) (5, 5.43665825020421822344e-01) (6, 6.46611470414467204293e-01) (7, 2.89598595491504851029e-01) (0, 1.82057166851083362946e-01) (1, 9.22467519359830012693e-02) (2, 1.55926727517730873140e-01) (3, 1.61241550522024074121e-01) (4, 3.92127266611160374410e-01) (5, 2.29139182669400920389e-01) (6, 3.89955635679691214879e-01) (7, 2.03761839302635638926e-01) (0, -6.69686614649956601930e-01) (1, -6.07156408455687301995e-01) (2, -4.51231830162795333194e-01) (3, -4.30425326530061269636e-01) (4, -3.04959407848301666810e-01) (5, 1.76105853106934356900e-01) (6, 5.70901258557838103824e-02) (7, 1.19994544008709860816e-01) (0, -3.22012033326874735906e+00) (1, -1.40707715739404348732e+00) (2, -5.33096432980001200264e-01) (3, 1.81173557886099706460e-01) (4, 8.86662452373513598758e-01) (5, -6.40633488754345642446e-02) (6, -2.35383965201915235088e-01) (7, 2.63001449145190080436e-01) (0, 3.12452504814652787246e+00) (1, 1.07909095359520401658e+00) (2, -8.55224237412759769050e-01) (3, -2.37779968522935947206e+00) (4, 6.91877275276035041962e-01) (5, 3.90937902617287003082e-01) (6, 3.64768546935620552318e-01) (7, 2.20619476710729151003e-01) (0, 6.95569581284298937840e-02) (1, -6.14679495716077134437e-02) (2, 5.18445956228190604764e-02) (3, -2.49014820635913673719e-02) (4, -2.12182692025370163436e-02) (5, -3.02773817876843993890e-02) (6, 2.76342686788340376192e-02) (7, 5.31509083425060979700e-01) (0, 8.30908903742430759998e-01) (1, 8.25723455548925455716e-01) (2, 7.91984630992792815185e-01) (3, 8.05941095708797905495e-01) (4, 4.57290843519129519557e-01) (5, 5.08047303740054356780e-01) (6, 6.36590774876909848423e-01) (7, 2.98749549301712880034e-01) (0, -3.53263647614074416392e-01) (1, -6.25368084460409368042e-01) (2, -2.16914324043324979741e+00) (3, 8.52456453523769003278e-02) (4, 2.19469883757359651710e-01) (5, -2.77300826773235931100e+00) (6, -6.62002630792873469900e-01) (7, 1.18095160569496482328e-01) (0, 5.20918213734199553322e-01) (1, 4.81591353033782365589e-01) (2, 3.98216490199737593869e-01) (3, 3.86088350051233042404e-01) (4, 4.15753100556442101166e-01) (5, 3.27943012042863968336e-01) (6, 1.11202048438824654952e-01) (7, 6.62265484644357527166e-01) (0, 1.67385812563861813285e-01) (1, 3.23631806599527060975e-01) (2, 2.80587172589688904623e-01) (3, 2.18963619562321243350e-01) (4, 2.90900706252331664459e-01) (5, 1.86459674030005378986e-01) (6, 1.30226090033165792237e-01) (7, 5.54036984852817382396e-01) (0, 1.49442681764582219195e+00) (1, 8.22763421571928055265e-01) (2, 7.88442970613074223252e-01) (3, 7.00768418961455807903e-01) (4, 4.50595504580961703223e-01) (5, 5.00976184831482651560e-01) (6, 5.19057881701836310029e-01) (7, 3.47393205918226199991e-01) (0, 4.69655287951029343230e-02) (1, 8.69612647804066801749e-02) (2, -1.97728943508219991154e-02) (3, -3.76838371812934710969e-02) (4, -1.07262536285229082011e-01) (5, 8.45244229517483208758e-02) (6, 4.23254439099876034192e-02) (7, 9.77746244609498327272e-01) (0, 8.15549860530890291521e-01) (1, 6.67726665771398719684e-01) (2, 6.04767885623932244243e-01) (3, 6.35143259853432340378e-01) (4, 4.98711171498948113712e-01) (5, 6.21195660249230785510e-01) (6, 5.20672892275397591888e-01) (7, 9.18249655287307287033e-01) (0, -1.94768177501468331414e+00) (1, -1.39592234927397718103e+00) (2, -4.33965102725261897554e-01) (3, 5.17681215308992581647e-01) (4, 8.07101532109766761636e-01) (5, -2.19668289319489146161e-02) (6, -1.87848403951193704264e-01) (7, 2.30712039320817574595e-01) (0, 6.14064527243174257398e-02) (1, 8.39582440450744454941e-03) (2, -7.65068902784541426954e-02) (3, -2.73017585932848264041e-02) (4, 1.50605110017593361166e-02) (5, 1.73963325164319462801e-02) (6, 3.01823068048021093956e-02) (7, 5.61799535912252290260e-01) (0, 5.61024887054957094312e-02) (1, -6.32966043998797328607e-02) (2, -8.13483510335047815820e-02) (3, 7.91008397281518227384e-02) (4, 8.42072484580799335285e-02) (5, 6.51338642674040616508e-04) (6, -1.23977059446166743006e-01) (7, 1.02386854375066671530e+00) (0, 4.49059171716593130697e+00) (1, 8.26992583612966347673e-01) (2, 3.47979158565734525421e-01) (3, 4.06883418452918754760e-01) (4, 3.68342041208921289197e+00) (5, 7.14586474825738893202e-01) (6, 4.88041594253851129803e-01) (7, 3.16706279644320687350e-01) (0, 3.54445163786503092407e-01) (1, 4.84306044619637277027e-01) (2, 4.97505973540374957231e-01) (3, 4.91118743508618393889e-01) (4, 3.36824846476856176736e-01) (5, 2.14993640680538833365e-01) (6, 1.65413971567131168339e-01) (7, 6.55429172946312199599e-01) (0, 3.47326785051855144171e-02) (1, -1.02492850450725828115e-01) (2, 5.94114272389297606858e-02) (3, 6.53129889905812027751e-02) (4, 8.05080560102333642192e-02) (5, 2.84777775710824930522e-02) (6, 4.49772227193382598265e-02) (7, 9.94135809496354938553e-01) (0, -3.04508781742713480201e-03) (1, 3.76076318844612220160e-02) (2, -2.87339977407571403600e-02) (3, 6.92558660447951945915e-02) (4, 2.19692465915560380951e-02) (5, 1.71873619961087145680e-02) (6, 1.01965287192906858826e-02) (7, 1.08096298315331718065e+00) (0, 1.43769267597839056627e+00) (1, 9.90150431937870112442e-01) (2, 7.35948341707561848324e-01) (3, 4.82414555064208827595e-01) (4, -7.45803859239507538348e-01) (5, -1.24993575903298981267e+00) (6, -9.71401401431992828073e-01) (7, -6.14458757990237330882e-02) (0, -7.48840181782768898877e-01) (1, -5.65673429745669142932e-01) (2, -4.58637197017683850842e-01) (3, -4.08372239658823188435e-01) (4, -3.09167341959622754555e-01) (5, 1.15089582800946624297e-01) (6, 1.84584227582335114182e-01) (7, 1.28782719400330480930e-01) (0, -4.10802367650249411479e-01) (1, -3.57326144153683911142e-01) (2, -5.64882485175045689907e-01) (3, -2.69178045145717304010e-01) (4, -1.99739302139437552297e-01) (5, -2.74997833291189597293e-01) (6, -8.98040607066865614883e-02) (7, 1.52060950365376451598e-01) (0, 3.57951742576741283042e-01) (1, 5.06799027318249550866e-01) (2, 3.47062270453004917403e-01) (3, 4.47608538590519799971e-01) (4, 4.95736704402075400999e-01) (5, 4.41824826187486308093e-01) (6, 1.83432512941142551732e-02) (7, 6.47540213555488075592e-01) (0, -5.20372986597152642485e-02) (1, 1.74460085188414965041e-02) (2, -1.03380788630642941883e-01) (3, 5.55212802159721699469e-02) (4, 4.26019193083994468507e-02) (5, 6.13228168680423277315e-02) (6, -1.24065601883243309400e-01) (7, 9.79289945331170419429e-01) (0, 1.42628941352161947576e-01) (1, 3.00364629313003450584e-01) (2, 1.13932454290884319081e-01) (3, 1.71874651028597169589e-01) (4, 2.19023523176051698735e-01) (5, 3.00939161481144468180e-01) (6, 1.67936386547071714315e-01) (7, 2.03130717723743831060e-01) (0, 4.18850458011921167323e-01) (1, 3.97847682257662593752e-01) (2, 3.86786933365135199292e-01) (3, 4.87237562356111153505e-01) (4, 5.02811716632050820230e-01) (5, 3.32505912399887193498e-01) (6, 2.77442532844444991746e-02) (7, 6.32536668115958211622e-01) (0, 1.42446022864310212208e-01) (1, 8.37057747059703621817e-02) (2, 8.13588198710345350539e-02) (3, 3.67632205372303899615e-01) (4, 3.12348990668690262851e-01) (5, 3.27519335169863423651e-01) (6, 3.56104319517389578120e-01) (7, 3.23693053930892538084e-01) (0, 8.65044115679968306232e-01) (1, 6.00879870248674841093e-01) (2, 6.30876030104563834122e-01) (3, 4.81533481329696810835e-01) (4, 5.60780285445223847240e-01) (5, 5.34254157063132062433e-01) (6, 5.25032232334804893625e-01) (7, 9.08725782667202275356e-01) (0, -5.37363769918884348620e-02) (1, 7.89043866143032818217e-02) (2, 5.42921113489085310766e-02) (3, -5.69531328078500334589e-03) (4, -3.95277746408642313702e-02) (5, -3.52601357908429238752e-02) (6, 1.78264442059610991875e-03) (7, 5.61709553255010485273e-01) (0, -7.73524368275179008414e-01) (1, -5.47182480110689817288e-01) (2, -5.01018042222829529386e-01) (3, -6.08641490311935595692e-01) (4, -1.43106799782410004651e-01) (5, 5.71022700967455370397e-03) (6, 4.44110936014737833766e-01) (7, 1.05770145596953288325e-01) (0, -7.15184426238146930821e-01) (1, -6.56029072403373381128e-01) (2, -6.33759030094569908442e-01) (3, -2.06390315569657784023e-01) (4, -2.77197236693699333721e-01) (5, 4.58241703089186880327e-01) (6, -2.18644625620880300731e-01) (7, 1.41432685708249183953e-01) (0, -6.30945695700517172888e-01) (1, -5.43633939534668209070e-01) (2, -3.58901470239669229123e-01) (3, -3.85854138423260994983e-01) (4, -2.56286525785740681993e-01) (5, 3.70892116055659692986e-01) (6, 6.58240090595656246464e-01) (7, 1.20618437526505167812e-01) (0, -3.06208709480739693642e-01) (1, -3.42244254759779709119e-01) (2, -2.11697664106469174428e-01) (3, -1.63532624151341510199e-01) (4, -2.28951483458173288277e-01) (5, -2.18510343402549656044e-01) (6, -1.13805435061711146538e-01) (7, 1.41369975422688476385e-01) (0, 1.64701090822544499170e-01) (1, 2.36510155929209153758e-01) (2, 2.84736035833935530182e-01) (3, 2.63319122634090962976e-01) (4, 1.89399762061429194349e-01) (5, -6.83056318113222857291e-03) (6, 2.64545017387283476484e-01) (7, 6.15374551222024668284e-01) (0, -3.33055233891349056208e+00) (1, -1.28366353242425490500e+00) (2, 6.45466955717937773684e-01) (3, 4.82032555318571032110e-01) (4, 8.49924357610148506481e-01) (5, 7.43772768790327276633e-02) (6, 3.74753695300621414432e-02) (7, 2.51283466408122324598e-01) (0, -2.69932058869402480283e+00) (1, -1.37117776251492928807e+00) (2, -3.53025218302285892502e-01) (3, 5.10074611045451042912e-01) (4, 8.74495169064939958936e-01) (5, -4.48427892450670301239e-02) (6, -2.18726047202683127058e-01) (7, 2.44425995485935992901e-01) (0, 1.56383475004336891523e+00) (1, 9.79025399080996949763e-01) (2, 1.09548548129158374032e+00) (3, 6.30533439013955976371e-01) (4, -3.05133004471842550487e+00) (5, 5.37448067683218497215e-03) (6, -7.45647220376900010663e-01) (7, -7.09318422611053822635e-02) (0, 1.21059226576361103622e-01) (1, 1.00265372769337127168e-01) (2, 1.60572060383727149846e-01) (3, 2.07387564291455273047e-01) (4, 1.66828274307823737344e-01) (5, 2.91465840188828262391e-01) (6, 3.03673845371650819036e-01) (7, 2.32052856377315097625e-01) (0, 2.28667601602475834000e+00) (1, 1.50064199348814986124e+00) (2, 9.02503236128776253899e-01) (3, -2.63139186818147674529e+00) (4, -1.39280808164725455889e+00) (5, -2.17313373806094944918e-01) (6, 3.56042785983707754660e-01) (7, 1.99339052898462626429e-01) (0, 1.89464863494276762601e-02) (1, -1.01609172022024865645e-01) (2, -1.00288695439686839639e-01) (3, -3.64358490754848815540e-02) (4, -2.27628102152597176777e-02) (5, 5.51083233743639711033e-02) (6, 3.22393324483476947928e-02) (7, 9.78675083651997845813e-01) (0, -2.24828256362641885902e-02) (1, 1.22802355061171659945e-02) (2, -5.67958447479941577751e-02) (3, -6.31105910909000172859e-02) (4, -6.41183505475185488987e-02) (5, 1.77602454720221999973e-02) (6, 2.17236172526366275171e-03) (7, 4.03776316598750337206e-02) (0, 4.89565085398753041535e-01) (1, 4.18208944008751637433e-01) (2, 3.48201996621494314077e-01) (3, 4.05477949688415550966e-01) (4, 2.29100949927607738799e-01) (5, 2.89342872789244309750e-01) (6, 3.05370203530574424455e-01) (7, 9.46743576418923149518e-01) (0, -7.60266111237978409187e-02) (1, -3.30174592490437845971e-02) (2, 3.33848649018040621872e-02) (3, 8.18522540358808392558e-03) (4, -7.48246644530554533281e-02) (5, 6.66255643578497341872e-02) (6, -5.21184538711654682386e-03) (7, 9.69661313892628995426e-01) (0, 1.39646596698645458767e-01) (1, 1.37596101239532420113e-01) (2, 2.86934838267617731145e-01) (3, 1.68205237433389914736e-01) (4, 2.64655833308566124096e-01) (5, 2.44626181471639947418e-01) (6, 2.72638821000153575014e-01) (7, -2.41562098718586332202e-01) (0, -1.85661367353952577730e+00) (1, -1.30855956942807138965e+00) (2, -4.87481984899656606292e-01) (3, 3.59051520702609261448e-01) (4, 9.39547283995530557732e-01) (5, 1.98559299176947340326e-03) (6, -2.61436868990195081519e-01) (7, 2.35730079642919337912e-01) (0, 1.43805335272132767122e-01) (1, 1.29154162406568989718e-01) (2, 2.27304532178966789413e-01) (3, 2.89730601999703574201e-01) (4, 1.47911259984516874066e-01) (5, 2.27112284171435557800e-01) (6, 2.24776133971582831039e-01) (7, 2.08886918136453603179e-01) (0, 9.69047223782374267387e+00) (1, 8.07390434142101209858e-01) (2, 7.40984073734544557155e-01) (3, 1.34269886186548725870e-01) (4, 1.29883127499342710537e-02) (5, 3.75352029468947800961e-01) (6, 5.07162625106687303678e-01) (7, 3.58718609429392543131e-01) (0, 7.26258385568714220915e-02) (1, 2.13553507713593965223e-01) (2, 1.05644973582832396586e-01) (3, 1.00390035282907824632e-01) (4, 3.41719201282417561760e-01) (5, 3.69443931105640277490e-01) (6, 3.85556139454112711817e-01) (7, 2.08968747133420451600e-01) (0, -7.63438987670600810453e-01) (1, -6.12205917991713421955e-01) (2, -6.27926773462566312212e-01) (3, -4.81911498452143871596e-01) (4, -2.81829970417248998338e-01) (5, 9.57464456602256513973e-02) (6, 1.49657262587851114244e-01) (7, 1.36580648094603046561e-01) (0, 3.98564445840304149016e-01) (1, 4.04895380288640693855e-01) (2, 5.02035017649763770642e-01) (3, 4.31074695367558491377e-01) (4, 3.61052739551152579445e-01) (5, 3.72377505053203383678e-01) (6, 1.58101841566561290842e-01) (7, 6.95512014318395044299e-01) (0, 1.77133675367665305300e-01) (1, 2.18994578315133914259e-01) (2, 2.74064879761732549390e-01) (3, 1.21397015272584174461e-01) (4, 1.95798976416190678718e-01) (5, 3.19896039340881843671e-01) (6, 1.58517784408564094134e-01) (7, 1.97542702536115388767e-01) (0, 1.99346046185981479182e-01) (1, 1.50210808692736036418e-01) (2, 9.21553895476976969725e-02) (3, 3.73155501169090186853e-01) (4, 2.11704506976389317252e-01) (5, 2.41591801086805696430e-01) (6, 3.77900130122624910989e-01) (7, 1.43629046973467261461e-01) (0, -1.20846468934903375492e-01) (1, -6.34520327645733545063e-02) (2, 4.80199545372531691467e-02) (3, -6.30680458518673436874e-02) (4, 2.47536912287693519619e-02) (5, 4.00635508132586998231e-02) (6, 1.91777418932956467135e-01) (7, -9.95072507638074428560e-03) (0, 3.18055813484397154056e+00) (1, 7.96149535467027269497e-01) (2, 7.82427278082101440582e-01) (3, 7.59956140690558057393e-01) (4, 6.99433105459578041696e-01) (5, 3.13011998753718045929e-01) (6, 5.04079824234735185406e-01) (7, 2.33695752826304004035e-01) (0, -3.30469341352801571077e+00) (1, -1.44060304426160268321e+00) (2, -4.23428592242058587924e-01) (3, 1.33495360945645347162e-01) (4, 8.29715156803658260287e-01) (5, -4.09660741806730423903e-03) (6, 1.28957746404383649663e-01) (7, 2.79232547874253445030e-01) (0, 4.76087099804660754399e-02) (1, 3.68684285979087381091e-02) (2, -3.77244961740559395236e-02) (3, -5.05423497141000016564e-02) (4, 3.62303939121321654307e-03) (5, 5.83201389622660243406e-02) (6, -1.30259662212798860148e-01) (7, 5.75388541596177693904e-01) (0, -3.29965270792110132447e-01) (1, -3.25907066941504452995e-01) (2, -1.33053616843964883643e-01) (3, -2.95428425141055939207e-01) (4, -1.92686126408104368979e-01) (5, -2.33398245639527129880e-01) (6, -8.50537530306839650862e-02) (7, 1.31768723847676377803e-01) (0, 1.17128464428458891472e-02) (1, 6.92408753463670673112e-02) (2, -9.47272543032725150569e-02) (3, -6.61084062453501895840e-03) (4, 2.75116828767590151927e-02) (5, -1.42943849224818151505e-02) (6, 4.84289595349877283192e-02) (7, 9.81603600697087963489e-01) (0, -5.90778554315826709420e-01) (1, 2.10182683061017117065e-01) (2, -1.12148495610187801932e-04) (3, -1.97398455110118324629e-02) (4, -3.51685680951745183176e-02) (5, 4.64863859965515754946e-02) (6, -7.68278906196936811623e-02) (7, -1.91407170836751009367e-03) (0, -3.56504092979134379338e-01) (1, -1.02272359404726245757e-01) (2, 8.38273579949449024196e-03) (3, 7.07462520891064539086e-02) (4, 5.24978905981274765469e-02) (5, 3.04537750326516865051e-01) (6, 2.01713165078716893941e-01) (7, 6.69789832206261204206e-02) (0, -2.14810706869591561130e+00) (1, -1.34668148796666087286e+00) (2, -1.42816506104252605169e+00) (3, 4.59759049536509978306e-01) (4, 8.92614491922034347660e-01) (5, -1.63250978834057966504e-02) (6, 1.77446681656719951192e-01) (7, 2.38562300307923080833e-01) (0, -9.23602404013430938745e-02) (1, 1.93753354949136175067e-02) (2, 2.89674140777813511616e-02) (3, -8.95935537009345389636e-02) (4, 8.15533183571888892205e-02) (5, 3.60151327515155234710e-03) (6, 1.24181302802199786117e-01) (7, -2.01220316090714411439e-02) (0, -7.97300538367428313080e-01) (1, -6.04689897094127903898e-01) (2, -5.73275070248888574120e-01) (3, -5.32804779307472831107e-01) (4, -3.45587816706154349333e-01) (5, 6.88728922350015926312e-02) (6, 2.89799901185983754814e-01) (7, 1.38687907356821321647e-01) (0, 4.69059613717744752770e-02) (1, -6.68940745639042266824e-02) (2, -9.13932503231478093886e-02) (3, -1.31440440625821108878e-01) (4, -5.64934533472124210396e-03) (5, 9.29891438188360230921e-02) (6, -3.61932446138441415995e-02) (7, -7.21923030019563788384e-02) (0, 4.99343718930964852731e-01) (1, 3.91538703871776805343e-01) (2, 4.05778129956370747777e-01) (3, 4.05092535419395660679e-01) (4, 3.82169455516232270398e-01) (5, 2.43332362883054986735e-01) (6, 8.45158205258931399806e-02) (7, 6.73307136850803233941e-01) (0, -2.17877009962867324022e-01) (1, -2.97886176010092318389e-01) (2, -2.18686629952547811895e-01) (3, -2.35505989924466641039e-01) (4, -1.63462472566575894861e-01) (5, -8.04349721146434964991e-02) (6, 1.54568959426665775148e+00) (7, 7.04782683778733820557e-02) (0, -9.24594628388948680531e-01) (1, -5.11544513805346157120e-01) (2, -5.97939225348393610382e-01) (3, -3.67576993720381439701e-01) (4, -3.41909435689772611688e-01) (5, 2.15197856075581478441e-01) (6, 3.31996680723166459615e-01) (7, 6.89572871235996920358e-02) (0, -1.61400172084582083087e+00) (1, -1.31650664446325316170e+00) (2, -4.18043932912437909977e-01) (3, 5.72101455963312299779e-01) (4, 8.32911621928189571662e-01) (5, -7.34638724881996191263e-02) (6, -2.23036119636413981970e-01) (7, 2.27717342930810667800e-01) (0, 1.38546917669425662112e+00) (1, 7.67873766726842821306e-01) (2, 8.12824187492638849939e-01) (3, 6.40332150279272371840e-01) (4, 6.15631404559350503547e-01) (5, 5.13445878724665960569e-01) (6, 5.69620304025888368749e-01) (7, 3.07305938604029271755e-01) (8, -3.22299833070208673058e-03) (9, 2.93475479900098090713e-01) (10, 7.46593542928232545286e-01) (11, 5.32120951997094526753e-01) (12, 1.14327955518404994484e-02) (13, 1.23092172176497247071e-01) (14, -3.99837251827067918786e-02) (15, 6.76561898947381390457e-01) (16, 3.60504952155767111055e-01) (17, -1.71984789491462397582e-01) (18, -3.05074592880704813236e-02) (19, 1.84282014346344794054e-02) (20, 6.91114062187487832034e-02) (21, 5.15031793730042819490e-01) (22, 4.04989768614226197663e-02) (23, 1.26552955154806745508e-01) (24, -2.17183437737754753138e-01) (25, 2.44293506567472951119e-01) (26, 2.15285243685513077994e-02) (27, 9.95541167451852171411e-02) (28, 1.73745348954584488688e-01) (29, 8.62325721725413107954e-01) (30, 8.08374207931372712466e-01) (31, 3.42401957691678304752e-01) (32, 5.85610564370055292072e-02) (33, 3.09899013470350648269e-01) (34, 8.40699459276659649687e-02) (35, 2.66443434055446792819e-01) (36, -8.52063796915189693160e-03) (37, 2.79209756911176533445e-02) (38, 9.31339544849114409075e-01) (39, 8.04600734102453696295e-01) (40, 8.63081854390183700332e-01) (41, 2.62715903076110812719e-01) (42, -2.77165237798831995408e-02) (43, 4.49732582649071455094e-01) (44, 4.72705980862504815398e-01) (45, -5.44186673594522485331e+00) (46, 1.95911842302454980436e-01) (47, -3.71052808994240646001e+00) (48, -4.49850861411198038597e-02) (49, 5.22593708003002310747e-01) (50, -1.98195712294961773337e-01) (51, 6.32729749698538734837e-02) (52, 3.16421820840719125734e-01) (53, 3.95609699858640917469e-01) (54, 2.86743292299984742222e-01) (55, 1.37255273251752518693e-01) (56, 2.45481666878458293368e-01) (57, 6.96463153446894689402e-01) (58, 8.11138051795903952668e-02) (59, 2.37837443741022780408e-01) (60, 3.56897517700060173951e-01) (61, 3.99617536765139280686e-01) (62, -2.89676425622494793100e-01) (63, 3.76981444846151980688e-01) (64, 1.34082376041420509027e-01) (65, 8.52713955818277580256e-01) (66, 8.35373220974535146688e-02) (67, 5.41347784114867391914e-01) (68, 8.64598995378554890934e-01) (69, 4.21969300534686342363e-01) (70, 5.20493347038990528119e+00) (71, 8.50366489716415929756e-01) (72, 9.24451566505672284180e-01) (73, 3.01445466506467252277e-01) (74, -6.45747879484325526533e+00) (75, 7.96180135131272281868e-01) (76, 4.86568978437693644423e-01) (77, 1.36010404577145638250e-01) (78, 5.44187745683821666454e-01) (8, 2.99549352910080321499e-02) (9, 3.52233508722845645167e-01) (10, 8.10340568026671093094e-01) (11, 6.61128312698019304783e-01) (12, 1.61399275872069536408e-01) (13, 2.20007190728222723486e-01) (14, 3.71155724049428217826e-02) (15, 3.69408399314465285546e-01) (16, 3.63853607867009098964e-01) (17, 2.45972108149835555491e-01) (18, 8.26747331421889275482e-02) (19, 2.74224988954975212874e-01) (20, -2.40819048078294156712e-01) (21, 3.23071793010603014462e-01) (22, 2.53599748694293636309e-01) (23, 2.71400961131286755368e-01) (24, -6.20349833112465096074e-02) (25, 2.31492769513371388079e-01) (26, 2.22383308361256637475e-01) (27, 1.81999826424549454584e-01) (28, 1.03905735701466506171e+00) (29, 1.15333025386635545928e+00) (30, 1.08019384815664265531e+00) (31, 3.08875695772349079249e-01) (32, 2.70177151376915114511e-01) (33, 2.55065256717572130807e-01) (34, 3.05962443921206250774e-01) (35, 2.53597357690685643039e-01) (36, -3.02303917117565990047e-01) (37, 1.49737091147419371095e-01) (38, 7.77740101779805126370e-01) (39, 1.24356165270812635271e+00) (40, 8.04258602608943884427e-01) (41, 1.19836226408247714659e+00) (42, 6.95050154607658732253e-01) (43, 5.59151653914436219672e-01) (44, 4.50110583241426887025e-01) (45, 1.98616772548569298085e-01) (46, 3.40873554666424882775e-01) (47, -3.21440021305484924241e+00) (48, 1.84965708040584903005e-01) (49, 1.85953031558513920407e-01) (50, 5.73017771658481667174e-01) (51, 1.09141993636795123224e-01) (52, 1.19958548631603778567e+00) (53, 4.07317359802838230287e-01) (54, 3.09666283746148351952e-01) (55, -1.37097424658928795926e-01) (56, 4.38769079215932056304e-01) (57, 1.29056654558507033492e+00) (58, 4.97248862815940328996e-01) (59, 2.84484202030073962675e-01) (60, 3.28583165643282326673e-01) (61, 3.57899070568463317787e-01) (62, -7.76991322618999797484e-03) (63, 4.30928695195605893087e-01) (64, 2.27977430569736738697e-01) (65, 1.21374023994175295194e+00) (66, 2.75102855258419098927e-01) (67, -1.30614662223330646462e+00) (68, -1.40251612950820669923e-01) (69, 1.80462149037801444784e-01) (70, 3.24436736640626499639e-01) (71, 1.17253676489916891512e+00) (72, -7.55840469289582317369e-02) (73, 3.05436861310250218349e-01) (74, 1.02971540498559877008e+00) (75, 6.55425692848501495469e-01) (76, 3.79690782640769775025e-01) (77, -1.33150401000669993401e-01) (78, 7.20219831579156144485e-01) (8, 3.52422729411490526230e-02) (9, 2.50302793745642293555e-01) (10, 3.73906019257921440335e-01) (11, 7.70614149592675823364e-01) (12, 5.90136984562228475437e-02) (13, 1.02305171308409312281e-01) (14, 1.19897888395373533599e-01) (15, 7.72113631823790780295e-01) (16, 1.41430924379961891341e-02) (17, 1.57589540417261642080e-01) (18, -1.04357327700765941531e-02) (19, 2.45286455608117931471e-01) (20, 9.39255067988300912374e-02) (21, 7.47993542602953032095e-01) (22, 1.25665187935865313440e-01) (23, 2.02817329804574952856e-01) (24, 2.10026360990774978166e-02) (25, -1.93124878854935358441e-02) (26, 1.80276383074701174181e-01) (27, 1.44779859340894573316e-01) (28, -3.22221526503151889376e-01) (29, 4.06094629102725368508e-01) (30, 3.23117718070169979150e-01) (31, -1.24967098663316830698e-01) (32, 8.16105470520146619728e-02) (33, 2.52660637359410800151e-01) (34, -2.31543448369367840800e-02) (35, 1.86662014821787819452e-01) (36, 2.04844329730978214066e-01) (37, 1.54499384006322265650e-01) (38, 4.16609124911905437383e-01) (39, 2.94220642613141125654e-01) (40, 2.80988737216289363730e-01) (41, 3.11275898919088855887e-01) (42, 2.06996651900250350220e-01) (43, 6.21017704903741973865e-01) (44, 6.59718697577399093568e-01) (45, -5.61537183209714796384e-01) (46, 1.98112264161205781088e-01) (47, -5.25003248338964612074e-01) (48, 8.05565592226377830132e-02) (49, 6.35889234664424596311e-01) (50, 1.68061822933583682183e-01) (51, 2.18199094752060618330e-01) (52, 2.89079153789964349297e-01) (53, 7.41035159589979119943e-01) (54, 2.14458199610330330076e-01) (55, 1.29201329725749436417e-01) (56, 1.82663636569623644146e-01) (57, 3.27904948536342832899e-01) (58, -3.46072434761386590885e-02) (59, 2.98440465680968769480e-01) (60, 3.42469633681213858623e-01) (61, 7.61935216395709047355e-01) (62, 1.55042565360735323798e-01) (63, 7.92361730200667135904e-01) (64, 1.50297381059845330808e-01) (65, 3.44572326857673083556e-01) (66, 1.38854883711374277322e-01) (67, 5.94106908124422794515e-01) (68, 8.41847071818972381152e+00) (69, 9.92070988653072971530e-01) (70, 4.84214168980953318933e-01) (71, 4.31396747598062679785e-01) (72, 4.87387459920365528898e-01) (73, -1.18346535741779959605e-01) (74, -9.01658853086955702771e-01) (75, 5.80035768581209643102e-01) (76, 6.34800144314080161401e-01) (77, 1.09140897331126852238e-02) (78, 6.64426513336489499295e-01) (8, 7.19851912210324962338e-01) (9, -2.86390439254919498824e-02) (10, -2.49536962469018741562e-01) (11, 1.18422975764932002923e-02) (12, 3.32680391917925200040e-01) (13, 4.82173862351309101548e-01) (14, 6.99668596143987686631e-01) (15, -3.28626525095952193301e-01) (16, 2.81379337909933913142e-01) (17, 7.39527030940507534851e-01) (18, 7.65889247219148638912e-01) (19, 5.67028922055395012691e-01) (20, 5.62446071284621096353e-01) (21, 8.82618118411098995235e-02) (22, 4.60280599401150070094e-01) (23, 4.74393130543390051379e-01) (24, 8.51240754230307428152e-01) (25, 6.29874216024294053540e-01) (26, 4.48278546593729232406e-01) (27, 4.73910567807589666600e-01) (28, 3.88691914818676764742e-01) (29, -2.92902448435223616841e-01) (30, -3.22485553527929402762e-01) (31, 3.37744394202744380173e-01) (32, 4.42769635984765153047e-01) (33, 6.17628662295174601926e-02) (34, 2.30343301438274139503e-01) (35, 5.19008013235460474721e-02) (36, 6.03479295068114263145e-01) (37, 5.48341704250600803228e-01) (38, -3.14188846369608365539e-01) (39, -3.05646785407035381787e-01) (40, -3.87118611112917898609e-01) (41, -2.29483590161068423674e-01) (42, -5.70837307412356942393e-01) (43, -2.63238645428854473041e-02) (44, -7.22363038015330638508e-02) (45, -1.60215132404560645085e+00) (46, 6.37956518617770196311e-02) (47, 3.43179739790062943161e-01) (48, 4.47264106998973121065e-01) (49, 1.42915769469680511289e-02) (50, 6.62905542052499741068e-01) (51, 5.17128762373784023332e-01) (52, -7.99565961272849928809e-02) (53, -2.94545946217162589453e-02) (54, 9.02102553272327994938e-02) (55, 6.96441629458064315195e-01) (56, 5.81265938418221161932e-02) (57, -3.41304998348391619434e-01) (58, 3.74527257695751625288e-01) (59, 9.77430982894716693377e-02) (60, -2.27530062590807317935e-02) (61, 9.64113137025074284914e-01) (62, 8.12829125205740021798e-01) (63, -5.56023890103334514357e-02) (64, 5.33695882751703987168e-01) (65, -2.03824416434032845702e-01) (66, 5.10861249166158160051e-01) (67, 9.93246143035013684397e-02) (68, -2.18858807996836652876e+01) (69, -2.75163774155769702556e-02) (70, 5.41009220848630567602e-01) (71, -3.87160061603749328096e-01) (72, -6.83397037164574540358e-03) (73, 3.11619435885398643471e-01) (74, -4.88063072912379602997e-01) (75, -3.28253878040551838602e-01) (76, 1.94606588313144951430e-02) (77, 6.78017455866508300666e-01) (78, -1.35643371100204954138e-02) (8, 5.64996593428817805993e-01) (9, -1.58514687754221256233e-01) (10, -1.65810012163416925501e-01) (11, 2.51315944066457519490e-02) (12, 1.86396816029711059892e-01) (13, 7.75887989980880155017e-01) (14, 5.59723579296508844116e-01) (15, -1.62465286345974985194e-01) (16, 4.32323554553901812092e-01) (17, 4.87783804120222430623e-01) (18, 5.72827831813732202271e-01) (19, 6.64138713462058438708e-01) (20, 5.91738516713431472738e-01) (21, 1.60684181865923148003e-01) (22, 6.34207075072232728807e-01) (23, 5.86922769279090261740e-01) (24, 5.15594736469952130697e-01) (25, 3.84990269692146391822e-01) (26, 6.87045210582915677477e-01) (27, 6.10073776526156907885e-01) (28, 1.13959397318892999285e-01) (29, -1.24123004169957210086e-01) (30, -1.84396164928012085138e-01) (31, 3.89312725595104325294e-01) (32, 7.23165442080107911949e-01) (33, -2.12006309444971285938e-01) (34, 3.47893020341312642074e-01) (35, -1.27048576203917212846e-01) (36, 5.30825438226512069662e-01) (37, 6.87972572476474031333e-01) (38, -2.11519245894448398859e-01) (39, -9.96356950121089213201e-02) (40, -1.16403133951871060048e-01) (41, -2.05142444610600632737e-01) (42, -1.23403171826292304414e-01) (43, 2.00689972924055298753e-01) (44, 3.54217582096511066081e-02) (45, 3.95727474265663403674e-01) (46, -1.40617668626497965834e-01) (47, 9.10905366934167237680e-01) (48, 7.68178869814482911949e-01) (49, -7.11286881347738958459e-02) (50, 2.89345730993662564323e-01) (51, 7.26864178509322389488e-01) (52, -7.43074939351516111641e-02) (53, 1.88766463217012597786e-01) (54, -1.50240632951898822611e-01) (55, 5.15919866806713867113e-01) (56, -2.95489324472610837002e-01) (57, -8.50360886173411600897e-02) (58, 1.89162486053498141159e-01) (59, -2.02448205466337460834e-01) (60, -2.73602584339679599790e-01) (61, -3.29567893525460953175e-01) (62, 5.59533946944442805993e-01) (63, 5.10589622606693466222e-02) (64, 5.85744787783233022971e-01) (65, -9.47359489798595272303e-02) (66, 6.19558637572232728807e-01) (67, 2.12737231740470602095e-03) (68, -7.53023226142588847365e-02) (69, 1.76328289752046757366e-01) (70, -2.67648960402828650640e-01) (71, -1.76143267096774219782e-01) (72, -1.21270443793763754714e-01) (73, 5.16282937201500535807e-01) (74, -7.55209141347483181583e-02) (75, -1.53701064256398234331e-01) (76, 1.72311379131548120247e-01) (77, 5.90075940622058925378e-01) (78, 3.05270409020832918234e-02) (8, 3.77668028905336849999e-01) (9, -8.47767002808003544700e-01) (10, 4.37615117739805881136e-01) (11, 8.26963761019317566969e-01) (12, 5.72908941188678688672e-02) (13, 1.81491495901616173292e+00) (14, 2.69519028588626252674e-01) (15, 4.87996773168650421759e-01) (16, 4.69846484712292400410e-01) (17, 7.49681106337595881683e-01) (18, 3.09155288606195843837e-01) (19, 1.85261347178624169452e+00) (20, 3.90289165280916783285e-01) (21, 7.27636608088435887787e-01) (22, 1.88775496582938084877e+00) (23, 1.98745975038015054714e+00) (24, 3.73100624721722895494e-01) (25, 4.28441370990921721607e-01) (26, 2.00719978781360275377e+00) (27, 2.00498983897558558098e+00) (28, -2.29007253233974028550e-01) (29, 5.11645084978967212841e-01) (30, 5.42049586729562604681e-01) (31, 4.70427419749714526009e-01) (32, 1.88466401737542121886e+00) (33, -7.27777866874257717278e-01) (34, 4.79704763499714526009e-01) (35, -6.49139833098219765084e-01) (36, 3.48134136752512535207e-01) (37, 2.03212309016642178605e+00) (38, 5.12562604483567829661e-01) (39, 5.22224776391828071631e-01) (40, 4.42933708217034483035e-01) (41, 5.59549259750169003524e-01) (42, -9.86192073723970302757e-02) (43, 8.18412755562018423561e-01) (44, 7.89877077819397754865e-01) (45, 2.21123909557129039172e+00) (46, -6.40028839886725431363e-01) (47, -4.25899993953363420474e-01) (48, 1.95418792764427395880e+00) (49, -6.15216332864588766327e-01) (50, 1.52924432214718453160e+00) (51, 1.97562367635888591622e+00) (52, -9.86771511284462277125e-01) (53, 7.39939511689641116199e-01) (54, -8.31896998683539501407e-01) (55, 2.12130547209020914323e-01) (56, -8.41126378553061604393e-01) (57, 5.55356623043343100576e-01) (58, 8.13801844724364231709e-01) (59, -8.60011755928562604545e-01) (60, -8.98472296092565736458e-01) (61, -8.69232495232842627964e-01) (62, 8.73875328333824363813e-02) (63, 6.30026785087738905311e-01) (64, 1.98561934595779931989e+00) (65, 5.32553414611142361679e-01) (66, 1.86279946954072017640e+00) (67, -6.59508210099129854598e-01) (68, -1.62269756334282949650e-01) (69, 7.53456586967639729835e-01) (70, -7.63235540597099193505e-01) (71, 5.78812741926553409044e-01) (72, -1.48012159357342887311e+00) (73, 4.47468947629620306117e-01) (74, -4.18020673844681056597e-01) (75, 5.73632783996934625392e-01) (76, 7.32023679762055512477e-01) (77, 1.92281795797551724458e-01) (78, 6.70248421400144511750e-01) (8, 7.90871525461536495349e-01) (9, -4.19460911237883454783e-02) (10, -2.67332931125926709370e-01) (11, -2.63567355157037601365e-02) (12, 9.20919368725458986624e-01) (13, 5.27108268091235565578e-01) (14, 7.57110409501782100072e-01) (15, -3.38150122642527750649e-01) (16, 3.23538866478791820036e-01) (17, 3.94619274489948212992e-01) (18, 8.33208644476987281280e-01) (19, 4.56871232991290621150e-01) (20, 7.23498725433069145296e-01) (21, 2.18313956251889630666e-02) (22, 5.30699556369057190430e-01) (23, 4.25442493562888601755e-01) (24, 7.43415214449746009073e-01) (25, 5.94760392211068689150e-01) (26, 4.11974139319825738426e-01) (27, 5.39353719779841145332e-01) (28, 2.82177745672166468971e-01) (29, -2.20161470885939541953e-01) (30, -3.83059481147083824570e-01) (31, 2.06172381215253219811e-01) (32, 4.20398576761955578007e-01) (33, 1.24611541622906746296e-01) (34, 2.64795446985096272208e-01) (35, -1.19756791505361503969e-01) (36, 7.53507221631876888956e-01) (37, 4.95264297928088903511e-01) (38, -3.24310601970663359150e-01) (39, -2.61085854135117478858e-01) (40, -2.15971414651039472776e-01) (41, -3.08425277917959039797e-01) (42, -2.42187960610251329374e-01) (43, -1.19653016463135516978e-01) (44, -1.25047621842454131924e-01) (45, 5.47687999405904180072e-01) (46, -7.32061122682344106449e-02) (47, 2.71841179300235058491e+00) (48, 1.76278872578938344828e-01) (49, -5.46593399562251593127e-03) (50, 1.43975695039140011433e-01) (51, 3.01140055787407212584e-01) (52, 2.78327456958249886548e-03) (53, -9.86124847028279488681e-02) (54, -8.77857180666020281423e-03) (55, 1.08696257014400132768e+00) (56, 6.00192394173455628925e-02) (57, -3.61006510667166213846e-01) (58, 3.56611202494453993772e-01) (59, -6.74869366436267777154e-03) (60, 1.34860785862498527843e-01) (61, 2.05517440344641588723e+00) (62, 7.01651948358560484387e-01) (63, -8.78495046624786085632e-02) (64, 5.54045341224799203772e-01) (65, -2.50704013250925450418e-01) (66, 4.89971551411103267704e-01) (67, -1.18871684358979642915e-01) (68, -1.06862148225280151337e+01) (69, 3.56985908786906086521e-03) (70, 4.33912721026890824128e-01) (71, -2.33330239618592616413e-01) (72, 2.42562771749878142158e-01) (73, 2.73027624240670507838e-01) (74, 1.06294333094801380923e+01) (75, -2.39864957914917409365e-01) (76, -7.17541594101417795626e-02) (77, 7.68751683654299355908e-01) (78, -5.35103554218631996542e-02) (8, -4.97573967815085685396e-02) (9, 5.99162276358575440760e-01) (10, 1.00425199191005876109e+00) (11, 9.33451462431054701518e-01) (12, 8.74838525881907747017e-02) (13, 6.99646914515028806036e-01) (14, -1.04376520366717503996e-01) (15, 1.04930531795525938676e+00) (16, 1.03662719325036650764e-01) (17, 2.52272490755709233312e-01) (18, -8.76609678533501329722e-02) (19, 7.29287183594338972448e-01) (20, -2.75616561629619671869e-01) (21, 9.65186130806100606172e-01) (22, 6.37809558429347056574e-01) (23, 5.35933363858900890797e-01) (24, -1.46513544889001451343e-01) (25, 1.12775803048649758686e-01) (26, 6.41109264031808567808e-01) (27, 6.88900223683946322240e-01) (28, 9.06214045479205448919e-03) (29, 1.02667063665699442865e+00) (30, 1.66335717451530884503e+00) (31, 1.17737857174558313567e-01) (32, 5.70033706400833950489e-01) (33, 5.27248876841492464251e-01) (34, 1.62366760444326047041e-01) (35, 3.55798736836763218605e-01) (36, -3.18789009108747412036e-01) (37, 6.08314957145892121204e-01) (38, 1.09015510732316567299e+00) (39, 5.73298650547085286711e-01) (40, 1.15874465920996772006e+00) (41, 7.38659716366341645433e-01) (42, 2.17435292489696507801e+00) (43, 1.36430086800336902719e+00) (44, 9.64969862214798745903e-01) (45, -2.71990510551121333904e+00) (46, 6.11466196282208551693e-01) (47, 1.43186061065582459495e-01) (48, 6.95077569524012561786e-01) (49, 2.33682609208649139099e-01) (50, 3.23179144715025457035e-01) (51, 6.10744151894293763050e-01) (52, -2.42525355327770468505e-02) (53, 9.96919883326683464730e-01) (54, 6.28242647011480248587e-01) (55, -1.74474869870235388403e-01) (56, 4.86656482793783318197e-01) (57, 1.46057909720859058211e+00) (58, 3.05890009592202138933e-01) (59, 5.74643420839424767799e-01) (60, 2.78154398831652438506e-01) (61, 6.08709110748768614241e-02) (62, 8.43534855202994204859e-02) (63, 1.05553484010079956512e+00) (64, 6.99898209099017121204e-01) (65, 7.64401991203666364427e-01) (66, 6.27647204913721945552e-01) (67, 2.64459067699885086444e-01) (68, 4.57043374847378025549e+00) (69, 8.65187007067587332543e-01) (70, 1.07676917157474225095e-01) (71, 1.09426783036743513478e+00) (72, 4.13618318765796799674e-01) (73, 7.77007635530171242300e-02) (74, -4.11352827352159433616e+00) (75, 9.83442780277965500346e-01) (76, 9.39384331939651651133e-01) (77, -2.04502954073837867055e-01) (78, 6.17019295650700017042e-01) (8, 2.46164263513183850796e-01) (9, 9.77132977380106404475e-01) (10, 1.12558645795564782333e+00) (11, 1.18824444483627211788e+00) (12, 2.01460582957553174799e-01) (13, 1.05683104261445959260e+00) (14, 3.70051921915225290327e-01) (15, 7.85507296927982157086e-01) (16, 9.50237853045490243886e-02) (17, 4.28519083978278036984e-01) (18, 3.83049344817654402462e-01) (19, 1.08230752013587938620e+00) (20, -4.32281396461617839488e-01) (21, 1.22027052216398224083e+00) (22, 9.46104713572301747604e-01) (23, 1.04035765990304929218e+00) (24, 1.41206522089921393537e+00) (25, -5.07284306464843848250e-02) (26, 1.07079018913173662497e+00) (27, 1.10904702804946908579e+00) (28, -2.21272101884998989574e-01) (29, 1.13639347174911442551e+00) (30, 1.20027247631781919246e+00) (31, 1.11927383789755825055e-02) (32, 9.35914296057687833397e-01) (33, 6.80189021320529163539e-01) (34, 1.57376003538752584632e-01) (35, 7.20146251488565147802e-01) (36, -4.21608064374789592854e-01) (37, 1.06888589523696886374e+00) (38, 9.71175329112965890488e-01) (39, 1.14098342063511992706e+00) (40, 9.91874546230540610203e-01) (41, 4.80764835174310123378e-01) (42, 2.95811069866811626738e+00) (43, 1.84719492470925206185e+00) (44, 1.92590101118327838847e+00) (45, 3.32341841120313785662e-01) (46, 1.23133503612437755770e+00) (47, 1.01363565542279414388e-04) (48, 1.07101896038054245075e+00) (49, 1.89484520178385129618e-01) (50, 3.06884504726793794216e-01) (51, 1.09915281399774533710e+00) (52, -8.64686201278369453993e-02) (53, 1.27954802006223955502e+00) (54, 7.23867186099365511609e-01) (55, -5.82056291948126885982e-02) (56, 1.28770423488823970715e+00) (57, 1.12669312618974792883e+00) (58, 1.06040491496846144698e-02) (59, 6.30999306249945157710e-01) (60, 1.15402256371784694977e+00) (61, -8.38866010753102353537e-02) (62, 4.54180160252826092826e-01) (63, 1.32385394122986133070e+00) (64, 1.07332256824733152101e+00) (65, 4.84602739579108543477e-01) (66, 9.41304105147348524341e-01) (67, 1.50543825539710618422e+00) (68, 2.52700680981850878126e+00) (69, 8.16604029760978789021e-01) (70, 6.28992151341453697988e-02) (71, 1.22262895603126664490e+00) (72, 1.97067039599252757931e-01) (73, -5.80330091677339759970e-03) (74, -2.20240322269993988868e+01) (75, 8.17127542957505670351e-01) (76, 1.24378908320130365794e+00) (77, 2.89984575515872256002e-01) (78, 7.09731502259862812032e-01) (8, -9.78774304732261957174e-02) (9, 2.13457783496608100027e-01) (10, 8.58395839374951674650e-01) (11, 7.33922544367897611295e-01) (12, -4.12857037912930727175e-02) (13, 6.86993608481145049544e-03) (14, -1.04534477328822358877e-01) (15, 1.02340281640815145003e+00) (16, 1.64881190832914414912e-01) (17, -5.83983315350067311300e-03) (18, -2.18098605605347467540e-01) (19, 4.04811208905863431640e-02) (20, -2.97616994754984431903e-01) (21, 2.54574841135019103167e-01) (22, -1.15999939197238138844e-01) (23, -3.79420801042866726038e-02) (24, -1.58020455249266972286e-01) (25, 1.06343835871695657769e-01) (26, -1.48141928068321576673e-01) (27, 3.63419944890213796745e-03) (28, 6.53415726576542699178e+00) (29, 8.16892997353582450692e-01) (30, 5.28182761473299122734e-01) (31, 2.19821864454957438539e-01) (32, 1.78867817879363490141e-02) (33, 1.87327804254827479102e-01) (34, 1.03885585158082285884e-01) (35, 2.17166871411825251892e-01) (36, -3.88480032609417436085e-01) (37, -1.45309021973546143025e-01) (38, 8.26593955537793134702e-01) (39, 7.55554528331771502181e-01) (40, 8.02777173605480287577e-01) (41, 8.75691512226970503185e-01) (42, 4.58764889728246971767e-01) (43, 8.34898535033663291571e-01) (44, 4.67437046529717847854e-01) (45, 2.55294521671188290313e+00) (46, 3.20521511078290854968e-01) (47, 2.03945087748540532235e-01) (48, -8.38954432844478126263e-02) (49, 2.73994809482050571958e-01) (50, 2.52872902152078360416e-01) (51, -1.52858256339385122080e-02) (52, 9.80165813654323869741e-01) (53, 3.23298362873423505981e-01) (54, 1.68371031449085967191e-01) (55, -3.33994296145858238223e-01) (56, 1.99623779648703592038e-01) (57, 7.64509142487999615589e-01) (58, 1.47284756031097474605e-01) (59, 1.32539830976871109147e-01) (60, 2.94618307428325898467e-01) (61, 9.33879914846329040046e-01) (62, -2.37193428293475366830e-01) (63, 7.57328092373141026350e-01) (64, -9.01992738040222410967e-03) (65, 7.88093630599604799691e-01) (66, -3.15928873020484765610e-02) (67, 4.46400039314266916524e-01) (68, 2.17980841234156563768e-01) (69, 4.64033007507426642491e+00) (70, 6.70937043195441229493e-01) (71, 7.94763495267867381422e-01) (72, -1.92252385289960921189e-02) (73, 1.62170915474237536946e-01) (74, 6.33673665910686700897e+00) (75, 6.50976026055864465114e-01) (76, 1.34592156183064526331e-01) (77, -2.44137458389389633284e-01) (78, 4.56185246473760908081e-01) (8, -5.12415336370537835564e-02) (9, 2.29731701913189312325e-01) (10, 7.71337873537462748175e-01) (11, 1.08096456771358506721e+00) (12, 3.76029701788374304261e-02) (13, 3.52368165827008694713e-01) (14, -6.85624385141689607348e-02) (15, 1.53323384296891140899e+00) (16, 2.09353566562026638387e-01) (17, 1.32733614400408345135e-01) (18, -1.27326664073081657902e-01) (19, 3.89727790928098172252e-01) (20, -9.26806209585681953222e-03) (21, 1.54075406859933572434e+00) (22, 3.54522340321656692641e-01) (23, 3.35346933003827618602e-01) (24, -1.20625756539698453240e-01) (25, 9.66856784218247528040e-02) (26, 3.61883973406317338561e-01) (27, 3.37379399236604260448e-01) (28, -2.10652783839425761236e-01) (29, 8.51870397752538477398e-01) (30, 9.90700304159351397004e-01) (31, 3.68022775863502182858e-01) (32, 3.55635020431443737987e-01) (33, 3.10284831207785938290e-01) (34, 3.06078198020551361935e-01) (35, 1.47250569334588854442e-01) (36, -1.08732054463178351433e-01) (37, 3.84736578461095379833e-01) (38, 1.23711470451700589201e+00) (39, 9.61552624220736729121e-01) (40, 1.40636420535730000125e+00) (41, 1.01013864437340128433e+00) (42, 5.49039663875235173229e-01) (43, 1.20777262116899164468e+00) (44, 1.01241909990540812636e+00) (45, -4.00309124225185997137e-01) (46, 1.69717021852502786272e-01) (47, -1.54690039527196950692e-02) (48, 3.49355592291452965448e-01) (49, -1.56991406605155231491e-01) (50, 3.17779570333171390573e-01) (51, 4.33653269315436018516e-01) (52, 1.48873195702424448300e-02) (53, 1.57390041140734671110e+00) (54, 2.11047849477945692609e-01) (55, -1.75248387673692745947e-01) (56, 2.74873444256526267004e-01) (57, 1.29034612111644331200e+00) (58, 1.08093150615065872189e-01) (59, 2.46383709201287215418e-01) (60, 3.23626467132620943001e-01) (61, 2.21732094166609411401e-01) (62, -1.86811514021493037729e-04) (63, 1.48746481819412834646e+00) (64, 3.40649290212651778553e-01) (65, 1.05326717339526676476e+00) (66, 4.31237791753026455943e-01) (67, 8.50000007640657750940e-02) (68, 4.34438442490118065242e-02) (69, 1.78952625062971493186e+00) (70, 1.69843987920575617556e-01) (71, 1.25815929125858927407e+00) (72, 1.29645026184135203629e-01) (73, 2.06622841475352897467e-01) (74, 9.04815772131381756971e-01) (75, 2.91702986247730944314e+00) (76, 1.42533766369220638026e+00) (77, 2.22570892952491834749e-02) (78, 8.24653362449566329495e-01) (8, 4.62527819282355590058e-01) (9, 2.06159873602354160038e-01) (10, 1.20383447490079995013e-01) (11, -7.78457012152058563936e-02) (12, 9.48189336002431382155e-01) (13, 2.74778996777307382704e-01) (14, 4.45285606771285924488e-01) (15, -7.25938465893814222074e-02) (16, 1.55492662463183339838e+00) (17, 7.07962436265839767380e-01) (18, 6.44777195211363007843e-01) (19, 2.28441109132535458137e-01) (20, 7.79027597781583147629e-01) (21, -1.20453423637785023148e-01) (22, 3.30687207352887979628e-01) (23, 3.80840097743760985782e-01) (24, 4.07036721419908098518e-01) (25, 1.51624571922985329486e+00) (26, 7.02748671062432217482e-01) (27, 6.31706350221596490968e-01) (28, 6.19670205433754617275e-01) (29, 1.25062946120153534180e-01) (30, 4.08581455198291296216e-02) (31, 1.50065915121698023604e+00) (32, 2.45921888578422037641e-01) (33, 1.24664292917583907627e-01) (34, 1.46129318799520580008e+00) (35, 1.33203336013399953330e-01) (36, 6.18069592238582155019e-01) (37, 3.88810885847341414223e-01) (38, 6.46517837400294587136e-02) (39, -1.15528456147395899162e-02) (40, 8.14502263664251269226e-02) (41, -8.21252688078878551048e-02) (42, 6.25649007147156210884e-01) (43, -4.54738200388207447489e-01) (44, -3.72633840911592906231e-01) (45, -1.08612041804067760431e+00) (46, 1.04987656795727982151e-01) (47, 1.10386497892469948034e+00) (48, 2.63476373064863045315e-01) (49, 3.46116942248077402722e-02) (50, 4.30982395651726524211e-01) (51, 3.96269378960859175454e-01) (52, 1.31179754226782657733e-01) (53, -8.61506514805663176082e-02) (54, 1.91195677977473915687e-01) (55, 1.14784807544172950955e+00) (56, 9.44237015680328417577e-02) (57, 8.22188278092518404216e-02) (58, 5.00723608368409900393e-01) (59, 3.87437314968695906137e-02) (60, 1.81746976339511395748e-01) (61, -2.82552364404385158991e+00) (62, 1.05087052034169126102e+00) (63, -1.25478172124303899437e-01) (64, 3.26849178779470395106e-01) (65, -4.21415052145468760347e-02) (66, 2.34746036302812099983e-01) (67, -2.37652349784919803000e+00) (68, -3.01388772995017077960e+01) (69, -2.05656062762677033229e-01) (70, -7.42104267965659092354e-01) (71, 1.15493346579919886619e-01) (72, 1.62893921294751220508e-01) (73, 1.61853400847808814866e+00) (74, 4.10400826052505784958e+00) (75, -1.61666127562155592656e-01) (76, -2.32242840392957700102e-01) (77, 4.36535491739948156020e-01) (78, 3.00322285547227119107e-01) (8, -2.53521324329922248531e-02) (9, -3.77147360687747679187e-01) (10, 1.71547516179054060359e-01) (11, -3.36522306100670354212e-01) (12, 1.70903620287838475811e+00) (13, 4.07711573073119115662e-01) (14, 2.07032369007861436708e-04) (15, 5.63240614835827796414e-02) (16, 1.90805340484165708581e+00) (17, 5.51837862911409904321e-01) (18, 1.59019096442429008764e-01) (19, 4.17759046061383587656e-01) (20, 5.56331266741780128271e-01) (21, -7.35935410352589802763e-01) (22, 4.05690781242147191499e-01) (23, 4.51203760900327821570e-01) (24, 2.24113458791293310157e-02) (25, 1.77937570631737251858e+00) (26, 1.05287416837980773998e+00) (27, 3.99110255040952821570e-01) (28, 3.80306327120303155898e-01) (29, 8.82106465302644193738e-02) (30, -3.81801072424398438288e-03) (31, 1.44002075913731730772e+00) (32, 5.06751862563916577464e-01) (33, -1.93791926649402007632e-01) (34, 1.67572134318716980950e+00) (35, -2.54128350222192433971e-01) (36, 4.88319646129829421088e-01) (37, 3.55125301347078869973e-01) (38, 5.13364679105376142676e-02) (39, 1.07558993816272346900e-01) (40, 1.48138283340820520184e-01) (41, 8.00022305407397521515e-02) (42, 8.43444196674334012442e-01) (43, -1.69350167891849601176e+00) (44, -6.39817612811066749323e-01) (45, 1.16384701232410264771e-01) (46, -6.50545323498506050663e-02) (47, 1.98754497788398998281e+00) (48, 3.96655023605801126951e-01) (49, -4.40314317564815316253e-01) (50, 4.78549415625237339889e-01) (51, 4.67933495738336702185e-01) (52, -1.06933817624271870761e-01) (53, -6.20139862831351473815e-01) (54, -2.31460837119307732967e-01) (55, 6.17192102458725688763e-01) (56, -5.65741076743069948307e-01) (57, -1.73677672088967775810e-02) (58, 6.56257480696745609805e-01) (59, -3.09746767198548600408e-01) (60, -5.28971282677772713932e-01) (61, -1.84065151767318324616e+00) (62, 3.91235454672639204610e-01) (63, -6.22102526439862413277e-01) (64, 4.58465312067002250807e-01) (65, 3.58616010703914842028e-02) (66, 3.81104883947202821570e-01) (67, -2.09163891424317185397e+01) (68, -1.99067850896565481378e+01) (69, -1.09159299196289882872e+00) (70, -6.76443101832644666516e-01) (71, 5.72318876192225850508e-02) (72, 2.23678839093120446213e-01) (73, 1.69089560552699835760e+00) (74, 2.77192186710168941843e+00) (75, -2.91168278307490889512e-02) (76, -6.15043090166580097566e-01) (77, 4.59872974069012938059e-02) (78, 6.63659300609126812098e-01) (8, 3.26086738388552177526e-01) (9, -1.01802193597957196802e-01) (10, 1.38521276452277158908e-01) (11, 4.72934338424673750279e-01) (12, 6.85276653645552458194e-01) (13, 5.52565943403278359014e-01) (14, 3.14654850642694938756e-01) (15, 2.97761999108532737779e-01) (16, 1.39182828940721048383e+00) (17, 6.82382892593901835276e-01) (18, 4.01595253514066219402e-01) (19, 5.77266868157421009222e-01) (20, 4.77558473449244957898e-01) (21, 3.64291760299673750279e-01) (22, 6.95443142159019478399e-01) (23, 6.99190332741676190409e-01) (24, 4.11230788807882774449e-01) (25, 2.18060215781070088070e+00) (26, 6.88832669706283429178e-01) (27, 6.34529686720310071024e-01) (28, 2.10283866452764894861e-01) (29, 1.43263343062041248466e-01) (30, 4.78750991795530989048e-01) (31, 1.80864266513726779095e+00) (32, 6.23720354587970593485e-01) (33, -4.69874019438861201259e-01) (34, 1.25370573826404108075e+00) (35, -5.76313237363944685931e-01) (36, 4.97718388538852196668e-01) (37, 5.72035785020528653178e-01) (38, 2.14296430387232755832e-01) (39, 3.26151259170141927246e-01) (40, 2.73738570549229454087e-01) (41, 3.99631115768423750279e-01) (42, 3.31119432273256353305e-01) (43, 3.69668956075182630894e-01) (44, 3.25656506393423805790e-01) (45, 3.68134472187183592329e-01) (46, -5.47889160627971327777e-01) (47, 7.61991394884460881975e-01) (48, 6.95424828631912239629e-01) (49, -1.61020747093252453164e-01) (50, 6.50672550933116267124e-01) (51, 5.35793109984336601848e-01) (52, 1.57537612616989730618e-01) (53, 4.92410662744513227818e-01) (54, -4.86604899496196063868e-01) (55, 4.80922646837249279095e-01) (56, -5.75484291047225648974e-01) (57, 1.93342688765166303977e-01) (58, 6.43993829621356428383e-01) (59, -5.63065791885097727265e-02) (60, -6.01966312790761626239e-01) (61, -3.30197709591784849259e-01) (62, 5.18772747395552791261e-01) (63, 4.31875991795531100070e-01) (64, 5.80898090453086712870e-01) (65, 4.34860604975691622531e-01) (66, 7.18184470386443951639e-01) (67, -1.15878801724637561787e-01) (68, -1.60791341173036200773e-01) (69, 4.29092782710066622531e-01) (70, -1.86193862624398437378e-01) (71, 1.85078530844090483054e-01) (72, 5.58619607112007254823e-02) (73, 2.22197178224660252255e+00) (74, 2.32068748399132579463e-01) (75, 1.75374306776259453189e-01) (76, 4.02786630366316511509e-01) (77, 2.65130927096619173344e-01) (78, 2.35836048753204546857e-01) (8, -2.29003919787847148859e-01) (9, 1.25215061564346558098e-01) (10, 1.25574288673464273813e+00) (11, 6.28777969161195549042e-01) (12, -1.02690947181182656855e-02) (13, 3.90728616075179724376e-01) (14, -2.59513635481605775546e-01) (15, 9.47368139096911754393e-01) (16, 1.29387746077288673385e-01) (17, 5.48609099737797700769e-01) (18, -3.21691853416617268291e-01) (19, 3.48507676894627360653e-01) (20, -3.47359904727309098948e-01) (21, 1.38854602496510759480e+00) (22, 3.44537604846835598948e-01) (23, 2.99194187776706477244e-01) (24, -2.05121502024880358883e-01) (25, 2.15751300968169357208e-01) (26, 4.59887562139896288738e-01) (27, 4.81432972296146288738e-01) (28, -3.95772512728955927486e+00) (29, 1.19122272468094236864e+00) (30, 1.28438717840284288840e+00) (31, 1.28767463067989446079e-01) (32, 4.66397088642082957577e-01) (33, 3.46292322060398782835e-01) (34, 1.48381464577942212557e-01) (35, 2.15987697771605258179e-01) (36, -4.20266398867934098948e-01) (37, 4.99830412797690359916e-01) (38, 1.12028238884989805868e+00) (39, 1.16486903014956433289e+00) (40, 1.12448613659924356867e+00) (41, 1.86134191832159845426e+00) (42, 2.87096916525923129271e+00) (43, 1.34727379542885894459e+00) (44, 1.31893128977029250315e+00) (45, 3.01133826483351363379e+00) (46, 2.32715465242738783758e-01) (47, 1.62825638975994918534e-01) (48, 3.83883651967011241268e-01) (49, 5.75934661071153986001e-01) (50, 5.11534534602492874100e-01) (51, 2.93679793055020232906e-01) (52, -1.72018116438112222966e+00) (53, 1.42561716440801844463e+00) (54, 8.41873982241814200478e-02) (55, -3.01011290425478750254e-01) (56, 9.99348145503150958602e-02) (57, 1.26715955648908540354e+00) (58, 3.86039966107743562351e-02) (59, 2.20185298771759435654e-01) (60, -1.78182788708427131130e-01) (61, 3.16682240948387427881e-01) (62, -3.34760703030039852290e-01) (63, 1.27891235571823469463e+00) (64, 4.77315750647569314591e-01) (65, 1.82868944006510569800e+00) (66, 3.25570229887257422963e-01) (67, 9.65295894102921714364e+00) (68, -1.49149343420532698445e+00) (69, 8.77999586462990144753e-01) (70, 1.79245071926663751549e-01) (71, 1.15012830771944307706e+00) (72, 2.63945548045859457176e-01) (73, 1.22099985299804161820e-01) (74, 4.42833732069598262626e+00) (75, 9.76206340849478437782e-01) (76, 1.29611222424242855666e+00) (77, -1.66705430943818511125e-01) (78, 5.32111088825185429840e-01) (8, -3.65968288937572938657e-01) (9, 5.35591631866455974986e-01) (10, 1.19042598251948805732e+00) (11, 2.97201967504752362359e+00) (12, -2.91379467387713544935e-02) (13, -2.87979389639208722962e-02) (14, -1.98205892446014303454e-01) (15, -2.11635186413777143244e+00) (16, -7.72002849940851276767e-02) (17, -4.01732826403864762277e-01) (18, -3.33459634222139811310e-01) (19, 1.09461043238125069199e-01) (20, -4.05920702612458217384e-01) (21, 2.72085245342130743751e-01) (22, 1.06928084253750069199e-01) (23, 1.61364604687382721948e-02) (24, -2.79135055668564446840e-01) (25, -4.24831933292428909343e-01) (26, 7.45747218180099341600e-02) (27, 4.48348750261954795415e-02) (28, 1.30645056712354018513e-01) (29, 1.33475192231885375627e+00) (30, 8.91816207658151727244e-01) (31, -3.62854431095858243062e-01) (32, 1.43308983799724279883e-03) (33, 3.41266414561124276084e-01) (34, -1.66514257010199256959e-01) (35, 2.97208891877877579013e-01) (36, -4.21605576835924922285e-01) (37, 1.11119523544551124239e-01) (38, 1.33224484124848996380e+00) (39, 9.80515319620090086694e-01) (40, 4.88398659475087626447e+00) (41, 1.06634819861458107759e+00) (42, 1.56405399285160728873e+00) (43, 1.03451833860312945035e+01) (44, 3.46303179966972907167e+00) (45, 8.74810723247755994691e+00) (46, 2.62662730951368106336e-01) (47, 4.12037211132495917454e-01) (48, 6.72247076625444722753e-02) (49, 6.40962068533083684230e-01) (50, -1.27306290060368254569e-01) (51, 4.19561529750451731036e-02) (52, 4.65215329199194338461e-01) (53, 1.25774508549039376604e-01) (54, 4.48718660031623139961e-01) (55, -3.58939122523859455161e-01) (56, 5.69906329434631486741e-01) (57, 1.71531253738536060283e+00) (58, -1.33104625031239848232e-01) (59, 2.86863682667829189565e-01) (60, 6.61016138566379307662e-01) (61, 3.24610025194670082094e-01) (62, -3.47816567260817610663e-01) (63, 3.65184798608778748985e+00) (64, -2.81557481162555238441e-02) (65, 1.09290384010514762814e+00) (66, 2.72689540772129597468e-02) (67, 8.11013321293934694722e+01) (68, 7.59666369569926587246e+01) (69, -1.02665301590015456412e+00) (70, 1.80704163674916706839e-01) (71, 2.35764940046726323430e+00) (72, 5.00253007279210959446e-01) (73, -4.75974567681770655003e-01) (74, 2.07931482545205037482e+00) (75, 1.47054456535589106458e+00) (76, -6.20678740281271790202e-01) (77, -2.22418461939537043248e-01) (78, 3.63924345691826467419e-01) (8, -1.09344396738468713215e-01) (9, 4.31221860531190714916e-01) (10, 3.05544652033957531145e-01) (11, 1.25459114447377495516e+00) (12, -6.97838620837815670761e-01) (13, 4.77660159971729947337e-01) (14, 1.09562197249887995770e-02) (15, 7.20344946991903767319e-01) (16, -1.18603484336674502853e-01) (17, 1.23565138151605746764e-01) (18, -7.21994701973338870449e-02) (19, 4.85350589659229947337e-01) (20, -1.74256215727226382306e-01) (21, 2.34012496128478941770e+00) (22, 5.69365489687928105766e-01) (23, 4.26103759017006589183e-01) (24, -2.82258706317710904299e-03) (25, -2.95463411537121301009e-01) (26, 6.07934091130928999647e-01) (27, 4.95714846889217297665e-01) (28, 6.36503461718841090367e-01) (29, 3.38673211358955450478e-01) (30, 3.49500198679407458879e-01) (31, -1.81396456066906408555e-01) (32, 5.63609871473320866997e-01) (33, 1.78784478012906006272e-01) (34, -2.38073700670540261415e-01) (35, 5.13519416092873340340e-02) (36, -7.35691462185606576130e-02) (37, 4.85018440925420513121e-01) (38, 9.82800084918901584174e-01) (39, 3.76521677252610265096e-01) (40, 3.47181073916795035483e-01) (41, 4.80033156240958269745e-01) (42, 1.89353098237709766005e-01) (43, 2.50680709326205359844e+01) (44, 3.14617678767660802208e+00) (45, 1.16720362770026024890e+01) (46, 8.07307356703159256783e-02) (47, -8.85030993505789842501e-01) (48, 5.89360597934731389458e-01) (49, -9.68909233373862616157e-02) (50, 4.33383066992592339006e-02) (51, 4.32677249815479947337e-01) (52, 2.37989638878015441481e-01) (53, 2.09338028268818820976e+00) (54, 2.00024053064654622203e-01) (55, -1.81836082268557241992e-01) (56, 3.05784611115768212297e-01) (57, 2.57998487840043977393e-01) (58, -2.83433857657689747267e-01) (59, 2.71777302005732745993e-01) (60, 3.35538413916992739328e-01) (61, 3.31981319226114690579e+00) (62, -1.57363541176441912306e-01) (63, 1.97971920910923504522e+00) (64, 5.09556210057845349048e-01) (65, 3.80341804921193515909e-01) (66, 4.83348633553997708567e-01) (67, 3.81167158552536133875e-01) (68, 4.78783697146664466437e-01) (69, 1.78827088867618355650e+00) (70, 4.63813645404361540869e-01) (71, 2.79091376596578066849e-01) (72, -6.14080660019704210884e-02) (73, -1.92312054638264173789e-01) (74, 4.03975618678326675592e+00) (75, 7.24126427489278912120e-01) (76, 2.96622110106702185917e+00) (77, -1.11145083261985577749e-01) (78, 1.62276401046336937739e+00) (8, 4.76578800791282675142e-01) (9, -2.08159879496923688746e-01) (10, -1.42376365158866896587e-01) (11, 3.26799855846943779203e-02) (12, 1.92600072345813944086e-01) (13, 6.06576078666379858717e-01) (14, 6.16111270004280342505e-01) (15, -2.14330712352108071483e-01) (16, 6.39396127956128212944e-01) (17, 1.53430592438270130273e+00) (18, 5.99991879278190864966e-01) (19, 7.63546289039781389540e-01) (20, 6.22987230279089421181e-01) (21, 1.25031820633750567762e-01) (22, 6.00277253521612097487e-01) (23, 7.33821349876770612219e-01) (24, 4.50852050123519865199e-01) (25, 6.49293258494661906788e-01) (26, 6.44941552787909211375e-01) (27, 7.78681795358547756969e-01) (28, 1.03352796675411431893e-01) (29, -1.58776516113590254742e-01) (30, -2.13836329076599190868e-01) (31, 4.24897782989686612076e-01) (32, 6.66847477393993970374e-01) (33, -2.00644193602683318378e-01) (34, 5.10425911680268407089e-01) (35, -2.76006630502280581041e-01) (36, 5.39069992460848301796e-01) (37, 7.47627104878315518199e-01) (38, -4.46380294928614279604e-02) (39, -7.15877954104652686196e-02) (40, -6.15984443253745281299e-02) (41, -1.28125585213198556200e-01) (42, -6.10046819748646051984e-01) (43, 1.93632695462661597041e-01) (44, 1.01045462610202446685e-01) (45, 3.32540573720478405129e-01) (46, -2.70252207215833040177e-01) (47, 1.28976239453817442815e+00) (48, 6.75179224790170340320e-01) (49, 6.18398576138856903572e-02) (50, 6.65334161831006798415e-01) (51, 6.59273464561536459705e-01) (52, -2.95539952697433383477e-01) (53, 1.90174645879608000820e-01) (54, -1.49298056332836104332e-01) (55, 4.96611561287701952505e-01) (56, -2.45801525112201102452e-01) (57, -1.57799953613590254742e-01) (58, 5.86510751265377106023e-01) (59, -2.09622471047522795917e-01) (60, -3.25002110617953976490e-01) (61, -3.25894533137007225143e-01) (62, 5.31584702093650385279e-01) (63, 2.58928717393460093577e-02) (64, 6.81551296592786459705e-01) (65, -1.56665626510872735278e-01) (66, 7.16127720058992056629e-01) (67, -9.84667535192603332606e-02) (68, -5.68997064105822736302e-01) (69, 1.52607958139854310575e-01) (70, -1.54609207577210805429e-01) (71, -5.81356380322680527106e-02) (72, 3.68877551062219444233e+00) (73, 3.17826256654444583294e-01) (74, 3.27804657064385440712e-01) (75, -1.19845546043880493703e-01) (76, 3.10853058492924667899e-02) (77, 6.45524105840690864966e-01) (78, 1.08254797006542988203e-01) (8, 5.50653226525697814253e-01) (9, -5.88662667140269157962e-01) (10, 6.20326368845073583547e-02) (11, 3.66926249470051757395e-01) (12, 5.46069498978660750055e-01) (13, 4.59228187896814243896e-01) (14, 4.82708886117860946907e-01) (15, -9.99118042104640557977e-02) (16, 6.72196214098081834543e-01) (17, 6.80548000581796874719e-01) (18, 5.95524678511629379507e-01) (19, 3.45076360831847894772e-01) (20, 4.80090461607239060715e-01) (21, 1.59373758209426008570e-01) (22, 4.01568278767671482665e-01) (23, 4.19549234308805363280e-01) (24, 4.87463526279851955270e-01) (25, 6.59256602575787775677e-01) (26, 4.34968941937080133542e-01) (27, 4.41756055782428491696e-01) (28, 3.64563402342503617426e-01) (29, 5.28834654725162320310e-02) (30, 2.24282872747575329209e-01) (31, 5.83395346092359545764e-01) (32, 4.27245773472394840820e-01) (33, -1.13258905598556752770e-01) (34, 6.56850836257593329037e-01) (35, -1.15249502005586187958e-01) (36, 4.90438337355301234854e-01) (37, 4.20318283238019840820e-01) (38, -1.82244956256150753005e-01) (39, 1.92210493675526228330e-01) (40, -1.04681570892988351495e-01) (41, 1.51888643101178721917e-01) (42, 5.47571696572363153521e-01) (43, 2.57151734374150731099e-01) (44, 2.09424609134536088284e-01) (45, -5.13330298688318809042e-01) (46, -6.57627021649501153355e-02) (47, 5.02048597056325207610e-01) (48, 1.11246962354277068030e+00) (49, -6.22499260023808287379e-01) (50, 6.56190854540898982350e-01) (51, 1.10525912085364597104e+00) (52, -4.47454407234388618075e-01) (53, 2.06933330342631616183e-01) (54, 3.03324126809488281431e-02) (55, 6.59892251559044074050e-01) (56, -8.59269031375616554325e-02) (57, 1.45199682759770076768e-01) (58, 5.75757607426175654908e-01) (59, -4.26141563969238967857e-01) (60, -9.79947704438417915851e-02) (61, 2.44748633052232378304e+00) (62, 6.53445420510206820275e-01) (63, 3.08075731436358413173e-01) (64, 3.42300139202203645983e-01) (65, 1.28255833581410627620e-01) (66, 3.75825875530830133542e-01) (67, -1.20368770682166573160e-01) (68, 3.47531214262987053765e-01) (69, 3.59570891777262646727e-01) (70, -5.91939470697301461932e-01) (71, 7.32391149396969254326e-02) (72, -6.36998938800220071421e-01) (73, 6.78618582664529124138e-01) (74, -3.86070683795951552497e-02) (75, -1.13629236580133380352e-01) (76, 1.78741803034215301915e-01) (77, 6.12986835224638260122e-01) (78, 2.30361731052310503287e-01) (8, 5.41351809920270765630e-01) (9, 1.37547456351292973764e+00) (10, -1.22562355380323520504e-01) (11, -9.65341595546231778791e-01) (12, 6.21740046172556737325e-01) (13, -1.87053573446786547407e+00) (14, 5.11444583357772430965e-01) (15, -9.19999826065265313702e-02) (16, 5.75995570643956927848e-02) (17, -3.96722459542646135877e-02) (18, 5.55988043369253004400e-01) (19, -1.76614014383236139771e+00) (20, 5.61434614611012516860e-01) (21, -1.32175203218979953057e+00) (22, -1.54810907100327166397e+00) (23, -1.55973700727131459054e+00) (24, 5.69768039802510672942e-01) (25, 1.14575867973188971760e-01) (26, -1.60202047372869271769e+00) (27, -1.59024546034008196216e+00) (28, 2.69160665808571841762e-01) (29, -1.66834062251769665863e-01) (30, -1.57896418665543047943e-01) (31, -7.31897763580763131841e-03) (32, -1.83178232629769000006e+00) (33, 1.19618952455285465497e+00) (34, 3.96353710475498208221e-02) (35, 1.15718234267322239717e+00) (36, 5.14318171352251218842e-01) (37, -1.57932409566651732469e+00) (38, -2.11488659401044692965e-01) (39, -1.81133930882668547913e-01) (40, -6.10908141403190066421e-02) (41, -1.39624936371762875531e-01) (42, -1.57107125052845941759e+00) (43, -9.97431450929463725430e-01) (44, -1.35887069369679469588e+00) (45, 3.02488210634348275718e-01) (46, 9.82716854414951934693e-01) (47, 7.90289146434492217885e-01) (48, -1.84678242879758847117e+00) (49, 2.30463672601072611101e+00) (50, -1.72657974866589625229e-01) (51, -1.78506209643995905623e+00) (52, 2.24076057279655405097e+00) (53, -1.21116811211545716276e+00) (54, 1.29643666951468872206e+00) (55, 5.96216985298974488927e-01) (56, 1.27242280421031361826e+00) (57, -6.59372984734331174517e-02) (58, 4.96832928284223068749e-02) (59, 1.20866056210187311493e+00) (60, 1.04069610851171812094e+00) (61, -9.49778223213746741749e+00) (62, 5.19746036543233480565e-01) (63, -8.20875693723885913045e-01) (64, -1.59913846819474425587e+00) (65, -1.58124698191602353070e-01) (66, -1.89900757696310251710e+00) (67, 2.13275613682036446761e+00) (68, -1.86837424981307478333e+01) (69, -1.30682683104598185153e+00) (70, 1.76467047766113616092e+00) (71, -2.44575838337684953183e-01) (72, 2.12738067796509389140e+00) (73, -2.36879241757819089531e-02) (74, -1.42069839571222794605e-01) (75, -7.77278470297662338329e-02) (76, -1.27992704045465033325e+00) (77, 5.70105470539529646246e-01) (78, -2.03544350347210878382e+00) (8, 8.14627147267650841833e-01) (9, 4.73463387690953529940e-01) (10, 9.93780089547911305026e-01) (11, 4.52451722404829503876e-01) (12, 1.38587550199938580597e+00) (13, -1.23316215350027486020e-01) (14, 1.41543241501746464017e+00) (15, 8.23150562529335938500e-01) (16, -1.01310472090939490686e-01) (17, -4.12632338094916284454e-01) (18, 3.42752101239440276625e-01) (19, -2.15930962933893189071e-01) (20, -7.58038479568479139914e-01) (21, 3.48203348168712678579e-01) (22, -1.53858209027643244582e-01) (23, -6.49562871118250367841e-02) (24, 4.03271953132625604610e+00) (25, -4.69157766024170586050e-01) (26, -2.13796617652959319855e-01) (27, -1.76552964564151260163e-01) (28, 2.51469268765857845160e-01) (29, 8.68056296668953342177e-01) (30, 8.13276365552916269408e-01) (31, -3.94439005404201403771e-01) (32, -2.09420392479485961701e-01) (33, 4.65433130210425816120e-01) (34, -1.54050386127181720974e-01) (35, 5.54077582106834665154e-01) (36, -1.08032917072775869194e+00) (37, -1.80837629552669021393e-01) (38, 8.74905607669122509229e-01) (39, 8.92766336966638984762e-01) (40, -6.26641011179501639106e+00) (41, 8.54375708963857949385e-01) (42, 1.10036282417657549360e+00) (43, 1.18325537445193273989e+00) (44, 3.72346293742025991058e-01) (45, 2.02629658870577378238e+00) (46, 2.02644864864144680361e-01) (47, 2.34358904810269219610e+00) (48, -1.89563775433893189071e-01) (49, -1.80937095520074708865e+00) (50, -3.90543618563280292566e-01) (51, -6.20937293430031886365e-02) (52, 6.07194529280400296933e-01) (53, 2.69877747259088696108e-01) (54, 5.74740809849497935602e-01) (55, -3.97993042789120377023e+00) (56, 5.63557743378703568382e-01) (57, 9.95509646937632552977e-01) (58, -1.14166682999556012845e-01) (59, 4.48885235811192329081e-01) (60, 6.28481452059087897233e-01) (61, -5.41950451081788853180e-01) (62, 5.46100336548182574425e-01) (63, 4.30026758278750587117e-01) (64, -1.72998832537527069686e-01) (65, 9.60087749873243412324e-01) (66, -1.00965144111509752545e-01) (67, 3.29478324151561707822e+01) (68, 2.09242195552649945522e-01) (69, 3.81672241779526133509e-01) (70, 2.80360410615249078248e-01) (71, 8.14232094998186384238e-01) (72, 4.93827020450912645977e-01) (73, -5.09752567202400252988e-01) (74, -3.19721981408159194871e+00) (75, 1.41390827294453041985e-01) (76, 2.78290699297365440312e-01) (77, 4.46374582773073347308e-01) (78, 2.83087307376246877233e-01) (8, 5.24673032310039366699e-01) (9, -1.78611165409521377434e-01) (10, 3.22140378230584889518e-01) (11, 5.71249721762026041461e-01) (12, 4.19473186041597057017e-01) (13, 4.26106189241642785426e-01) (14, 4.86859215206497941697e-01) (15, 1.78781313957412479887e-01) (16, 7.02337483460245826095e-01) (17, 2.75191318571671228455e-01) (18, 8.69174288776305203896e-01) (19, 4.49751210263008904811e-01) (20, 1.03045338894900195825e+00) (21, 5.36774442471101065344e-01) (22, 4.14973382702107262965e-01) (23, 5.22987295737490698322e-01) (24, 3.45657281861704912540e-01) (25, 6.94491884715077389956e-01) (26, 4.04981923153633904811e-01) (27, 4.73774646272892785426e-01) (28, 5.25167985029864892166e-02) (29, 3.43435538285745411979e-01) (30, 3.56718396651853342227e-01) (31, 8.17773277456103064864e-01) (32, 5.11592459903655538689e-01) (33, -1.21711394659272942320e-01) (34, 7.58990312511263587325e-01) (35, -4.90644898094822201617e-02) (36, 1.05910939480837718030e+00) (37, 4.91999749889607262965e-01) (38, 1.20407296480376971304e-01) (39, 2.04257075959213635352e-01) (40, 1.65035061981399278075e-01) (41, 2.87356448644174367058e-01) (42, 1.20887851332609996824e+00) (43, 4.73327509150837377749e-01) (44, 5.25558435782182753471e-01) (45, 3.38422535025125759134e-02) (46, -1.28384185473030904001e-01) (47, 4.97593080218010019866e-01) (48, 4.24806569741673356599e-01) (49, -8.13607896919430806371e-01) (50, 1.93243411275197229937e-01) (51, 5.39552238633856817707e-01) (52, -1.45518751818321558089e-02) (53, 4.80042257286155460427e-01) (54, -4.05956645524412351733e-02) (55, 8.57387233436930573660e-01) (56, -2.03287682061628616204e-01) (57, 3.38516113632692128288e-01) (58, 6.98330997533318509340e-01) (59, -8.61908215308071767868e-02) (60, -5.10728045185559545449e-02) (61, -8.81818278832072754980e-01) (62, 3.58474664674204912540e-01) (63, 5.24685630067575514701e-01) (64, 4.18599729639668405312e-01) (65, 3.11916989558709889518e-01) (66, 5.11170890977607372818e-01) (67, -5.91043336322775503255e-01) (68, -7.69410276650776547847e-01) (69, 3.99562468895801270463e-01) (70, -6.24139970767486618186e-01) (71, 3.04342520707620411979e-01) (72, -9.27078330353074409054e-01) (73, 7.66276504992196016985e-01) (74, 1.52035892286267931839e-01) (75, 2.27371407808501957426e-01) (76, 5.09612195534208556325e-01) (77, 3.75515310760777765164e-01) (78, 4.18787897837175959737e-01) (8, -8.33324539189532614847e-02) (9, 4.50519644413130360139e-01) (10, 3.42103628475852794555e-01) (11, 2.39112781909896465748e+00) (12, 1.31737033651073182257e-03) (13, 3.43490694111132699451e-01) (14, -1.45751431625182337193e-01) (15, 3.43905000101906832555e-01) (16, -4.85073223963067221010e-02) (17, 7.28251867347359388427e-02) (18, -1.24646391840572343113e-01) (19, -6.00620645166671934811e-02) (20, -1.08458840078974327881e-01) (21, 5.90284315047139185317e-01) (22, 2.64456268792891580066e-01) (23, 3.48064041554808745182e-01) (24, 1.35546780420509535570e-02) (25, 1.16718051139546273587e-02) (26, 2.54179815889058358103e-01) (27, 3.23564474911818666936e-01) (28, 9.67620719642510590530e-02) (29, 2.68149413190930607787e-01) (30, 3.63557318372459026268e-01) (31, -2.50225278433133385692e-02) (32, -6.31022558853968056763e-03) (33, 1.54443522617509515493e-01) (34, -1.39127752452688185913e-01) (35, -1.09234352462535488915e-01) (36, -7.79351599284654750210e-02) (37, 2.28259599255771106208e-01) (38, 4.11826679245503479709e-01) (39, 2.29023442726263293245e-01) (40, 3.84542632693001151800e-01) (41, 3.11990988158543813835e-01) (42, 6.47381588062487245416e-01) (43, 2.80292755381637448409e+00) (44, 1.18062600820941510094e+00) (45, 1.73807979021395153651e+00) (46, 2.04433406538912204597e-01) (47, -8.49206890838931638399e-02) (48, 2.70966388217652003056e-02) (49, 4.47778424567412902668e-01) (50, 1.02029025365690736993e-01) (51, -9.13486878455916223585e-02) (52, 4.47347187129330470245e-01) (53, 5.34198131068048032155e-01) (54, 4.03371287115991405958e-01) (55, -1.39735789537781179837e-01) (56, 7.24385418149765536455e-02) (57, 3.43030914136936426750e-01) (58, 2.72277350703884757355e-02) (59, 3.39308397455612031912e-01) (60, -2.00204462910356373317e-01) (61, 3.43455496157332451634e-01) (62, 1.51211873427089804611e-02) (63, 1.18439749774523872539e+00) (64, 2.39122609538395036743e-01) (65, 3.06400482267220775068e-01) (66, -1.06821099954966622358e-01) (67, 5.31371260083681518083e-01) (68, 5.49511703857443301047e-01) (69, 5.09867216518208876685e-01) (70, 5.37143900583106237434e-01) (71, 2.99354975676044188226e-01) (72, 3.04794893059287086423e-01) (73, -2.82383038012591486288e-02) (74, 1.35705430515440150785e+00) (75, 3.52067760650857486393e-01) (76, 5.09201728828861499565e-01) (77, -1.06989366060276341885e-01) (78, 1.01591323932863297763e+00) (8, -3.58026857303213250083e-02) (9, 4.40795104502464285545e-01) (10, 1.34789026531705491418e-01) (11, 1.53119093119491317401e-01) (12, 9.16622996722731286923e-02) (13, -4.69218154843591805925e-01) (14, 1.32512663675711708094e-02) (15, 4.43406501563086252737e-01) (16, -6.83432642363353437531e-01) (17, -5.70343095945229694443e-01) (18, -5.71383271473986487088e-01) (19, -5.45927149649412024601e-01) (20, -5.71693339038173986566e-01) (21, 5.05826390861698962920e-02) (22, -5.34812641735822547062e-01) (23, -5.68998434986621726139e-01) (24, 1.12981413675711690747e-02) (25, -1.72165057876228222433e+00) (26, -5.14601146360103900435e-01) (27, -5.44926171596795905216e-01) (28, 2.27588212138566697851e-01) (29, 1.42444478676254121519e-01) (30, 1.79693099809790146626e-01) (31, -7.08908718072219556916e-01) (32, -4.55218025807426485141e-01) (33, 3.98887998210121164089e-01) (34, -7.89453690461031198922e-01) (35, 4.08369943331035212264e-01) (36, -5.68032581944935444085e-01) (37, -4.86248996586309434331e-01) (38, 3.35597556649094685977e-01) (39, 7.47440187906704134324e-02) (40, 3.80469804696655533593e-01) (41, 1.21553363480841003508e-01) (42, -2.16400842066203191738e-01) (43, 1.60422997571214365209e-01) (44, 9.42493476186652551219e-02) (45, 1.46495735274237581791e+00) (46, 3.99274806147569771841e-01) (47, 8.11590626239766937955e-02) (48, -3.62550751845833948983e-02) (49, 9.77996371396613217719e-01) (50, -1.66845427914496102773e+00) (51, -4.99534321423322269506e-01) (52, 4.44888456215415784012e-01) (53, 9.70303929924186681077e-02) (54, 4.87501124506944771841e-01) (55, -5.22497035370473872362e-01) (56, 4.14212867294809883312e-01) (57, 8.17406636294956134847e-02) (58, -1.60093595505553215608e-01) (59, 4.88958848430624759551e-01) (60, 4.61954963307483923440e-01) (61, 8.79066271435704926773e+00) (62, -1.41946901841382450149e-01) (63, 2.12779870022590411605e-01) (64, -4.85358767375359101415e-01) (65, 2.16658340969358764738e-01) (66, -6.00797755118162024601e-01) (67, 1.01994518379144594178e+00) (68, -2.89957231183344426029e+01) (69, 1.78019831992320853864e-01) (70, -1.20863058423263303176e+00) (71, 2.12206320411169185869e-01) (72, 4.12195503230826154617e-01) (73, -1.60345762975283090412e+00) (74, 2.15029043665125013662e-01) (75, 5.13477677665921783401e-01) (76, 1.82574271106165225698e-01) (77, -6.53742226587377545099e-02) (78, -1.29002556760565781357e-02) (8, -1.53262041919351721386e-01) (9, 7.04287249972883055982e-01) (10, 1.36386470061147391242e+00) (11, 1.18641948839896271828e+00) (12, 9.01567520595409344075e-02) (13, 3.08000447259844656323e-01) (14, -8.86125217351235311414e-02) (15, 4.54442603669283462509e-01) (16, 8.93991898023988457167e-02) (17, 1.86431984905570030664e-01) (18, -1.63872803567268576774e-01) (19, 2.47165794440546815469e-01) (20, -4.97646629215807767554e-01) (21, 8.69554412601113102532e-01) (22, 4.07956811555665932456e-01) (23, 2.96349402379648296790e-01) (24, -2.52674046878553770767e-01) (25, -1.32823282422029786964e-01) (26, 3.71389091713735575162e-01) (27, 2.33805204697886293008e-01) (28, -1.69309847175710204148e+00) (29, 1.15691627838044919230e+00) (30, 1.23316673872972759618e+00) (31, 2.05520732655735199890e-01) (32, 3.92677140052353879085e-01) (33, 2.86940252422462016568e-01) (34, 7.79816641952710554175e-02) (35, 2.74987153206601553368e-01) (36, -4.23379055561153017084e-01) (37, 3.33629110859335775707e-01) (38, 1.04488506030582417594e+00) (39, 1.58882568114644495694e+00) (40, 7.33096476313561340454e-01) (41, 1.03784535433546132310e+00) (42, 2.20561423335873341145e+00) (43, 2.78065960874420703419e+00) (44, 8.24793772461701824028e-01) (45, 5.32378530973301899998e-01) (46, 2.67202951713845004988e-01) (47, 5.52444884321303059452e-04) (48, 2.51576055402790266236e-01) (49, 1.79138329965142256706e-01) (50, 8.20530413837124300569e-02) (51, 3.36705848437206356483e-01) (52, 2.07634560525624900507e-01) (53, 6.93083224657461638429e-01) (54, 2.71519267551968812580e-01) (55, -1.90428159492071397141e-01) (56, 7.09822148166633470900e-01) (57, 1.50998737225609347412e+00) (58, 1.54703317996805669171e-02) (59, 6.66655592958756981758e-01) (60, 5.91069452654683469284e-01) (61, -1.17718627628791996931e-01) (62, -1.77790694094483781029e-01) (63, 7.95702479255291805771e-01) (64, 3.92373918230568885512e-01) (65, 1.12360172650044365383e+00) (66, 3.08329130479139290610e-01) (67, 1.99905495518051617987e-01) (68, 6.11828472046713933707e+00) (69, 1.05438496058939401578e+00) (70, 2.41776587283322630384e-01) (71, 1.22572715221679962028e+00) (72, 1.96142602494043166717e-01) (73, 6.33742690828836829908e-02) (74, 1.06389379863992356023e-01) (75, 9.78786182212621036491e-01) (76, 6.81245694499446052816e-01) (77, -3.51008682370593447231e-02) (78, 5.25976311675476759788e-01) (8, 7.80642122145251526888e-01) (9, 1.02595436483186239207e-01) (10, 1.22931065846812653808e-01) (11, -7.81674496315286293502e-01) (12, 1.03849999773308043771e+00) (13, 3.80762473705693271775e-01) (14, 6.76131265640877776590e-01) (15, -3.53028618359594981158e-01) (16, 6.15824050044325166375e-01) (17, 2.26182457623160443339e-01) (18, 1.19178811393194861168e+00) (19, 3.55715992136755032593e-01) (20, 1.26274237691044266541e+00) (21, -3.70885192953834097462e-01) (22, 2.54513080795559620828e-01) (23, 1.87460372432027871925e-01) (24, 7.38210706403522043395e-01) (25, 6.64665571502928154146e-01) (26, 2.95266929429785607297e-01) (27, 2.81814621969022627290e-01) (28, 2.71605635541455248116e+00) (29, -2.33138085471332016929e-03) (30, 9.33982427430651435118e-02) (31, 6.16606029458402038479e-01) (32, 3.56773439872350661695e-01) (33, -1.25288875131606227721e-03) (34, 7.58718756790114468025e-01) (35, 1.57449275828003693034e-01) (36, 1.19579901455521042664e+00) (37, 2.34006169827890492252e-01) (38, 1.49693728398301223459e-01) (39, -1.54471942806785222935e-01) (40, 7.32733580733942235774e-01) (41, -5.40428908017494061267e-02) (42, 3.08204087756503875006e-01) (43, -7.34467444271398317568e-01) (44, -6.83960567865490975947e-01) (45, 2.08108695317761593913e+00) (46, 8.57936844736982839876e-02) (47, 4.61767873631010417057e+00) (48, 2.97960389657773994099e-01) (49, -1.94136817717809051498e-01) (50, 2.04460672373486113118e-01) (51, 2.49089103269659106754e-01) (52, 1.14856509289618449743e-01) (53, -2.48228881095503339793e-01) (54, -3.06523583467870324587e-03) (55, 1.23089418499584035693e+00) (56, 6.28149709567669412014e-02) (57, 8.31306939604687690493e-03) (58, 2.43545606772090583725e-01) (59, 3.93755980089343995965e-02) (60, 1.79244857447097061254e-01) (61, -2.72078768136510440456e+00) (62, 1.75799887109748076419e+00) (63, -7.52332162557981187767e-01) (64, 2.13982065654039488312e-01) (65, -2.68704042701100112578e-02) (66, 2.38589527293001230079e-01) (67, -3.64042833348553074302e+00) (68, -1.59726090229789594588e+01) (69, -6.83611505555415943647e-01) (70, -5.46660604431394636649e-01) (71, -5.36165794825495950482e-02) (72, 1.94434345816374670735e-01) (73, 6.60476374916611264076e-01) (74, 1.00692743098956238867e+01) (75, -1.55905149142573529186e-01) (76, -3.48616511697631525912e-01) (77, 8.42105552728698247833e-01) (78, -4.15069678310166778612e-02) (8, 6.65235364455707745002e-01) (9, -2.36442209972982875232e-01) (10, -1.94890452869488750576e-01) (11, 6.00329935127583008692e-02) (12, 3.28600552492736119881e-01) (13, 6.74899271154361435343e-01) (14, 5.46988896374503763553e-01) (15, -1.16926664815348274606e-01) (16, 7.35251226827642767603e-01) (17, 4.65864034514375469076e-01) (18, 4.97266614455715350029e-01) (19, 5.59062963876934437835e-01) (20, 6.65299484740063840071e-01) (21, 1.30997759731257875510e-02) (22, 6.80438875001786791508e-01) (23, 6.97717684380657954257e-01) (24, 5.78542181549156264708e-01) (25, 8.95601525110777396677e-01) (26, 6.40813453648300446197e-01) (27, 6.69567114267559326812e-01) (28, 2.46091115564128382065e-01) (29, -9.01703563346307745974e-02) (30, -6.68873640117019357954e-02) (31, 5.84785830809323003976e-01) (32, 6.00677518467457427498e-01) (33, -1.25074747989862539166e-01) (34, 5.97452166097976022918e-01) (35, -1.99461144069961321401e-01) (36, 6.20599366480252379041e-01) (37, 5.84402518790095415468e-01) (38, -3.39005389907538368099e-01) (39, -1.16007876439454052364e-01) (40, -2.08523235607284335158e-01) (41, -2.44932676426525330893e-01) (42, -2.05427620132578558909e+00) (43, 2.38676088839494884852e-02) (44, 1.14193409303279411193e-01) (45, -1.58605961124369428117e-02) (46, -1.94230534263976878373e-01) (47, 2.09303348024179003417e+00) (48, 6.29998809020073546883e-01) (49, -4.89469312181817356455e-02) (50, 3.17533957211510342589e-01) (51, 5.60963423155968810008e-01) (52, -2.79741914883278819381e-01) (53, -3.58618918385538165694e-02) (54, -1.93909107264252478231e-01) (55, 6.70595840984142377295e-01) (56, -1.13006461204197772297e-01) (57, -1.36827336247422187698e-01) (58, 7.35259647074749445039e-01) (59, -9.63577069742375946770e-02) (60, -2.52537648984057727652e-01) (61, -1.44843567166594966444e-01) (62, 6.49532170293415145323e-01) (63, 2.30212732726417998452e-02) (64, 6.62687709380843315010e-01) (65, -8.00828139702065844308e-02) (66, 5.54784400913925557219e-01) (67, -3.06335370635911652393e-01) (68, -7.87109224525383144311e+00) (69, -1.91812965942398522268e-02) (70, -1.18074445641967312737e-01) (71, -1.26242286516644458549e-01) (72, 3.14240304346960179771e+01) (73, 6.30226527293496929794e-01) (74, -5.12368086138559331033e-01) (75, -1.60849863388720648594e-01) (76, 1.09132861808200365417e-01) (77, 5.80744394678600506232e-01) (78, 5.19232399717220460822e-03) (8, -2.40000966528159387359e-01) (9, 6.45990886219246163158e-01) (10, 1.07204427923737899420e+00) (11, 6.97920625531234906092e-01) (12, 1.41443820150491422760e-01) (13, 3.68272593070256282211e-01) (14, -9.52218906413393600952e-02) (15, 1.01178296380227417117e+00) (16, 2.99541420474562447573e-01) (17, 5.45807380282281262573e-01) (18, -6.92985246188854014937e-02) (19, 2.39159127529367937504e-01) (20, 1.15304135575581778728e-01) (21, 9.14088035474587057294e-01) (22, 2.29162304957804235928e-01) (23, 2.64904494692979552983e-01) (24, -1.63836109820887643185e-01) (25, 4.14653129940332002001e-02) (26, 3.96523678514095589964e-01) (27, 3.33421824331986416112e-01) (28, -3.11730348391850098366e-01) (29, 1.10066933521024101772e+00) (30, 1.51784316072547431631e+00) (31, 3.81839138581931525351e-01) (32, 2.18334666748938116543e-01) (33, 8.31712401834186598748e-01) (34, 2.16297812135425732150e-01) (35, 6.95781973553019961187e-01) (36, 1.09163102754440424769e-01) (37, 2.95129104813038722899e-01) (38, 1.08790559207392156793e+00) (39, 1.05167439491061243118e+00) (40, 1.08593608035958766322e+00) (41, 4.86222770213058930189e-01) (42, 3.06278169834099189828e+00) (43, 1.20939929696764392197e+00) (44, 8.08184526261479407871e-01) (45, -3.49339730949346005673e+00) (46, 6.79020940487049196044e-01) (47, 2.36097548822756408970e-01) (48, 3.85251846571682876608e-01) (49, 2.79508868880811278679e-01) (50, 7.36329932179661472702e-01) (51, 2.78748390667168055579e-01) (52, -1.66033621128085928653e+00) (53, 7.89773683420193162164e-01) (54, 7.64682495167621212317e-01) (55, -2.02386277109272566532e-01) (56, 8.37315907418727189970e-01) (57, 1.44096766064355219505e+00) (58, 5.35539723294301772683e-01) (59, 6.48575710028537866236e-01) (60, 5.00327237555524551027e-01) (61, -5.05038265028133093182e-01) (62, 1.45394451750023023795e-02) (63, 8.82311402649631815187e-01) (64, 2.66049630745683440836e-01) (65, 4.77764261433517412048e-01) (66, 2.29552931447920355312e-01) (67, 1.25269201769770910371e-01) (68, -7.75686580791338897711e+00) (69, 7.81005536023647306543e-01) (70, 1.95952285372499035443e-01) (71, 1.02121470909329659094e+00) (72, 1.06749808703930471054e-01) (73, 1.36428100573188770817e-01) (74, -8.06892205194180700545e-01) (75, 8.68878343826200216782e-01) (76, 9.81712203816687223323e-01) (77, -1.18382308223946630665e-01) (78, 5.25768931151629592691e-01) (8, 5.38783540641416203165e-01) (9, -1.39416874620601399792e-01) (10, -1.75021717191527870217e-01) (11, 7.21221584500843226895e-02) (12, 2.37540855311273890749e-01) (13, 7.30474165233605865488e-01) (14, 6.06972014223683964396e-01) (15, -1.61555166302265490463e-01) (16, 4.42434599486254243050e-01) (17, 1.13300818625692301111e+00) (18, 4.99167331139364622850e-01) (19, 7.47427896936869728961e-01) (20, 5.67019224960461976082e-01) (21, 2.16199920744003827588e-02) (22, 6.63511083976435767084e-01) (23, 6.75486412448525697094e-01) (24, 6.31718825752528356787e-01) (25, 5.82880040681139632852e-01) (26, 7.53269594018388111145e-01) (27, 6.20017234610486411839e-01) (28, -3.14448093992903576765e-01) (29, -1.96310778946469810524e-01) (30, -4.38760357495910219283e-02) (31, 6.67236774082921257900e-01) (32, 6.21683489905763053684e-01) (33, -1.34690323062942374222e-01) (34, 5.00488073363091312551e-01) (35, -3.31525530308547311531e-01) (36, 6.34389833409444214851e-01) (37, 6.13720216653102723647e-01) (38, -2.15341543645452049294e-01) (39, -1.06668809992955748722e-01) (40, -1.92999344975022663062e-01) (41, 1.50919987492764889891e-01) (42, -4.38206367743968794315e+00) (43, 1.10832405727087163205e-01) (44, 2.92711234499805905696e-02) (45, 1.49146811676615254072e-01) (46, -1.63849689231606088224e-01) (47, 2.70488525180492400679e+00) (48, 6.57560390038132935864e-01) (49, 3.33767645838627322052e-02) (50, 7.64987787591208223681e-01) (51, 6.36350240932870292454e-01) (52, -1.83392830331707334945e-01) (53, 2.05870253484426862789e-01) (54, -1.84519799502822795523e-01) (55, 5.27042309162600419725e-01) (56, -1.77082099185677133146e-01) (57, -6.87268939268562417677e-02) (58, 8.03206991135954839756e-01) (59, -3.30036585270445825824e-01) (60, -2.16391511442769274298e-01) (61, -2.68112242732294503433e-01) (62, 1.02489405252241191913e-01) (63, 1.01800431965356513730e-01) (64, 7.31146164515727781108e-01) (65, 3.74495299985069390880e-02) (66, 7.25961843608069479217e-01) (67, -2.25429638528012420140e-02) (68, 6.17617471429036779540e+00) (69, 2.06699464552573708431e-01) (70, -2.71740018355108192694e-01) (71, -4.44003696151469423592e-02) (72, 3.19682019980777143431e+00) (73, 6.40764401585723564203e-01) (74, 2.85581944955116417972e+00) (75, -8.35971588798270492937e-02) (76, 1.24859761057164161957e-01) (77, 5.55470553850282322550e-01) (78, 4.16354768470148101089e-02) (8, 3.72137885321498551594e-01) (9, 3.31036468722608723247e-01) (10, 5.58389428962074774176e-01) (11, 1.04764615974682362420e+00) (12, 8.78519310508128897785e-02) (13, 2.70932989442846605677e-01) (14, 1.97639215875848150983e-01) (15, 4.35639966331514083553e-01) (16, -2.39583277603486438645e-01) (17, 1.42003782021580315931e-01) (18, -1.17748203940079024243e-01) (19, 3.95445105840315835888e-01) (20, -5.94901070705010359685e-02) (21, 1.02948747417789809866e+00) (22, 3.37913738550391140603e-01) (23, 2.71600985810270534326e-01) (24, 2.71088759177112725851e-01) (25, -1.37691186269621707039e-01) (26, 5.74463527012685354345e-02) (27, -3.75747972711458766426e-02) (28, 7.52726888126894477793e-01) (29, 3.49718869822604305764e-01) (30, 5.61439327144731881170e-01) (31, -9.80423807585286272159e-02) (32, 3.13226962372771255971e-01) (33, 4.60406073984508390495e-01) (34, -2.18989648618702570371e-01) (35, 4.37905817386115558953e-02) (36, -5.09477849122028786377e-02) (37, 3.33940343918051663064e-01) (38, 7.92488472801302634707e-01) (39, 6.53622113044041941343e-01) (40, 6.20266846056447662683e-01) (41, 1.29010110362482510737e+00) (42, 3.24048447517673199325e-01) (43, 9.65115835962858659158e-01) (44, 1.14770371608176158240e+00) (45, 3.33558606216161734892e+00) (46, 4.93298042890426668983e-01) (47, 3.36284274799957649815e-01) (48, 3.94333871329329677113e-01) (49, 4.84122403859754135702e-01) (50, 6.12330747898085503422e-02) (51, 3.34947061945548019146e-01) (52, -2.85279035798273516988e-01) (53, 1.13762863543460568394e+00) (54, 4.17380861979916584215e-01) (55, -6.34935998951892260900e-02) (56, 5.14235012121835088905e-01) (57, 5.88677314893031433662e-01) (58, -2.27674614205936820532e-01) (59, 3.72592928298009662402e-01) (60, 5.38347360248436657137e-01) (61, -2.91742300635976326006e+00) (62, 1.60569693751643344237e-01) (63, 1.08883763654522303099e+00) (64, 2.94164920397566920229e-01) (65, 6.83602683182632842041e-01) (66, 3.66105509211173074657e-01) (67, 5.75821932380951473363e-01) (68, 3.41101627278364349927e-01) (69, 1.38464502057919514044e+00) (70, 1.69914558211072819205e-01) (71, 5.72102104013041623531e-01) (72, 1.87683153031360627772e-01) (73, -8.62256433218525214501e-02) (74, 8.53867974132786033969e-01) (75, 5.95614459487932235149e-01) (76, 1.19468880093599350012e+00) (77, 1.20203781598807499242e-01) (78, 4.94231386126627814104e-01) (8, -1.45654745667945673127e-01) (9, 4.70123556734976244531e-01) (10, 9.22031113504835242445e-01) (11, 2.84914249350770198976e-01) (12, 1.85533813453449325515e-01) (13, 1.45744351037477883060e-02) (14, -2.71809863758096181829e-01) (15, 6.63785803406611196742e-01) (16, 2.13514315363382861657e-01) (17, 4.23679021726926618996e-01) (18, -2.34667653914911289448e-01) (19, 9.30011416484116115733e-02) (20, -2.18982609066610323101e-01) (21, 3.71433694001886138825e-01) (22, 2.52125509991411138333e-02) (23, 1.03394515174504292299e-01) (24, -2.56087013443326072526e-01) (25, 1.83713813445407513937e-03) (26, 2.91724994729547160155e-01) (27, 8.08629044769815187241e-04) (28, -3.32099535269783807667e-01) (29, 7.62539719312612551683e-01) (30, 8.19829874300923244768e-01) (31, 2.27668369587873981041e-01) (32, 1.51362129473526146883e-01) (33, 4.18116106248452579219e-01) (34, 1.10874553269892012208e-01) (35, 5.21562487621760717538e-01) (36, -2.55683036598804036554e-01) (37, 1.55820141294652936281e-01) (38, 8.53264147956844132281e-01) (39, 9.41970979203901825905e-01) (40, 9.12276108357730097786e-01) (41, 4.30988782037227458055e-01) (42, 2.47127227667238180686e+00) (43, 2.62421533585842026159e-01) (44, 3.17524473613231161817e-01) (45, -2.28285535532875183407e+00) (46, 5.54733449804152289886e-01) (47, 1.30666261926190352405e-01) (48, 1.78950631738146043181e-01) (49, 3.48862707147581607714e-01) (50, 3.93165500978712778579e-01) (51, 1.28923510968297266865e-01) (52, -4.16434969792626674678e-01) (53, 4.21106271804309595375e-01) (54, 5.58736418616404995063e-01) (55, -2.36300146533943045135e-01) (56, 5.67809128567472010118e-01) (57, 8.39814320225598542891e-01) (58, 9.44591410722487451190e-02) (59, 5.53152325486697127310e-01) (60, 4.18899106549660005250e-01) (61, 3.44140841053195867261e-01) (62, -1.34972023802622798083e-01) (63, 3.23853355307144707975e-01) (64, -7.35951243535389737493e-03) (65, 8.75597071954071770605e-01) (66, 2.08421422066414306629e-02) (67, 2.05965693062588328655e-01) (68, -3.73731966912303148476e+00) (69, 4.57784727461871376875e-01) (70, 3.13927374485604260279e-01) (71, 9.19160664818773454066e-01) (72, 5.40376802651848842096e-01) (73, 2.15018843359499473022e-01) (74, 6.51614458651554095958e-01) (75, 7.39452622749107835176e-01) (76, 4.34776021167511683707e-01) (77, -2.76714647639529853773e-01) (78, 1.04191668526506275860e+00) (8, 2.59508591222952000876e-01) (9, 6.03064157684742238597e-02) (10, 2.71884355004941430378e-02) (11, -2.05885792442490084264e-01) (12, 1.06595841118800938041e+00) (13, 2.53387333954618043652e-01) (14, 3.57248553523303480350e-01) (15, 4.29685419600255025241e-02) (16, 1.60628821663973297973e+00) (17, 6.09359925360315357601e-01) (18, 6.08223057429735813884e-01) (19, 3.73986700679112327173e-01) (20, 5.50874238805025284726e-01) (21, -2.58981607768508870215e-01) (22, 2.34026985372348950154e-01) (23, 2.54523213654437141518e-01) (24, 3.30970378186799418785e-01) (25, 1.65013339879612352945e+00) (26, 2.69893589309850689961e-01) (27, 3.15972799552481642404e-01) (28, 1.63435953558277058395e-01) (29, 5.61194124940553110137e-02) (30, 1.67299380524573021445e-01) (31, 1.11845195329607238754e+00) (32, 2.25478546899164300488e-01) (33, 9.77223937348651733314e-02) (34, 1.62854583736998281829e+00) (35, -3.94521897331084336891e-01) (36, 4.87464560380981681842e-01) (37, 3.60292108563873281213e-01) (38, 3.12154154562061594835e-02) (39, 1.17195138485081812307e-01) (40, -1.93539758587476934393e-02) (41, -1.21096870541522773357e-03) (42, 7.62180770766406445738e-01) (43, -6.82874322795310462197e-01) (44, -2.74942070766899082646e-01) (45, -3.25455043387444020730e-01) (46, -4.61049559823141497095e-01) (47, 1.57309354825678315848e+00) (48, 2.70254368342440598472e-01) (49, -1.17635993160659424461e-01) (50, 4.15175462070062006870e-01) (51, 2.49733919483030419872e-01) (52, 9.33707041211026683714e-02) (53, -2.67642129910453663300e-01) (54, 1.61570653168397332378e-01) (55, 5.97784434321725233197e-01) (56, -1.57575238152914243184e-01) (57, 4.67843786189740887260e-02) (58, 1.67463852185953632201e+00) (59, 4.11839441912218509612e-02) (60, -1.13117686567612160675e-01) (61, -4.92600036400837293371e+00) (62, 